p,-1.0,0.976323127747,0.883967041969,-0.870132446289,0.00559135712683,-0.99999833107,-1.0,-1.0,-1.0,-0.985723853111,0.756870627403,-0.999996960163,1.0,1.0,-1.0,0.390568912029,0.994924008846,0.855043411255,-0.653946757317,1.0
p,-1.0,0.998735427856,0.948676288128,-0.943077921867,0.0922219604254,-0.999290645123,-1.0,-0.999966979027,-1.0,-0.450186818838,0.900014877319,-0.999997735023,1.0,0.999999940395,-0.999958276749,0.312824368477,0.985142409801,0.999742150307,-0.754337787628,0.999982774258
p,-1.0,0.980221688747,0.972239136696,-0.983242690563,0.170573249459,-0.999996423721,-1.0,-0.999979019165,-0.999999821186,-0.902778029442,0.945092201233,-0.999999701977,1.0,0.999999821186,-0.999999940395,0.551440834999,0.995114922523,0.999969899654,-0.86848950386,0.999997138977
p,-1.0,0.998658061028,0.945922195911,-0.965615570545,0.153726547956,-0.988773167133,-1.0,-0.999973475933,-0.999999701977,-0.807430207729,0.887033879757,-0.999883115292,0.999999880791,1.0,-0.999981343746,0.466231048107,0.995206654072,0.956948280334,-0.794345498085,0.997911632061
p,-1.0,0.999994277954,1.0,-1.0,0.489914536476,-0.429541319609,-1.0,-0.999999701977,-1.0,0.871009647846,1.0,-0.999999940395,1.0,0.999999880791,-0.999996840954,0.805064678192,0.999347031116,0.999111413956,-0.99914008379,1.0
p,-0.998428165913,0.998233318329,0.999138832092,-0.999817967415,0.452532321215,-0.856034696102,-0.999922990799,-0.927513897419,-0.999379575253,-0.532140731812,0.999682664871,-0.996321737766,0.999996602535,0.999848902225,-0.818706214428,0.950790762901,0.817515015602,0.920854568481,0.0865698978305,0.993352472782
p,-0.995131015778,0.895892381668,0.972369253635,-0.999030947685,0.231358081102,-0.72046661377,-0.978211522102,-0.0966803506017,-0.999807476997,0.580086708069,0.999457895756,-0.99617677927,0.999517440796,0.998468279839,-0.840110003948,0.482921570539,0.898578345776,0.920783281326,-0.968427479267,0.998552978039
p,-0.989029824734,0.989507436752,0.959023654461,-0.984208524227,0.465368360281,-0.203346684575,-0.947128713131,-0.526000857353,-0.996774971485,-0.40165361762,0.983453691006,-0.917136728764,0.999936103821,0.998372793198,-0.515545785427,0.565516233444,0.905970871449,0.812753498554,-0.80021828413,0.854914367199
p,-1.0,0.97426122427,0.987840890884,-0.999997019768,0.630371928215,-0.998745083809,-1.0,-1.0,-0.999998807907,-0.888679385185,1.0,-0.997818529606,0.999996125698,1.0,-0.999999940395,0.557137489319,0.849093198776,0.673049986362,-0.971552968025,1.0
p,-0.999743640423,0.995164871216,0.999739348888,-0.999900877476,0.497575253248,-0.962695419788,-0.979471564293,0.999782085419,-0.999999046326,-0.487943470478,1.0,-0.997331857681,0.999982714653,0.99992698431,-0.999999582767,0.878280699253,0.763964831829,0.871126174927,-0.922412455082,0.999343454838
p,-0.999999463558,0.979420542717,0.990425407887,-0.999999046326,0.502886652946,-0.999923467636,-1.0,-0.968314111233,-1.0,-0.374748975039,0.986443400383,-0.999999642372,1.0,1.0,-1.0,0.0,0.978261232376,0.956367373466,-0.166302487254,1.0
p,-1.0,0.554925918579,0.999998509884,-1.0,0.0918822959065,-0.999999642372,-1.0,-1.0,-1.0,-0.90290594101,0.988655328751,-0.999989390373,1.0,1.0,-1.0,0.526656866074,0.789094030857,0.959121406078,-0.836962401867,1.0
p,-0.99992442131,-0.854137539864,0.888934612274,-0.869123935699,0.291490644217,-0.907669305801,-1.0,-0.803444325924,-0.99998152256,-0.990103900433,1.0,-0.998262524605,0.882481515408,1.0,-0.87829720974,0.865873932838,-0.234410762787,0.954413294792,-0.30860221386,0.914364218712
h,-0.984204113483,0.772216558456,0.929219007492,-0.928017497063,0.995488345623,-0.999990224838,0.463065594435,-0.790818572044,-0.991351127625,0.453172117472,0.469250500202,-0.612181782722,0.999999701977,0.999195873737,-0.999993979931,0.0,0.818694353104,0.776097536087,-0.925131261349,0.93123793602
h,-0.999999642372,0.998391985893,1.0,-0.999999523163,0.894421637058,-0.999994516373,-1.0,-0.999609529972,-0.999999046326,-0.916733980179,1.0,-0.999999403954,1.0,0.999650120735,-1.0,0.657807230949,0.998421609402,0.998460948467,-0.19535805285,0.999999761581
p,-1.0,0.999934732914,0.951088070869,-0.963860094547,0.252264529467,-0.999976813793,-1.0,-0.99797129631,-1.0,-0.990270674229,0.662237346172,-0.997824132442,1.0,1.0,-1.0,0.0628561154008,0.998805880547,0.700433194637,-0.998724520206,1.0
p,-1.0,0.99911904335,0.949278235435,-0.995398879051,0.592982947826,-0.99998652935,-1.0,-0.981074154377,-1.0,-0.983302891254,0.745896399021,-0.999132633209,1.0,1.0,-1.0,0.201682046056,0.999056279659,0.734988629818,-0.99944704771,1.0
p,-0.999999880791,0.997670769691,0.999999523163,-0.999999880791,0.662059962749,-0.99930280447,-0.999992609024,0.612030923367,-1.0,-0.943991601467,0.794270038605,-0.993866980076,1.0,1.0,-1.0,0.132722496986,0.995079100132,0.869423031807,-0.97395914793,1.0
p,-0.969862937927,0.862613081932,0.983143210411,-0.991792738438,0.885763525963,-0.928201794624,-0.940123319626,-0.935115814209,-0.999894976616,-0.18611960113,0.629443943501,-0.914456546307,0.999961495399,0.999546468258,-0.996562361717,0.0,0.978566706181,0.395316392183,-0.998244762421,0.995359301567
p,-1.0,0.963857650757,0.994430422783,-1.0,0.725467562675,-1.0,-1.0,-0.999997913837,-1.0,-0.281246721745,0.806078195572,-0.999918997288,1.0,1.0,-1.0,0.0,0.991548418999,0.955195128918,-0.999999940395,1.0
p,-1.00000011921,0.912154495716,0.832956671715,-0.956268131733,0.562782168388,-0.999874413013,-1.0,-0.999602496624,-1.0,-0.946987628937,0.663995146751,-0.99850410223,0.999997496605,0.999896347523,-1.0,0.0,0.948314547539,0.699948430061,-0.972379744053,1.0
p,-0.999999880791,0.583893537521,0.835110545158,-0.965960621834,0.819186627865,-0.999981284142,-1.0,-0.999964296818,-1.0,-0.814293563366,0.536026000977,-0.994060218334,0.999938547611,0.999997854233,-1.0,0.0,0.91127294302,0.225512385368,-0.868012011051,1.0
p,-1.0,0.337140858173,0.910214424133,-0.999999880791,0.917297422886,-0.999999046326,-1.0,-0.999996185303,-1.0,-0.918782949448,0.737828016281,-0.999837696552,0.999999463558,0.999991178513,-1.0,0.308584243059,0.948465883732,0.546372115612,-0.998239994049,1.0
p,-0.999717175961,0.790031313896,0.799200773239,-0.997637927532,0.933176755905,-0.996728599072,-0.999994933605,-0.616313755512,-0.999945521355,-0.798353910446,0.577025711536,-0.986808478832,0.991687893867,0.823912978172,-1.0,0.0390896722674,0.935083627701,-0.554363012314,-0.956771194935,0.999990463257
h,-0.998440802097,0.864749550819,0.995199680328,-0.780937850475,0.392670065165,-0.838839650154,-1.0,-1.0,-1.0,-0.29680582881,0.619523882866,-1.0,0.990714609623,1.0,-1.0,0.618920922279,0.556704342365,1.0,-0.467486262321,1.0
h,-0.994354009628,0.852614343166,0.989975690842,-0.914933025837,0.20193310082,-1.0,-0.999999880791,-0.999998569489,-1.0,-0.0563322678208,0.765951275826,-1.0,0.999903619289,0.999999880791,-0.999999880791,0.527629196644,0.201378077269,1.0,-0.449809521437,1.0
h,-0.997006833553,0.700133085251,0.981452226639,-0.811248123646,0.208258837461,-0.94360268116,-1.0,-0.999979674816,-1.0,-0.326894819736,0.52815258503,-1.0,1.0,1.0,-1.0,0.449403315783,0.186837464571,1.0,-0.529141485691,1.0
h,-1.0,0.99095594883,0.999999582767,-0.969654858112,0.247176602483,-1.0,-1.0,-1.0,-1.0,-0.256769359112,0.871208786964,-1.0,1.0,1.0,-1.0,0.363218545914,0.931542277336,1.0,-0.646841228008,1.0
h,-1.0,0.572743296623,0.999987781048,-0.999999582767,0.442118793726,-0.589047431946,-1.0,-0.999998927116,-1.0,0.697247445583,0.686732590199,-1.0,1.0,1.0,-1.0,0.281434714794,0.557678520679,1.0,-0.950056254864,1.0
h,-0.999998211861,0.991994380951,0.999999880791,-0.894673407078,0.476954907179,-0.73824942112,-1.0,-1.0,-1.0,0.444879442453,0.913069844246,-1.0,0.999100863934,1.0,-1.0,0.967405200005,0.185886621475,1.0,0.932683348656,1.0
h,-0.996002793312,0.88911652565,0.999287307262,-0.859857559204,0.482097417116,-0.945312857628,-1.0,-0.999221324921,-1.0,-0.167891338468,0.845708847046,-1.0,0.999098062515,0.999996066093,-1.0,0.440048962831,0.157168343663,1.0,0.0955011546612,1.0
h,-0.987217187881,0.82341080904,0.991502583027,-0.834280252457,0.13272331655,-1.0,-1.0,-0.999974370003,-1.0,-0.40768584609,0.694915890694,-1.0,0.903913736343,0.999999523163,-1.0,0.438801765442,0.0947973281145,1.0,-0.115993916988,1.0
h,-0.999695718288,0.527529120445,0.886587321758,-0.712885022163,0.285143911839,-1.0,-1.0,-0.999999821186,-1.0,-0.342867463827,0.520125806332,-1.0,0.994806826115,0.999990642071,-1.0,0.419833660126,0.259292751551,1.0,-0.292084008455,1.0
h,-0.999707043171,0.876684963703,0.997542858124,-0.89488863945,0.385627359152,-0.950812935829,-1.0,-0.999999880791,-0.999999821186,-0.209034800529,0.617558300495,-1.0,1.0,0.999987721443,-0.99999922514,0.372159838676,0.602931141853,1.0,-0.533919870853,1.0
h,-0.999988257885,0.673157453537,0.957397997379,-0.730980098248,0.344877421856,-0.890159249306,-1.0,-1.0,-1.0,-0.259271025658,0.517618477345,-1.0,0.977053940296,0.999999880791,-1.0,0.486669659615,0.86899805069,1.0,-0.380492895842,1.0
h,-0.999849021435,0.651665151119,0.880620002747,-0.689831197262,0.266954481602,-0.941883087158,-1.0,-1.0,-1.0,-0.181332215667,0.474409729242,-1.0,0.999992191792,0.999999165535,-1.0,0.198849469423,0.680086374283,1.0,-0.312457054853,1.0
h,-1.0,0.836059987545,0.823323845863,-0.783050119877,0.588566303253,-0.820215821266,-1.0,-1.0,-1.0,0.109505802393,0.779524683952,-1.0,0.993467092514,0.999998509884,-1.0,0.288516879082,0.999783277512,1.0,-0.421401292086,1.0
h,-0.999999880791,0.817085802555,0.99950927496,-0.847230613232,0.439630299807,-0.807951569557,-1.0,-0.999999642372,-0.999999880791,0.312090992928,0.697840690613,-1.00000011921,1.0,0.99996805191,-1.0,0.0867301821709,0.911997675896,0.999994456768,-0.584946215153,1.0
h,-1.0,0.97876816988,0.999755322933,-0.908047676086,0.603141009808,-0.688933312893,-1.0,-1.0,-1.0,0.13320556283,0.801559925079,-1.0,1.0,0.999982059002,-1.0,0.376767337322,0.998234689236,0.999999821186,-0.671659886837,1.0
h,-1.0,0.997491419315,1.0,-0.999995470047,0.441109001637,-0.9856082201,-1.0,-1.0,-1.0,-0.239440008998,0.799147367477,-1.0,0.999999761581,1.0,-1.0,0.356238603592,0.986442506313,0.999999880791,-0.706289350986,1.0
h,-1.0,0.999999880791,1.0,-0.999766409397,0.999872863293,-0.649663805962,-1.0,-1.0,-1.0,-0.160440415144,0.999999582767,-1.0,1.0,1.0,-1.0,0.999493062496,0.988364338875,0.999999880791,0.99628674984,1.0
h,-1.0,0.488104403019,0.807039618492,-0.899934053421,0.874491751194,-1.0,-1.0,-1.0,-1.0,-0.954143702984,0.973847210407,-1.0,0.998016893864,1.0,-1.0,0.542317032814,0.99908977747,1.0,-0.351696699858,0.989171862602
h,-0.99996894598,-0.999979436398,0.910875320435,-0.918966531754,0.993296980858,-0.868567049503,-1.0,-0.780253946781,-0.999997854233,-0.988221466541,0.945255815983,-0.996780514717,0.864287495613,1.0,-0.861624717712,0.642207622528,-0.0722350329161,0.841307044029,-0.305693089962,0.835143148899
h,-1.0,0.999596595764,1.0,-0.965835809708,0.998472869396,-0.732377409935,-1.0,-0.966684103012,-1.0,-0.169698283076,1.0,-1.0,1.0,1.0,-1.0,0.999991178513,0.775683045387,1.0,0.998356699944,0.956071674824
h,-1.0,0.999999582767,1.0,-0.925254821777,0.998796284199,-0.659080982208,-1.0,-0.999999761581,-1.0,-0.00332941464148,0.999999821186,-1.0,1.0,0.999999582767,-1.0,0.983997344971,0.967099308968,1.0,0.940155029297,0.918028593063
h,-1.0,1.0,1.0,-0.999986231327,0.957208395004,-0.879202723503,-1.0,-0.931627750397,-1.0,-0.162755668163,1.0,-1.0,1.0,0.999999642372,-1.0,0.764419853687,0.943613827229,1.0,0.537997424603,0.964379191399
h,-1.0,1.0,1.0,-0.999849796295,0.981211304665,-0.630702376366,-1.0,-1.0,-1.0,0.00254505267367,1.0,-1.0,1.0,0.999999523163,-1.0,1.0,0.997215509415,1.0,0.739279448986,1.0
h,-1.0,1.0,0.9334846735,-1.0,0.720368027687,-0.999054670334,-1.0,-0.897793471813,-0.999996483326,-0.306620538235,0.737895607948,-1.0,1.0,0.996481120586,-1.0,0.16864079237,0.741937577724,1.0,0.47769972682,0.962386608124
h,-1.0,0.953809797764,0.994181215763,-0.913922905922,0.806227445602,-0.82894307375,-1.0,-0.922450602055,-1.0,-0.88690084219,1.0,-1.0,1.0,1.0,-1.0,1.0,0.574688851833,1.0,0.731325149536,0.92581808567
h,-1.0,1.0,1.0,-1.0,0.999893307686,-0.950248539448,-1.0,-1.0,-1.0,-0.687600374222,1.0,-0.999999940395,1.0,1.0,-1.0,1.0,0.99980956316,0.999999523163,-0.0386259779334,1.0
h,-0.999998807907,0.871297955513,1.0,-0.935066699982,0.934854626656,-0.997482836246,-1.0,-0.999999165535,-1.0,-0.997076690197,1.0,-0.999953746796,0.999918103218,0.999999940395,-1.0,1.0,0.195018142462,0.999997198582,0.501658916473,1.0
h,-0.999722003937,0.999963462353,0.999987483025,-0.999372005463,0.835279881954,-0.999880373478,-0.967764854431,-0.851450562477,-0.999491393566,0.0162801872939,0.927146792412,-0.99997740984,1.0,0.988961458206,-0.902783274651,0.19866117835,0.82036280632,0.998641252518,0.532252013683,0.975360512733
h,-0.997073769569,0.999999701977,0.999990940094,-0.958713531494,0.747113347054,-0.784186184406,-0.999999344349,-0.99894630909,-0.999994397163,0.262954413891,0.997238636017,-0.795783698559,1.0,0.997466742992,-0.999956667423,0.478661745787,0.979302108288,0.988497436047,0.0359018631279,0.426347404718
h,-1.0,1.0,0.936532258987,-0.999989926815,0.956960201263,-0.80663394928,-1.0,-0.94409096241,-1.0,-0.690741121769,1.0,-0.999953448772,1.0,1.0,-1.0,0.604827582836,0.828983366489,0.999984025955,0.126772925258,0.998302638531
h,-1.0,1.0,1.0,-0.999785780907,0.928341209888,-0.890420198441,-1.0,-0.871054470539,-1.0,-0.0796413123608,0.999999880791,-1.0,1.0,0.999999165535,-1.0,0.480867087841,0.999520540237,1.0,0.540868222713,1.0
h,-0.999999582767,0.999999701977,0.902450799942,-0.999986112118,0.874131977558,-0.694245398045,-1.0,-0.938072681427,-1.0,-0.246794939041,1.0,-1.0,0.999997437,1.0,-1.0,0.971496224403,0.999671459198,1.0,0.652340173721,0.978615522385
h,-0.999999880791,0.99999833107,1.0,-0.985619902611,0.999840855598,-0.808621406555,-1.0,-1.0,-1.0,-0.796250998974,1.0,-1.0,0.999698102474,1.0,-1.0,1.0,0.413597404957,1.0,0.969860613346,1.0
h,-1.0,0.961480975151,0.935308754444,-0.920774459839,0.999819934368,-0.999419867992,-1.0,-1.0,-1.0,-0.943171203136,1.0,-1.0,1.0,1.0,-1.0,1.0,0.763715267181,1.0,0.906157016754,1.0
h,-1.0,0.999993681908,1.0,-1.0,0.188669428229,-0.74972319603,-1.0,-1.0,-1.0,0.586754083633,1.0,-1.0,1.0,1.0,-1.0,0.480571359396,0.999998033047,1.0,-0.999992311001,1.0
h,-1.0,1.0,1.0,-0.999999284744,0.999998688698,-0.999997138977,-1.0,-0.843570113182,-1.0,-0.25733935833,1.0,-1.0,1.0,1.0,-1.0,0.700396180153,0.860935866833,1.0,0.933780789375,0.952859520912
h,-0.999999940395,0.945838451385,0.85561478138,-0.98674851656,0.943417787552,-1.0,-1.0,-0.969096064568,-1.0,-0.998701274395,1.0,-1.0,1.0,1.0,-1.0,0.942914068699,0.998881220818,1.0,0.462147116661,0.931237816811
h,-0.99999833107,0.999983966351,0.885366916656,-0.998620629311,0.998334348202,-1.0,-1.0,-0.999999880791,-1.0,-0.986840128899,1.0,-1.0,1.0,1.0,-1.0,0.893124461174,0.623791873455,0.999998748302,0.803449034691,1.0
h,-0.999999046326,0.999999046326,1.0,-1.0,0.999943912029,-0.941088914871,-1.0,-1.0,-1.0,-0.969883978367,1.0,-1.0,0.99999922514,1.0,-1.0,1.0,0.631680309772,1.0,0.939658641815,1.0
h,-0.999974191189,0.992364645004,1.0,-0.972709655762,0.997537732124,-0.752521753311,-1.0,-1.0,-1.0,-0.991694450378,1.0,-0.997979640961,0.999989688396,1.0,-1.0,1.0,0.30843526125,1.0,0.80676728487,0.963634610176
h,-0.999999642372,1.0,1.0,-1.00000011921,0.830322027206,-0.565598547459,-1.0,-1.0,-1.0,0.091325737536,1.0,-1.0,1.0,1.0,-1.0,0.999944448471,0.377891361713,1.0,0.830214083195,1.0
h,-1.0,1.0,1.0,-1.0,0.955094277859,-0.661764681339,-1.0,-0.958069801331,-1.0,0.278366267681,1.0,-1.0,1.0,1.0,-1.0,0.515710413456,0.869903504848,1.0,0.484678119421,1.0
h,-1.0,0.999974787235,0.89672267437,-1.0,0.999900281429,-0.83085423708,-1.0,-0.970432877541,-1.0,-0.613496959209,1.0,-1.0,0.998504400253,1.0,-1.0,1.0,0.991563081741,0.999999821186,0.967448115349,1.0
h,-0.999988734722,0.999999523163,1.0,-0.999999940395,0.991325497627,-0.99484872818,-1.0,-0.929323196411,-1.0,-0.860122144222,1.0,-1.0,1.0,1.0,-1.0,1.0,0.347146004438,1.0,0.869119405746,1.0
h,-1.0,1.0,1.0,-1.0,0.997206926346,-0.857417345047,-1.0,-1.0,-1.0,-0.714096844196,1.0,-1.0,1.0,1.0,-1.0,1.0,0.948573052883,1.0,0.663029134274,1.0
h,-0.999990642071,1.0,1.0,-0.999997079372,0.956829190254,-0.780090510845,-1.0,-1.0,-1.0,-0.346840232611,1.0,-1.0,1.0,1.0,-1.0,0.999982357025,0.861261546612,1.0,0.957378327847,1.0
h,-0.999807476997,0.999990463257,1.0,-1.0,0.973100483418,-0.997738659382,-1.0,-0.999999821186,-1.0,-0.973644137383,1.0,-1.0,0.999999582767,1.0,-1.0,1.0,0.211067974567,1.0,0.891646027565,1.0
p,-1.0,0.999852180481,1.0,-1.0,0.954325914383,-0.999981164932,-1.0,-0.279595673084,-1.0,-0.789573252201,0.957755565643,-1.0,1.0,0.999999880791,-1.0,0.694258928299,0.966790735722,0.999415278435,-0.0902537852526,1.0
h,-1.0,0.500800311565,0.935124158859,-0.999998867512,0.515721917152,-0.999969661236,-1.0,-1.0,-1.0,-0.661012291908,0.666500985622,-0.999736011028,0.999562323093,1.0,-1.0,0.172818049788,0.596306324005,0.845932304859,-0.990302681923,1.0
h,-1.0,0.992680251598,1.0,-0.986811518669,0.639539539814,-0.999996423721,-1.0,-0.985308110714,-1.0,-0.262926965952,0.95148062706,-1.0,1.0,0.999999701977,-1.0,0.351786971092,0.968718290329,0.997771143913,0.35161280632,1.0
h,-1.0,0.999986827374,0.916545212269,-0.999996840954,0.92106294632,-0.782976448536,-1.0,-0.83702892065,-0.99999588728,0.145210370421,0.999990165234,-1.0,1.0,0.998263835907,-0.999997138977,0.572368562222,0.99491161108,0.999933302402,0.180923312902,0.971247076988
h,-0.999997854233,0.682570159435,0.889514267445,-0.9710277915,0.999508261681,-0.999999940395,-1.0,-0.866793513298,-0.99998652935,-0.972273111343,0.853410303593,-0.999984502792,0.987800836563,0.999514579773,-1.0,0.306687474251,0.978808879852,-0.0572468154132,-0.967550098896,0.999999821186
h,-0.998430788517,0.96105414629,0.963753640652,-0.941503226757,0.987156093121,-0.985278785229,-0.999999046326,-0.839905798435,-0.999613702297,-0.646484851837,0.92600351572,-0.992113769054,0.999990165234,0.985018908978,-0.999999940395,0.700685799122,0.627786755562,0.620747387409,0.855439066887,0.955312728882
p,-1.0,0.999981462955,0.999749004841,-0.98794901371,0.0209142640233,-0.894736409187,-1.0,-1.0,-1.0,0.14429050684,1.0,-0.999999582767,1.0,1.0,0.46882390976,0.587058663368,0.991378724575,0.999999940395,-0.768566966057,0.999652385712
p,-1.0,0.999393701553,0.999586164951,-0.98758995533,0.02096654661,-0.765721619129,-1.0,-1.0,-1.0,0.731781721115,0.999990999699,-0.999999642372,1.0,1.0,0.861103177071,0.433161258698,0.940986096859,0.999998211861,-0.899311721325,0.999448120594
p,-0.999999821186,0.999262571335,0.988221883774,-0.976989746094,0.00363726424985,-0.999998688698,-0.999940276146,-0.999998927116,-0.999977767467,-0.116497032344,0.999998390675,-0.999846577644,1.0,1.0,0.536177635193,0.707968771458,0.875719487667,0.999821424484,-0.625222921371,0.990645349026
p,-0.999928593636,0.996844947338,0.963207066059,-0.929157614708,0.00165094994009,-0.999995112419,-0.999750733376,-0.999921500683,-0.997484147549,0.235255762935,0.971930861473,-0.999806940556,1.0,0.999998152256,0.284901082516,0.391175448895,0.776927828789,0.997945487499,-0.745636224747,0.97539550066
p,-1.00000011921,0.996760010719,0.999582350254,-0.999999821186,0.00878070387989,-0.960851311684,-0.999995708466,-0.999999642372,-0.999998748302,0.621059119701,0.999981880188,-0.999999821186,1.0,1.0,0.178967103362,0.247082322836,0.960744798183,0.999992847443,-0.971659660339,0.998915851116
p,-0.999923467636,0.992181539536,0.995754122734,-0.929981589317,0.0236401595175,-0.999999940395,-0.999863266945,-0.999976813793,-0.99868953228,0.380146920681,0.904047548771,-0.999968111515,1.0,0.999994814396,-0.0679504498839,0.0942826792598,0.867067635059,0.849555850029,-0.935653030872,0.970056533813
p,-0.999981880188,0.999772310257,0.998825550079,-0.981172502041,0.00803969614208,-0.986432433128,-0.999903917313,-0.999997437,-0.999756455421,0.38140130043,0.999280393124,-0.998160004616,1.0,0.999999880791,0.552913069725,0.375554591417,0.983186542988,0.971935749054,-0.886112749577,0.994410514832
p,-0.999997675419,0.999404609203,0.937392413616,-0.871670544147,0.00553443888202,-0.898157835007,-0.999990642071,-0.999999284744,-0.998749613762,0.700214147568,0.982435166836,-0.999999403954,1.0,1.0,0.855799138546,0.172668546438,0.986666083336,0.997587502003,-0.763484418392,0.961799621582
p,-0.99988514185,0.99976593256,0.972128748894,-0.968655407429,0.00295218103565,-1.0,-0.999936759472,-0.999992847443,-0.998644471169,0.231680050492,0.999858736992,-0.999927937984,1.0,0.999999761581,0.197389394045,0.356283485889,0.918952345848,0.999147057533,-0.750021457672,0.992013275623
p,-0.999985039234,0.99875164032,0.997656106949,-0.999983668327,0.0103851407766,-0.999999642372,-0.999964118004,-0.999992966652,-0.999917685986,0.496229857206,0.995980918407,-0.997701644897,1.0,0.999998152256,0.035383079201,0.363152295351,0.993705630302,0.997386574745,-0.93206590414,0.995994269848
p,-0.999991297722,0.999321699142,0.999292433262,-0.999997854233,0.0167299099267,-0.712077915668,-0.999969959259,-0.999996423721,-0.999955654144,0.650044322014,0.996338784695,-0.999944746494,1.0,0.999999880791,0.644660294056,0.561864614487,0.993567407131,0.999715864658,-0.897551953793,0.995551884174
p,-0.999920547009,0.998428165913,0.988214552402,-0.999922633171,0.00532869016752,-0.999999880791,-0.999892532825,-0.999984025955,-0.997388243675,0.107556097209,0.997906565666,-0.99977439642,1.0,0.999997496605,-0.0163559932262,0.415832579136,0.971665084362,0.995572030544,-0.827433764935,0.982142210007
p,-0.999361276627,0.998053848743,0.950677573681,-0.973049163818,0.0119946533814,-0.912538826466,-0.999754071236,-0.999859213829,-0.827400565147,0.442612737417,0.980209827423,-0.999991059303,1.0,0.99976426363,-0.1853069067,0.502261459827,0.838541865349,0.99512553215,-0.75815731287,0.920791208744
p,-0.99998831749,0.999932765961,0.945638120174,-0.869818508625,0.000755667919293,-0.816405236721,-0.999993085861,-0.968183457851,-0.947802126408,0.354997187853,0.997295796871,-0.999999403954,1.0,1.0,0.71907132864,0.667348146439,0.946360290051,0.999615907669,-0.334801137447,0.887166619301
p,-0.996462762356,0.99880862236,0.960234880447,-0.91133081913,0.0122245075181,-0.999999046326,-0.999450087547,-0.998596966267,-0.659432053566,0.410050600767,0.917526483536,-0.999742984772,0.999999821186,0.998552799225,-0.201136901975,0.222626894712,0.864982843399,0.933055996895,-0.853694975376,0.791122913361
p,-0.999909698963,0.999415934086,0.9587469697,-0.941466629505,0.00184210506268,-0.870780944824,-0.999717652798,-0.999983966351,-0.998341560364,0.504797756672,0.994413554668,-0.997627317905,1.0,0.999998927116,0.373095363379,0.434053748846,0.989962339401,0.995536506176,-0.747596859932,0.988090217113
p,-0.999779760838,0.999378204346,0.838430404663,-0.931269943714,0.00760175054893,-0.967085838318,-0.99990350008,-0.999983668327,-0.764303267002,0.288101166487,0.984637260437,-0.99999409914,1.0,0.999938011169,0.252955317497,0.45988419652,0.990912377834,0.994753241539,-0.721930742264,0.860107004642
p,-0.999997258186,-0.195575535297,0.906459212303,-0.981414139271,0.988505482674,-1.0,-0.999994397163,-0.8123087883,-0.99999833107,-0.623729646206,0.500954031944,-0.992182135582,0.999983668327,0.999683618546,-1.0,0.0202330090106,0.874014317989,0.498702853918,-0.805924713612,1.0
p,-1.0,0.552925288677,0.910064101219,-0.97615814209,0.424413055182,-1.0,-1.0,-1.0,-0.999999880791,-0.980798065662,0.68214392662,-0.999980568886,0.999999940395,1.0,-1.0,0.289042145014,0.994304597378,0.917112588882,-0.859492242336,1.0
p,-1.0,0.756555974483,0.862022638321,-0.977868139744,0.495250165462,-0.999999701977,-1.0,-0.99999588728,-0.999996185303,-0.971604704857,0.707777380943,-0.999224066734,0.99998998642,0.99996483326,-1.0,0.106147482991,0.996733129025,0.875574886799,-0.937000155449,1.0
p,-1.0,0.868015408516,0.933654069901,-0.903871119022,0.0381085909903,-0.999925255775,-1.0,-0.999808728695,-0.999999642372,-0.967182993889,0.45158880949,-0.995951354504,0.999999880791,0.999999880791,-0.999999403954,0.0,0.930013418198,0.57052052021,-0.963455855846,1.0
p,-0.999996423721,0.502025723457,0.876434743404,-0.994946241379,0.571626603603,-0.999997973442,-0.999999880791,-0.992488980293,-0.999179124832,-0.930591225624,0.773906290531,-0.999932706356,0.997945427895,0.968525648117,-0.999998033047,0.381958693266,0.961821138859,0.749112308025,-0.709613144398,0.999997019768
p,-0.999999344349,0.752774000168,0.899123609066,-0.9999371171,0.732839167118,-0.999998927116,-0.999999880791,-0.977374255657,-0.999993681908,-0.669832646847,0.730611860752,-0.999998211861,0.99986666441,0.99747467041,-0.99999833107,0.343590378761,0.912207484245,0.939305365086,-0.874467670918,0.999997496605
p,-0.999987959862,0.632063090801,0.871700048447,-0.9304510355,0.712443590164,-0.999990403652,-0.999999761581,-0.955757677555,-0.999922931194,-0.759486198425,0.755731701851,-0.99985575676,0.999245226383,0.957225382328,-0.999996721745,0.527267098427,0.908010661602,0.594937086105,-0.664113938808,0.999988853931
p,-0.999999880791,0.193236961961,0.955851197243,-0.999990165234,0.815194308758,-0.818541765213,-1.0,-0.999766230583,-0.999999821186,-0.607166111469,0.814912676811,-0.999971628189,0.999879539013,0.993502378464,-1.0,0.443811506033,0.978031873703,0.886112630367,-0.988438010216,0.99999922514
p,-0.99999833107,0.0549465343356,0.99905192852,-0.969212889671,0.739282727242,-0.80798047781,-0.999999880791,-0.999968886375,-0.999999821186,-0.371983617544,0.924604058266,-0.999531149864,0.999752938747,0.999897062778,-1.0,0.498063147068,0.352535188198,0.974132955074,-0.989257752895,0.999998033047
p,-0.999990105629,0.521224081516,0.915612578392,-0.987911999226,0.58836209774,-0.99705940485,-0.999993681908,-0.888487398624,-0.999965131283,-0.873578131199,0.852556705475,-0.989521741867,0.999909877777,0.9985922575,-0.99999576807,0.647815287113,0.851059913635,0.0717890486121,-0.765861392021,0.999994218349
p,-0.999941647053,0.584871590137,0.872626662254,-0.950874686241,0.513263046741,-0.998416662216,-0.999931573868,-0.858043015003,-0.999978244305,-0.719795107841,0.734232902527,-0.999319374561,0.999983131886,0.998968660831,-0.999865174294,0.362056165934,0.789987266064,0.623947620392,-0.885562360287,0.999987363815
p,-0.999988555908,0.565045177937,0.963329136372,-0.999368846416,0.502438127995,-0.999996721745,-0.999987840652,-0.977372467518,-0.999377608299,-0.692836821079,0.763424992561,-0.999984264374,0.999997735023,0.998548448086,-0.999934315681,0.324848294258,0.824036955833,0.646665811539,-0.576078653336,0.999999880791
p,-0.999999046326,0.929587006569,0.943685770035,-0.999913573265,0.842840373516,-0.999998509884,-0.999998867512,-0.997895121574,-1.0,-0.683331906796,0.738825619221,-0.999993681908,0.999997854233,0.999399602413,-1.0,0.45722591877,0.993974626064,0.866388618946,-0.741832315922,0.999999642372
p,-1.0,0.751231431961,0.904388725758,-0.972451984882,0.548281550407,-0.999999880791,-1.0,-0.96628922224,-1.0,-0.48927205801,0.727914869785,-1.0,1.0,0.999997019768,-0.999999701977,0.163420766592,0.926917731762,0.972239017487,-0.615941524506,1.0
p,-0.999987483025,0.832227170467,0.936636447906,-0.980011999607,0.286452323198,-0.999887526035,-0.999951004982,-0.708567261696,-0.999999642372,-0.677277565002,0.723415911198,-0.999943494797,0.999995470047,0.999041318893,-0.99997061491,0.318060487509,0.965715408325,0.858482718468,-0.692669570446,0.999997675419
p,-0.999868571758,0.665003597736,0.859559476376,-0.999072194099,0.554458022118,-0.999562144279,-0.999609947205,-0.957679986954,-0.999989271164,-0.77547955513,0.671602547169,-0.993568122387,0.999775707722,0.999683082104,-0.999950885773,0.229302182794,0.977796018124,0.81971514225,-0.947071909904,0.999992847443
p,-0.999999284744,0.689574062824,0.925928652287,-0.958755373955,0.401848852634,-0.999872028828,-0.999984204769,-0.96506601572,-0.999998688698,-0.503535866737,0.785944581032,-0.999983847141,0.999997973442,0.999773621559,-0.999992072582,0.388363718987,0.963210821152,0.833071410656,-0.98658233881,0.999998509884
p,-0.999999880791,0.677318274975,0.953110337257,-0.999973475933,0.463251143694,-0.999968349934,-0.999999880791,-0.962125658989,-1.0,-0.657028853893,0.880485534668,-0.999986171722,0.999999284744,0.999979674816,-0.999999046326,0.453303277493,0.917081296444,0.926375567913,-0.806141316891,0.999999642372
p,-0.999999880791,0.702687442303,0.883658111095,-0.889431297779,0.441166251898,-0.999988257885,-0.999999642372,-0.911890149117,-0.999999940395,-0.605261862278,0.770815253258,-0.999995708466,0.999999523163,0.999951183796,-0.999997794628,0.416869193316,0.83167296648,0.9751496315,-0.454265058041,0.979143261909
p,-0.999998509884,0.638029038906,0.892878472805,-0.983392834663,0.513954460621,-0.999992191792,-0.999999642372,-0.945869207382,-0.999999642372,-0.67790389061,0.706698179245,-0.999984323978,0.999997377396,0.998412311077,-0.999997019768,0.142600208521,0.888495504856,0.942966103554,-0.69722789526,0.999994397163
p,-1.0,0.904979288578,0.750104904175,-0.818177103996,0.235280275345,-1.0,-1.0,-1.0,-1.0,-0.948424339294,0.375722080469,-0.99989849329,1.0,1.0,-1.0,0.0,0.99903935194,0.853260219097,-0.748351037502,1.0
p,-1.0,0.965528130531,0.849296450615,-0.998586475849,0.905550718307,-1.0,-1.0,-1.0,-1.0,-0.651223421097,0.564682126045,-0.999997437,1.0,1.0,-1.0,0.0,0.99814337492,0.92527538538,-0.896834611893,1.0
p,-0.999999463558,0.948412299156,0.824276208878,-0.991797924042,0.967167079449,-0.99999922514,-1.0,-0.94550383091,-0.999972939491,-0.934116363525,0.492070198059,-0.999894499779,0.999960362911,0.999028623104,-1.0,0.0,0.994952082634,0.765592813492,-0.969751596451,0.999999821186
p,-1.0,0.999404013157,0.845270037651,-0.908267855644,0.645583808422,-1.0,-1.0,-1.0,-1.0,-0.870417296886,0.515934765339,-0.999857485294,1.0,1.0,-1.0,0.0,0.994564712048,0.757865965366,-0.899857521057,1.0
p,-1.0,0.998773276806,0.875687837601,-0.973213791847,0.961185395718,-1.0,-1.0,-1.0,-1.0,-0.543607711792,0.585471212864,-1.0,1.0,1.0,-1.0,0.0,0.990041255951,0.981718063354,-0.955131471157,1.0
p,-0.999938905239,0.972061634064,0.775508165359,-0.999999344349,0.892272889614,-0.999993681908,-0.999999523163,-0.970707714558,-0.999945521355,-0.938196003437,0.460360705853,-0.999827086926,0.9999345541,0.997036039829,-0.999999940395,0.0,0.987275421619,0.742037653923,-0.862629890442,0.999999165535
p,-0.999371111393,0.98739284277,0.944766879082,-0.999738693237,0.941794812679,-0.999917209148,-0.999989271164,-0.913423597813,-0.999711155891,-0.892961621284,0.596607267857,-0.997137725353,0.999652445316,0.95799612999,-0.999991953373,0.0701386854053,0.967547297478,0.157998636365,-0.931365251541,0.999953448772
p,-0.999938666821,0.950755357742,0.922365307808,-0.99728089571,0.986102879047,-0.999939620495,-0.999995708466,-0.409054994583,-0.999954164028,-0.901208639145,0.675699710846,-0.99910145998,0.972233593464,0.789609253407,-0.999999642372,0.127943530679,0.987695753574,0.640815317631,-0.98346811533,0.999991595745
p,-1.0,0.993874490261,0.80885630846,-0.999999821186,0.834349930286,-0.999999582767,-1.0,-0.999936759472,-1.0,-0.963688194752,0.583150684834,-0.999999403954,0.999999046326,0.999877929688,-1.0,0.116484776139,0.977114439011,0.785236954689,-0.963715851307,1.0
p,-0.999999821186,0.975853145123,0.774801015854,-0.917637348175,0.988621473312,-0.999998927116,-0.999999880791,-0.954684615135,-0.999997675419,-0.803476750851,0.62700521946,-0.999997913837,0.999339938164,0.986770570278,-1.0,0.204587250948,0.99733299017,0.959265708923,-0.989113330841,0.906955480576
p,-1.0,0.975109636784,0.776449680328,-0.939313769341,0.988753378391,-1.0,-1.0,-0.999919593334,-0.999999880791,-0.574774444103,0.526098668575,-0.999999880791,0.999585747719,0.998556673527,-1.0,0.0,0.999722719193,0.98775613308,-0.99564152956,0.984522163868
p,-1.0,0.995350778103,0.866527080536,-0.99999833107,0.965680599213,-0.999999701977,-1.0,-0.99988335371,-0.999997615814,-0.827881753445,0.713139653206,-0.999999582767,0.999993681908,0.999571204185,-1.0,0.156744301319,0.96488982439,0.928262114525,-0.632806718349,1.0
p,-0.999999761581,0.987519681454,0.769091367722,-0.973346829414,0.981943964958,-0.999998629093,-1.0,-0.998508155346,-0.999991834164,-0.85399979353,0.592195868492,-0.99999076128,0.999722123146,0.993650257587,-1.0,0.0,0.987552523613,0.861373066902,-0.836804628372,1.0
p,-0.99999922514,0.987249851227,0.861303508282,-0.974194228649,0.961406707764,-1.0,-1.0,-0.999993979931,-0.999999880791,-0.605233192444,0.578018963337,-1.0,1.0,0.999890804291,-1.0,0.0395767427981,0.987184405327,0.949953854084,-0.388902932405,1.0
p,-1.0,0.949747622013,0.873957514763,-0.951580584049,0.511895477772,-0.999967098236,-1.0,-0.999995648861,-1.0,-0.943317532539,0.699360489845,-0.999126672745,0.999681591988,0.999995231628,-1.0,0.361597657204,0.926517546177,0.064558967948,-0.897658765316,1.0
p,-0.999999821186,0.968417048454,0.9810962677,-0.999997317791,0.967410266399,-0.999979496002,-0.999999046326,-0.999277770519,-0.999999880791,-0.829922676086,0.669496059418,-0.999018192291,0.998817265034,0.999683916569,-0.999999940395,0.26826736331,0.997690856457,0.601170599461,-0.999677240849,0.999999761581
p,-0.999999642372,0.973675429821,0.842564344406,-0.966157853603,0.774851739407,-0.999999940395,-1.0,-0.999531269073,-1.0,-0.818397164345,0.586816370487,-0.999995648861,0.999999046326,0.999757707119,-0.999999880791,0.0733857154846,0.958843648434,0.900430142879,-0.864171981812,0.999999880791
p,-1.0,0.990619778633,0.778293132782,-0.950527906418,0.859308063984,-1.0,-1.0,-0.99999833107,-1.0,-0.896158099174,0.658370375633,-0.99999910593,0.999999880791,0.999995648861,-1.0,0.0667421892285,0.988826811314,0.994660019875,-0.788707613945,0.959829807281
p,-1.0,0.935075461864,0.908501148224,-0.999999821186,0.857661724091,-1.0,-1.0,-0.999984204769,-1.0,-0.89394557476,0.726900815964,-0.999999403954,0.999985575676,0.999984204769,-1.0,0.271853864193,0.99061101675,0.975957989693,-0.871483743191,1.0
p,-1.0,0.873795986176,0.832143247128,-0.984460234642,0.863656699657,-0.999999880791,-1.0,-0.999980092049,-1.00000011921,-0.852203428745,0.6633040905,-0.999998927116,0.999915421009,0.999941766262,-1.0,0.187911957502,0.982796370983,0.938219845295,-0.820422053337,1.0
p,-1.0,0.975761890411,0.918279409409,-0.999999821186,0.909757137299,-1.0,-1.0,-0.99972474575,-1.0,-0.91879093647,0.694985985756,-0.999999821186,0.999985456467,0.999968230724,-1.0,0.320233732462,0.99294936657,0.968444347382,-0.957043707371,1.0
p,-1.0,0.768984496593,0.979853689671,-1.0,0.895772218704,-1.0,-1.0,-0.999960720539,-1.0,-0.522222161293,0.72513705492,-1.0,1.0,0.999999880791,-1.0,0.0718739703298,0.858040690422,0.999608814716,-0.994700789452,1.0
p,-0.999992370605,0.866914391518,0.815855383873,-0.939651727676,0.97825139761,-1.0,-0.999998807907,-0.927685439587,-1.0,-0.237414225936,0.408296883106,-0.999925136566,1.0,0.99999576807,-1.0,0.0,0.380192071199,0.985877037048,-0.315923005342,0.908724784851
p,-1.0,0.649217605591,0.999999880791,-0.999960541725,0.969918489456,-0.999995708466,-1.0,-0.999995589256,-1.0,-0.737479627132,0.874698877335,-0.999494194984,0.999681293964,0.99982458353,-1.0,0.577455163002,0.960792422295,0.380952745676,-0.996386826038,0.999999821186
p,-1.0,0.793089389801,0.801865696907,-0.922940731049,0.479137778282,-1.0,-1.0,-1.0,-1.0,-0.908128321171,0.578493714333,-0.999999463558,0.998565793037,0.999999880791,-1.0,0.156211599708,0.988313496113,0.963953793049,-0.835569381714,1.0
p,-1.0,0.772193551064,0.928060412407,-1.0,0.974118947983,-1.0,-1.0,-0.999997854233,-1.0,-0.504719376564,0.799920797348,-1.0,0.99996650219,0.999977529049,-1.0,0.207664772868,0.992336213589,0.997895896435,-0.99954366684,1.0
p,-1.0,0.979623675346,0.916646122932,-0.999999403954,0.972972929478,-0.999998033047,-1.0,-0.99999499321,-1.0,-0.79736071825,0.775222182274,-0.999999642372,0.999713420868,0.999760091305,-1.0,0.315762042999,0.993280768394,0.629455864429,-0.99704438448,1.0
p,-1.0,0.984133660793,0.883674860001,-0.999999880791,0.909988343716,-1.0,-1.0,-0.999998927116,-1.0,-0.879797637463,0.776128292084,-0.999999344349,0.999982595444,0.999987363815,-1.0,0.263154536486,0.993346273899,0.862893462181,-0.936587512493,1.0
p,-1.0,0.753633677959,0.797362804413,-0.999999701977,0.973772883415,-1.00000011921,-1.0,-0.999882698059,-1.0,-0.72698366642,0.66127538681,-1.0,0.999987065792,0.998171389103,-1.0,0.125251963735,0.983711838722,0.924771010876,-0.935506701469,1.0
p,-0.999691963196,0.591210961342,0.828500390053,-0.898965716362,0.981466054916,-0.999707520008,-0.999999940395,-0.986624479294,-0.988097727299,-0.99162709713,0.877084136009,-0.998479366302,0.837379693985,0.751903891563,-1.0,0.538740456104,0.725373566151,0.318179965019,-0.910413861275,0.999994277954
p,-1.0,0.570549070835,0.857751965523,-0.999998211861,0.976335346699,-0.999999761581,-1.0,-0.999982893467,-0.999999940395,-0.784385800362,0.74923992157,-0.999995350838,0.998928368092,0.993514537811,-1.0,0.311707049608,0.986796021461,0.663300573826,-0.97843080759,1.0
p,-1.0,0.894922614098,0.999999940395,-0.999999880791,0.994156777859,-0.883896350861,-1.0,-0.999976933002,-1.0,-0.274634599686,0.932864308357,-0.999999582767,0.999409615993,0.999810099602,-1.0,0.276148825884,0.996585428715,0.989777386189,-0.999299824238,1.0
p,-1.0,0.99914419651,0.929838657379,-1.0,0.594236195087,-1.0,-1.0,-0.999999821186,-1.0,-0.624110400677,0.626723885536,-0.999999701977,1.0,1.0,-1.0,0.0,0.999876320362,0.992346465588,-0.995651185513,1.0
p,-0.999999821186,0.838756978512,0.796646296978,-0.882356703281,0.265635490417,-0.999992311001,-1.0,-0.999934792519,-0.999999761581,-0.992158591747,0.420952498913,-0.993376791477,0.999999821186,1.0,-1.0,0.0,0.949404537678,0.687879025936,-0.775678157806,0.999999344349
p,-0.999663472176,0.862576246262,0.769566059113,-0.858462750912,0.276759028435,-0.999506592751,-0.999996602535,-0.959463119507,-0.999671339989,-0.985622048378,0.359119296074,-0.982008159161,1.0,0.999999880791,-1.00000011921,0.0,0.976872503757,0.632251560688,-0.731213271618,0.999725162983
p,-1.0,0.585151135921,0.79543119669,-0.999999523163,0.912584900856,-1.0,-1.0,-1.0,-1.0,-0.768044233322,0.563235640526,-0.999823331833,0.999999940395,1.0,-1.0,0.0,0.97873455286,0.999977052212,-0.885006546974,0.995485186577
h,-0.998293042183,1.0,0.999927818775,-0.99989181757,0.998909235001,-0.999452888966,-1.0,-0.888587474823,-0.931119799614,-0.886238873005,0.769114613533,-1.0,1.0,1.0,-1.0,0.428567707539,-0.0860004350543,0.912348568439,0.173859849572,0.772800683975
h,-0.999994337559,0.922110080719,0.952388763428,-0.96589499712,0.925043165684,-1.0,-1.0,-0.86235922575,-0.999999463558,-0.338086903095,0.474888920784,-1.0,1.0,1.0,-1.0,0.0516289770603,0.0362053699791,1.0,0.258811861277,0.727232396603
h,-0.999999582767,0.976832151413,0.731465697289,-0.832542896271,0.857031702995,-1.0,-1.0,-0.673114955425,-0.999916136265,-0.454700559378,0.397671490908,-1.0,1.0,1.0,-1.0,0.0,0.53305131197,1.0,0.153842389584,0.615770459175
h,-1.0,0.947279989719,0.836056947708,-0.997538328171,0.828369677067,-1.0,-1.0,-0.85239470005,-1.0,-0.0163694489747,0.501886546612,-1.0,1.0,1.0,-1.0,0.0,0.940787196159,1.0,-0.360267430544,0.850215375423
h,-1.0,0.999999940395,0.872835218906,-1.0,0.881998479366,-1.0,-1.0,-0.952153980732,-1.0,0.235383659601,0.458458960056,-1.0,1.0,1.0,-1.0,0.0,0.978363156319,1.0,-0.658982932568,0.93367511034
h,-1.0,0.999999284744,0.934395551682,-1.0,0.731854498386,-0.915755808353,-1.0,-0.937403976917,-1.0,0.828038275242,0.472242623568,-1.0,1.0,1.0,-1.0,0.0,0.81413269043,1.0,-0.61854159832,1.0
h,-1.0,1.0,1.0,-1.0,0.786201655865,-0.790669798851,-1.0,-1.0,-1.0,0.977611541748,0.557971656322,-1.0,1.0,1.0,-1.0,0.0,0.984407603741,1.0,-0.831313550472,1.0
h,-1.0,0.999999463558,1.0,-1.0,0.642792522907,-0.850929141045,-1.0,-0.969871997833,-1.0,0.947629988194,0.525997757912,-1.0,1.0,1.0,-1.0,0.0,0.400026112795,1.0,-0.758252978325,1.0
h,-1.0,1.0,1.0,-1.0,0.708674132824,-0.853920817375,-1.0,-0.986108660698,-1.0,0.913608133793,0.427637577057,-1.0,1.0,1.0,-1.0,0.0,0.72170227766,1.0,-0.870336651802,1.0
h,-1.0,0.973410248756,0.912943124771,-0.879461765289,0.45171841979,-1.0,-1.0,-0.895717144012,-0.999999284744,0.567762434483,0.236675024033,-1.0,1.0,1.0,-1.0,0.0,0.562684476376,1.0,-0.5935947299,0.860065937042
h,-1.0,1.0,0.873719751835,-0.999999761581,0.67868822813,-0.980933308601,-1.0,-0.840154409409,-1.0,0.837831676006,0.205075472593,-1.0,1.0,1.0,-1.0,0.0,0.941440343857,1.0,-0.740152478218,0.890889406204
h,-1.0,0.867803454399,0.82920640707,-0.919222950935,0.750524163246,-1.0,-1.0,-0.841014027596,-1.0,0.687239229679,0.331396728754,-1.0,1.0,1.0,-1.0,0.0,0.497388511896,1.0,-0.434527903795,0.804554343224
h,-1.0,0.873902499676,0.906918823719,-0.963782548904,0.239399880171,-1.0,-1.0,-0.999984025955,-0.999997317791,0.475126177073,0.33028113842,-1.0,1.0,1.0,-0.999987721443,0.0,0.789519965649,1.0,-0.532847702503,0.909653067589
h,-1.0,0.999999880791,0.902650654316,-0.953090012074,0.691457033157,-0.945825219154,-1.0,-0.909710049629,-1.0,0.285856515169,0.565498232841,-1.0,1.0,1.0,-1.0,0.0,0.970817267895,1.0,-0.469287246466,0.85050714016
h,-1.0,0.796298325062,0.663073599339,-0.888735771179,0.733342409134,-1.0,-1.0,-0.778283238411,-0.999999701977,-0.422191619873,0.411964863539,-1.0,1.0,1.0,-1.0,0.0,0.975940942764,1.0,-0.199013724923,0.722187280655
h,-1.0,0.86648017168,0.855136275291,-0.919045090675,0.759863078594,-1.0,-1.0,-1.0,-1.0,-0.224149540067,0.586308181286,-1.0,1.0,1.0,-1.0,0.0563598573208,0.998676121235,1.0,-0.583093762398,0.884345054626
h,-1.0,0.647209465504,0.721457958221,-0.784330427647,0.526283860207,-1.0,-1.0,-0.948392271996,-0.999264121056,-0.236251592636,0.280881762505,-1.0,1.0,1.0,-1.0,0.0,0.427672922611,1.0,-0.417012929916,0.694081008434
h,-1.0,0.878585219383,0.800563335419,-1.0,0.778895676136,-1.0,-1.0,-0.951273918152,-1.0,-0.145970731974,0.456262648106,-1.0,1.0,1.0,-1.0,0.0,0.979903280735,1.0,-0.482220768929,0.863938808441
h,-1.0,0.682300686836,0.733951091766,-0.87268024683,0.663423895836,-1.0,-1.0,-0.867423355579,-1.0,-0.0252468790859,0.229268729687,-1.0,1.0,1.0,-1.0,0.0,0.85654181242,1.0,-0.375087440014,0.820875644684
h,-1.0,0.903896570206,0.904136538506,-0.731524884701,0.327877253294,-1.0,-1.0,-0.879015982151,-1.0,0.2053784132,0.387254565954,-1.0,1.0,1.0,-1.0,0.0,0.131707295775,1.0,-0.22794508934,0.782853722572
h,-1.0,0.999966025352,1.0,-1.0,0.60790258646,-1.0,-1.0,0.888445198536,-1.0,-0.383161246777,0.590558648109,-1.0,1.0,1.0,-1.0,0.0,0.991792023182,0.904115557671,-0.769045472145,1.0
h,-1.0,0.99997729063,1.0,-1.0,0.950519561768,-1.0,-1.0,-1.0,-1.0,0.6702901721,0.564977407455,-1.0,1.0,1.0,-1.0,0.0,0.999284267426,1.0,-0.999463260174,1.0
h,-1.0,0.999949216843,1.0,-1.0,0.972981035709,-0.732285618782,-1.0,-1.0,-1.0,0.929960310459,0.714152753353,-1.0,1.0,1.0,-1.0,0.0,0.999998569489,1.0,-1.0,1.0
h,-1.0,0.999992609024,0.999466240406,-1.0,0.984197020531,-0.89526951313,-1.0,-0.92802888155,-1.0,0.656035602093,0.643357515335,-1.0,1.0,1.0,-1.0,0.0,0.9986577034,1.0,-0.808617532253,1.0
h,-1.0,0.999998629093,1.0,-1.0,0.864574253559,-0.80510866642,-1.0,-1.0,-1.0,0.996020257473,0.702763020992,-1.0,1.0,1.0,-1.0,0.0,0.996999442577,1.0,-0.997866988182,1.0
h,-1.0,0.809646725655,0.871103405952,-0.947834610939,0.820125341415,-1.0,-1.0,-1.0,-1.0,-0.29633435607,0.530750989914,-1.0,1.0,1.0,-1.0,0.0,0.5276709795,1.0,-0.689216017723,0.890038371086
h,-1.0,0.780271172523,0.795163631439,-0.858699560165,0.699527144432,-1.0,-1.0,-0.873533964157,-1.0,-0.327589601278,0.443747013807,-1.0,1.0,1.0,-1.0,0.0,0.909837663174,1.0,-0.465896070004,0.837584495544
h,-1.0,0.855170249939,0.924728453159,-1.0,0.496306627989,-1.0,-1.0,-1.0,-1.0,-0.0221081394702,0.495538920164,-1.0,1.0,1.0,-1.0,0.0,0.843986451626,1.0,-0.5101557374,0.990674972534
p,-1.0,0.943427562714,0.808619260788,-0.892381489277,0.144326418638,-0.999997198582,-1.0,-0.999999821186,-1.0,-0.89822858572,0.467975318432,-0.999982059002,1.0,1.0,-1.0,0.0,0.998713552952,0.801810741425,-0.348481178284,1.0
p,-1.0,0.999918699265,0.820094525814,-0.907560110092,0.408821433783,-0.999998211861,-1.0,-0.999988138676,-0.999999523163,-0.866663694382,0.579102039337,-0.999999642372,1.0,1.0,-0.999998927116,0.0182111822069,0.976094007492,0.961283624172,-0.758840620518,1.0
p,-0.999984800816,0.996756434441,0.942743599415,-0.999991178513,0.559576511383,-0.999876439571,-0.999997615814,-0.999623835087,-0.999866068363,-0.720021903515,0.672987759113,-0.999312698841,1.0,0.999991595745,-0.999992609024,0.0,0.997708916664,0.918217241764,-0.87835752964,0.999978065491
p,-0.997813224792,0.972307682037,0.786739289761,-0.92256885767,0.721142649651,-0.995470762253,-0.998998463154,-0.996013343334,-0.993279397488,-0.818536162376,0.339574635029,-0.9708583951,0.999959945679,0.998525381088,-0.999420642853,0.0,0.964488267899,0.687575042248,-0.90670222044,0.975432813168
p,-1.0,0.999310612679,0.836965799332,-1.0,0.868914663792,-1.0,-1.0,-0.999975562096,-1.0,-0.684469521046,0.590106368065,-0.999988615513,1.0,1.0,-0.99999922514,0.0063694845885,0.951772511005,0.992478430271,-0.987492203712,1.0
p,-0.999998748302,0.870241165161,0.781452715397,-0.876475691795,0.623153150082,-0.999999582767,-1.0,-0.989784002304,-0.999998211861,-0.900224626064,0.532019555569,-0.999991834164,1.0,1.0,-0.999998807907,0.0561406463385,0.923741519451,0.959485471249,0.098830871284,0.946345210075
p,-1.0,0.824359297752,0.73072052002,-0.840848207474,0.338956296444,-1.0,-1.0,-0.908520102501,-1.0,-0.84351760149,0.498323053122,-0.999998927116,1.0,1.0,-1.0,0.0,0.97124505043,0.993687808514,-0.17000900209,0.971320986748
p,-0.999817848206,0.804410994053,0.765669465065,-0.984414219856,0.830704450607,-0.999984502792,-0.999764323235,-0.985759437084,-0.999642908573,-0.830151319504,0.539211034775,-0.999575257301,0.999962389469,0.999903023243,-0.999947309494,0.0,0.862025558949,0.932733297348,-0.781899750233,0.987955033779
p,-0.999999880791,0.975361287594,0.838271737099,-0.928186297417,0.510217487812,-0.999999940395,-1.0,-0.994101524353,-1.0,-0.748662233353,0.603799104691,-0.999993264675,1.0,1.0,-0.999997079372,0.030117334798,0.931845664978,0.982876121998,-0.635497093201,1.0
p,-0.999975860119,0.895176708698,0.861138224602,-0.999739289284,0.636010885239,-0.999902963638,-0.999999403954,-0.999864816666,-0.999995589256,-0.767344236374,0.578325331211,-0.996319770813,0.99999833107,0.999997437,-0.999788165092,0.0,0.887361824512,0.858610153198,-0.972246646881,0.999996721745
p,-0.999999821186,0.867299735546,0.761362910271,-0.861631572247,0.51007348299,-0.999999463558,-1.0,-0.98742300272,-0.999999821186,-0.888510465622,0.485624998808,-0.999996185303,1.0,1.0,-0.999999165535,0.137384325266,0.812080442905,0.94524538517,-0.0636474639177,0.924167633057
p,-0.99999833107,0.83931428194,0.851771593094,-0.972099363804,0.431441098452,-0.999997854233,-1.0,-0.999996244907,-0.999999880791,-0.823216617107,0.566138386726,-0.99998152256,1.0,0.999999940395,-0.999996483326,0.0380378738046,0.888188660145,0.962426066399,-0.730023741722,1.0
p,-0.999987840652,0.660957813263,0.799144566059,-0.981764614582,0.645954847336,-0.999999463558,-0.999999821186,-0.990292131901,-0.999997377396,-0.898346185684,0.493506103754,-0.99974578619,0.999994397163,0.999976992607,-0.999985933304,0.0,0.953609228134,0.863507688046,-0.636641383171,1.0
p,-0.999991416931,0.937880992889,0.78613948822,-0.932056427002,0.903692245483,-0.999996006489,-0.999999821186,-0.999963462353,-0.999924302101,-0.839348614216,0.47707092762,-0.999938607216,0.999999761581,0.999939143658,-0.999998927116,0.0,0.891296446323,0.971428096294,-0.574530601501,0.900551915169
p,-0.990941882133,0.801969647408,0.939318478107,-0.981091499329,0.912257313728,-0.921815037727,-0.893823325634,-0.995156764984,-0.997016310692,-0.160644829273,0.597315132618,-0.968882322311,0.99836486578,0.999023497105,-0.999214172363,0.0,0.991979300976,0.748573243618,-0.997803747654,0.99983471632
p,-0.999212622643,0.94457000494,0.830247998238,-0.968608617783,0.876036047935,-0.999993085861,-0.999943137169,-0.996031701565,-0.998108744621,-0.917970955372,0.546834826469,-0.998955190182,0.999919176102,0.99916613102,-0.99997651577,0.0765182673931,0.969806194305,0.838189721107,-0.794257938862,0.983622312546
p,-0.999529242516,0.636387646198,0.7948346138,-0.991396427155,0.737753868103,-0.99999922514,-0.999997794628,-0.999669969082,-0.999761939049,-0.842808306217,0.52824985981,-0.999573111534,0.999692261219,0.999254345894,-0.999925136566,0.132540032268,0.908375442028,0.67859095335,-0.797374486923,0.999999940395
p,-0.999994516373,0.815526664257,0.767739534378,-0.897070944309,0.68300306797,-1.0,-0.999999880791,-0.981357097626,-0.999998509884,-0.788037836552,0.441852807999,-0.999911367893,0.999999940395,0.999999701977,-0.999996364117,0.0,0.885814189911,0.838664054871,-0.556261122227,0.971525907516
p,-0.999949753284,0.806638836861,0.751640558243,-0.976885139942,0.958519637585,-0.999968767166,-1.0,-0.917914271355,-0.999978542328,-0.851672053337,0.549316346645,-0.999513626099,0.999976575375,0.998942136765,-0.999999165535,0.0821251794696,0.78900796175,0.552483677864,-0.750774741173,0.935676693916
p,-1.0,0.904000818729,0.797335743904,-0.865215182304,0.322900146246,-1.0,-1.0,-1.0,-0.999993264675,-0.936837673187,0.521130502224,-0.999984323978,1.0,1.0,-1.0,0.048356872052,0.99998497963,0.905697822571,-0.247217863798,1.0
p,-1.0,0.901618242264,0.716122150421,-0.793556690216,0.275669634342,-1.0,-1.0,-0.939090013504,-0.999999821186,-0.899991214275,0.493941396475,-0.999999046326,1.0,1.0,-1.0,0.0,0.999960124493,0.914085328579,-0.438193768263,0.992507278919
p,-1.0,0.999756813049,0.926612854004,-0.878181219101,0.518626749516,-1.0,-1.0,-0.999999880791,-0.999999880791,-0.850969910622,0.668848931789,-0.999990344048,1.0,1.0,-1.0,0.289410054684,0.995171070099,0.854740619659,-0.719505369663,1.0
p,-1.0,0.999702453613,0.955096542835,-0.982254326344,0.833969116211,-1.0,-1.0,-1.0,-1.0,-0.540337741375,0.658395648003,-1.0,1.0,1.0,-1.0,0.0326940715313,0.993353545666,0.998126149178,-0.796821057796,1.0
p,-1.0,0.999004840851,0.905005931854,-0.90370374918,0.551139652729,-1.0,-1.0,-1.0,-1.0,-0.602110803127,0.702567219734,-0.999999940395,1.0,1.0,-1.0,0.266400814056,0.99011516571,0.997147381306,-0.258644640446,1.0
p,-1.0,0.999704301357,0.933535933495,-0.90504103899,0.727973461151,-1.0,-1.0,-1.0,-0.999999880791,-0.633879482746,0.582300722599,-0.999992966652,1.0,1.0,-1.0,0.0133859328926,0.999151051044,0.863026082516,-0.696340799332,1.0
p,-1.0,0.999107956886,0.895807862282,-0.957416892052,0.625525355339,-0.999998867512,-1.0,-1.0,-1.0,-0.833408772945,0.730697631836,-0.999985575676,1.0,1.0,-1.0,0.349838852882,0.989590346813,0.984909534454,-0.550932407379,1.0
p,-1.0,0.999400496483,0.842587351799,-0.891994357109,0.746150434017,-1.0,-1.0,-1.0,-1.0,-0.737962007523,0.607530117035,-0.999996900558,1.0,1.0,-1.0,0.0,0.996510863304,0.983962535858,-0.809198498726,1.0
p,-1.0,0.974302351475,0.775918483734,-0.822775781155,0.708690166473,-1.0,-1.0,-0.978428721428,-0.999999761581,-0.885762691498,0.517378628254,-0.999982357025,1.0,1.0,-1.0,0.0,0.999783277512,0.821595728397,-0.363598167896,0.997765898705
p,-0.999986290932,0.949866950512,0.760862350464,-0.928154826164,0.867791473866,-0.999972403049,-0.999999761581,-0.999990284443,-0.999998033047,-0.911629199982,0.563350021839,-0.999722838402,0.999999761581,0.999999821186,-0.999999284744,0.0,0.997913837433,0.908145368099,-0.503628969193,0.949479579926
p,-1.0,0.981136143208,0.844277381897,-0.977376103401,0.725701153278,-0.999999523163,-1.0,-1.0,-1.0,-0.683869421482,0.594149529934,-0.999913215637,1.0,1.0,-0.999999880791,0.0,0.995813906193,0.964134633541,-0.955595850945,1.0
p,-1.0,0.984073758125,0.860827803612,-0.985048055649,0.689776062965,-1.0,-1.0,-1.0,-1.0,-0.584638357162,0.607380509377,-0.999999761581,1.0,1.0,-1.0,0.0,0.997913300991,0.997283637524,-0.993996202946,1.0
h,-0.993435442448,0.622777819633,0.899391949177,-0.6962018013,0.3220705688,-0.912738621235,-1.0,-0.998821616173,-0.999993443489,-0.101887576282,0.522348880768,-1.0,0.962909460068,0.998833239079,-1.0,0.455249398947,0.0639963373542,1.0,-0.267243087292,1.0
h,-0.999919176102,0.425603747368,1.0,-0.994429826736,1.0,-0.954997301102,-1.0,-1.0,-1.0,-0.301811754704,0.831609666348,-0.999999880791,1.0,1.0,-1.0,0.376049667597,-0.309296935797,1.0,-0.51093262434,0.961599230766
h,-0.996257424355,0.950432360172,0.999994218349,-0.999978065491,0.854950785637,-1.0,-0.998718976974,-0.909472286701,-0.999987721443,0.153922766447,0.542282342911,-0.999700725079,1.0,0.999999940395,-1.0,0.0,-0.108439087868,0.847097575665,-0.329516023397,0.999999642372
h,-1.0,0.999999523163,1.0,-1.0,1.0,-0.700256943703,-1.0,-1.0,-1.0,0.66172170639,0.999699175358,-1.0,1.0,1.0,-1.0,0.532204926014,0.999641537666,0.999999463558,0.694362938404,1.0
h,-1.0,0.999884486198,1.0,-1.0,1.0,-0.688770294189,-1.0,-1.0,-1.0,0.972621262074,0.848801851273,-1.0,1.0,1.0,-1.0,0.0,1.0,0.999985277653,-1.0,1.0
h,-0.999209225178,0.975863397121,0.999996900558,-0.918924152851,0.835278332233,-0.769124269485,-1.0,-1.0,-0.999020397663,-0.589333772659,1.0,-0.999976694584,1.0,1.0,-1.0,0.999961733818,-0.421370714903,1.0,0.375276207924,0.864326834679
h,-1.0,0.932376146317,1.0,-1.0,0.9997574687,-0.934698939323,-1.0,-1.0,-1.0,0.523615419865,0.998228430748,-1.0,1.0,1.0,-1.0,0.289462596178,0.9560546875,0.999999761581,0.998006999493,1.0
h,-1.0,0.895978569984,1.0,-1.0,1.0,-0.847386538982,-1.0,-1.0,-1.0,0.91842854023,0.666563749313,-1.0,1.0,1.0,-1.0,0.0,0.999326646328,0.999999940395,-1.0,1.0
h,-1.0,0.715097308159,1.0,-1.0,0.994371175766,-1.0,-1.0,-0.972054362297,-1.0,-0.031884457916,0.52187359333,-0.999997913837,1.0,1.0,-1.0,0.0,0.800616562366,0.999974012375,-0.992405176163,1.0
h,-1.0,0.993376195431,0.985225439072,-1.0,0.999999940395,-0.787572622299,-1.0,-0.898888111115,-1.0,0.0839898809791,1.0,-1.0,1.0,1.0,-1.0,0.965738415718,0.974460661411,1.0,0.987227916718,0.946033775806
h,-0.999989211559,0.993435323238,0.986558675766,-0.956103146076,1.0,-0.840185761452,-1.0,-0.95118945837,-1.0,-0.663107395172,1.0,-1.0,1.0,0.995103776455,-1.0,1.0,0.775928676128,0.999948620796,0.986781179905,0.883175194263
h,-0.999989807606,0.897725760937,0.812553286552,-0.966207325459,0.884793162346,-0.999960899353,-1.0,-0.900308907032,-1.0,-0.83979511261,1.0,-1.0,1.0,0.999999403954,-1.0,0.99584120512,0.130898699164,0.999998629093,0.988679409027,0.807803273201
h,-1.0,0.870702922344,0.724228620529,-0.84546661377,0.999759018421,-1.0,-1.0,-0.827086448669,-1.0,-0.581433653831,0.902065992355,-1.0,1.0,1.0,-1.0,0.59417951107,0.946450412273,0.999990046024,0.99999499321,0.859148800373
h,-1.0,0.999999761581,0.731820642948,-0.952696800232,1.0,-0.742993474007,-1.0,-0.899121642113,-1.0,-0.617562890053,1.0,-1.0,1.0,1.0,-1.0,1.0,0.776957452297,0.999999761581,0.998742818832,0.780514597893
h,-1.0,0.984775364399,0.956933617592,-1.0,1.0,-0.952545762062,-1.0,-1.0,-1.0,-0.743028223515,1.0,-1.0,0.999999821186,0.999527096748,-1.0,0.787345290184,0.99418181181,0.999396800995,0.12570258975,1.0
h,-0.999995648861,0.989042639732,0.935964465141,-0.996941804886,1.0,-0.902560532093,-1.0,-0.887948691845,-1.0,-0.358255654573,1.0,-1.0,1.0,0.999993264675,-1.0,0.954861044884,0.895604789257,0.999820828438,0.998031318188,1.0
h,-0.99999922514,1.0,1.0,-1.0,1.0,-0.406389534473,-1.0,-0.981203734875,-1.0,0.645453512669,1.0,-1.0,1.0,0.999864697456,-1.0,0.941903233528,0.895490527153,0.999999880791,0.99423122406,1.0
h,-1.0,1.0,1.0,-1.0,1.0,-0.276337474585,-1.0,-1.0,-1.0,0.50007724762,0.991817116737,-1.0,1.0,1.0,-1.0,0.999503016472,0.991867601871,0.999997198582,0.994089365005,1.0
h,-0.999996185303,1.0,1.0,-0.99999332428,1.0,-0.619658946991,-1.0,-0.841461002827,-0.999994754791,0.0443073026836,0.912914872169,-1.0,1.0,0.999999880791,-1.0,1.0,0.946205973625,1.0,0.808612942696,1.0
h,-0.999998211861,1.0,0.913043618202,-1.0,1.0,-0.63834887743,-1.0,-0.584047913551,-0.999669969082,-0.357652664185,1.0,-1.0,1.0,0.99991440773,-1.0,0.999999880791,0.999994635582,1.0,0.0311010368168,0.857632100582
h,-0.999999821186,1.0,0.872500658035,-0.999998450279,1.0,-0.687861502171,-1.0,-0.838652253151,-1.0,-0.377368122339,1.0,-1.0,1.0,0.99999409914,-1.0,0.999997258186,0.999118387699,1.0,0.558726191521,0.891367197037
h,-0.999999940395,1.0,1.0,-0.999980390072,1.0,-0.66914242506,-1.0,-0.930574059486,-0.999991834164,-0.63624805212,1.0,-1.0,1.0,1.0,-1.0,1.0,0.999997913837,1.0,0.204642564058,0.855551064014
h,-0.999994575977,1.0,0.984730243683,-0.980896770954,1.0,-0.459848493338,-1.0,-0.896919846535,-0.999999642372,-0.400440484285,0.999598383904,-1.0,1.0,0.999981045723,-1.0,0.999999821186,0.999999761581,0.999999582767,0.375494658947,0.867890536785
h,-0.999998807907,1.0,0.980341970921,-0.994255244732,1.0,-0.601163506508,-1.0,-0.873846888542,-1.0,-0.209069639444,0.99764919281,-1.0,1.0,0.999999880791,-1.0,0.999999940395,0.999917447567,1.0,0.98675519228,0.867846727371
h,-0.999997675419,1.0,0.834877729416,-0.878191232681,1.0,-1.0,-1.0,-0.821841835976,-1.0,-0.428222417831,0.999999940395,-1.0,1.0,1.0,-1.0,0.690271139145,0.99999666214,1.0,0.999969542027,0.782306075096
h,-0.999999523163,1.0,1.0,-0.999971270561,1.0,-0.584691643715,-1.0,-0.954307198524,-1.0,-0.274415135384,0.999994397163,-1.0,1.0,1.0,-1.0,0.999998211861,0.935561776161,1.0,0.999805510044,0.941093027592
h,-1.0,1.0,1.0,-0.999961912632,1.0,-0.379285991192,-1.0,-0.961301922798,-1.0,0.13935983181,0.999987840652,-1.0,1.0,1.0,-1.0,0.999998211861,0.998877942562,1.0,0.579722881317,0.937970757484
h,-0.999999821186,1.0,0.930415928364,-0.909784138203,1.0,-0.556589961052,-1.0,-0.936580300331,-1.0,-0.30364048481,0.999996125698,-1.0,1.0,0.999962568283,-1.0,0.999982714653,0.999639987946,1.0,0.995943486691,0.917098879814
h,-0.999994575977,0.999999880791,0.950381875038,-0.999991357327,1.0,-0.659555852413,-1.0,-0.794541716576,-1.0,-0.056539144367,0.999976575375,-1.0,1.0,1.0,-1.0,0.999968349934,0.715357482433,1.0,0.993397116661,0.922612249851
h,-0.99826002121,1.0,1.0,-0.999999582767,1.0,-0.780023515224,-1.0,-0.861011862755,-0.999997854233,-0.011303386651,0.980292439461,-1.0,1.0,1.0,-1.0,0.885508239269,0.376552343369,1.0,0.998969316483,0.845925211906
h,-0.999985098839,0.999998807907,1.0,-0.999986946583,0.999999940395,-0.663681149483,-1.0,-0.922669827938,-0.999991953373,-0.164044901729,0.996862351894,-1.0,1.0,0.998639762402,-1.0,0.999904036522,0.84577614069,0.999930083752,0.995770096779,0.930383980274
h,-0.999999523163,1.0,1.0,-0.999992668629,1.0,-0.690396547318,-1.0,-0.920633792877,-1.0,-0.250923573971,0.998983383179,-1.0,1.0,1.0,-1.0,1.0,0.941028356552,1.0,0.99999165535,1.0
h,-0.990022182465,1.0,1.0,-0.999997913837,1.0,-0.955191612244,-1.0,-0.833120286465,-0.952036440372,-0.615805864334,0.999439179897,-1.0,1.0,1.0,-1.0,0.997499227524,0.0530173480511,1.0,0.998505830765,0.915613293648
h,-0.999953866005,1.0,1.0,-0.999991834164,0.999936580658,-1.0,-1.0,-0.7186460495,-0.99966520071,-0.371037304401,1.0,-1.0,1.0,0.995862722397,-1.0,0.70069372654,0.937924146652,1.0,0.0100306868553,1.0
h,-0.999970793724,0.67131370306,0.914710640907,-0.860318183899,1.0,-1.0,-1.0,-1.0,-1.0,0.274252682924,0.767533659935,-0.999999642372,1.0,1.0,-1.0,0.0777674987912,0.572831511497,0.894242405891,0.996684253216,1.0
h,-1.0,0.991817831993,0.965995371342,-0.870313286781,0.999999880791,-0.788422465324,-1.0,-1.0,-1.0,0.471658706665,1.0,-1.0,1.0,1.0,-1.0,0.478507846594,0.949472546577,0.999369740486,0.987760663033,1.0
h,-1.0,0.966403484344,1.0,-1.0,1.0,-0.858202695847,-1.0,-1.0,-1.0,0.998336017132,0.742832541466,-0.999999284744,1.0,1.0,-1.0,0.0,0.999999403954,0.43576914072,-1.0,1.0
h,-1.0,0.828082323074,0.786341786385,-0.869789421558,0.24574418366,-1.0,-1.0,-0.865867614746,-0.999953687191,0.515956223011,0.37042337656,-1.0,1.0,0.99994045496,-0.999999284744,0.0,0.986421227455,1.0,-0.469455033541,0.965577602386
h,-1.0,-0.309648305178,0.904564261436,-1.0,1.0,-0.870058476925,-1.0,-0.817377924919,-1.0,-0.639293551445,0.717948913574,-1.0,1.0,1.0,-1.0,0.263419479132,0.951109349728,0.999989390373,-0.794942855835,0.930418074131
h,-1.0,1.0,1.0,-1.0,1.0,-0.182913586497,-1.0,-1.0,-1.0,0.981462299824,1.0,-1.0,1.0,1.0,-1.0,0.968503117561,1.0,1.0,-0.999999821186,1.0
h,-1.0,0.933239519596,1.0,-0.938070654869,1.0,-0.883078455925,-1.0,-0.835156023502,-1.0,0.974367201328,0.633790135384,-1.0,1.0,1.0,-1.0,0.0,0.659182369709,1.0,0.788612544537,0.830076932907
h,-0.999996960163,1.0,1.0,-0.999720811844,0.997324824333,-0.693661689758,-1.0,-1.0,-0.99999499321,-0.682012081146,1.0,-1.0,1.0,1.0,-1.0,1.0,0.999953150749,1.0,0.142061457038,0.978057742119
h,-0.999590396881,1.0,0.836271047592,-0.994769215584,0.971020519733,-1.0,-1.0,-0.665138542652,-0.994107067585,-0.54308795929,0.656583428383,-1.0,1.0,0.999929010868,-1.0,0.181809335947,0.968274533749,1.0,4.23176885533e-07,0.711357116699
h,-1.0,1.0,1.0,-0.996889352798,0.619512915611,-0.817031681538,-1.0,-0.765855550766,-1.0,0.984983921051,0.552192032337,-1.0,1.0,0.999997973442,-1.0,0.0,0.794116199017,1.0,-0.320764273405,0.900861084461
h,-0.999919176102,1.0,0.888732075691,-0.991648614407,0.994680523872,-0.629039764404,-1.0,-0.733831048012,-1.0,0.403344780207,0.990432858467,-1.0,1.0,0.998818218708,-1.0,0.298532932997,0.999999344349,1.0,0.000215390216908,0.76687002182
h,-0.974537074566,1.0,0.999846160412,-0.982030630112,0.987554252148,-0.582419753075,-1.0,-0.630309462547,-0.96145516634,0.00791001133621,0.998751044273,-1.0,1.0,0.930112838745,-1.0,0.666137695312,0.998935341835,1.0,1.63876575243e-05,0.705600440502
h,-0.998936355114,1.0,1.0,-0.999889373779,0.999998629093,-0.368341684341,-1.0,-1.0,-0.999999880791,0.248936399817,0.997433185577,-1.0,1.0,0.999971091747,-1.0,1.0,0.962733924389,1.0,0.456729799509,1.0
h,-0.999801814556,1.0,0.999995291233,-0.997509658337,0.999964475632,-1.0,-1.0,-0.748786449432,-0.999830722809,-0.0729245990515,0.761996865273,-1.0,1.0,0.999972820282,-1.0,0.127489507198,0.961968719959,1.0,0.0377529151738,0.787935137749
h,-1.0,1.0,1.0,-1.0,1.0,-0.648897230625,-1.0,-0.892460584641,-1.0,0.961109220982,0.954713046551,-1.0,1.0,1.0,-1.0,0.350911617279,0.971760749817,1.0,0.995777964592,0.988713741302
h,-0.999922096729,1.0,1.0,-0.94137352705,0.931207180023,-0.95341026783,-1.0,-0.875353455544,-1.0,-0.413892328739,0.832357645035,-1.0,1.0,1.0,-1.0,0.638083934784,0.0541177615523,1.0,0.254350543022,0.839070379734
h,-0.99988001585,0.801781654358,0.890509009361,-0.988972306252,0.705335140228,-1.0,-1.0,-0.74281424284,-0.998702049255,0.347556948662,0.245847865939,-1.0,1.0,0.999997854233,-1.0,0.0,0.859171271324,1.0,0.0179779995233,0.76241505146
h,-1.0,1.0,1.0,-1.0,1.0,-0.197260826826,-1.0,-1.0,-1.0,0.988078773022,0.999953627586,-1.0,1.0,0.999999821186,-1.0,0.8759111166,1.0,1.0,0.259985029697,1.0
h,-1.0,1.0,0.888536810875,-0.999867141247,0.999622702599,-0.712500929832,-1.0,-0.663446426392,-0.999996960163,-0.47997251153,1.0,-1.0,1.0,1.0,-1.0,0.93271780014,1.0,1.0,0.000900894694496,0.682639479637
h,-0.990471184254,1.0,0.999999701977,-0.999486446381,0.997994303703,-0.740258038044,-1.0,-0.917551755905,-0.736900925636,-0.569961249828,1.0,-1.0,1.0,0.999957978725,-1.0,1.0,-0.155844509602,1.0,0.0173573438078,0.752830982208
h,-0.996021032333,0.922385513783,0.999999880791,-0.930583775043,0.999999821186,-0.836965024471,-1.0,-0.969358444214,-1.0,-0.0579920709133,0.891132771969,-1.0,1.0,1.0,-1.0,0.805519163609,0.000391281355405,1.0,0.999893248081,0.879711270332
h,-0.996087312698,0.835569322109,0.979944229126,-0.950336754322,0.999999642372,-0.999999880791,-1.0,-0.755039930344,-1.0,-0.515036761761,1.0,-1.0,1.0,1.0,-1.0,0.932373344898,-0.00328417820856,1.0,0.803595423698,0.745091438293
h,-1.0,0.984521925449,1.0,-0.917624592781,1.0,-0.543566823006,-1.0,-1.0,-1.0,0.711261570454,0.999999880791,-1.0,1.0,0.999997377396,-1.0,0.830248951912,0.908701717854,1.0,0.999982476234,0.934854865074
h,-1.0,1.0,1.0,-0.999971747398,0.9151288867,-0.787560999393,-1.0,-0.882560610771,-1.0,0.999999046326,0.786392688751,-1.0,1.0,1.0,-1.0,0.0,0.999993860722,1.0,-0.976689577103,1.0
h,-1.0,0.999906718731,1.0,-0.999990284443,0.999967753887,-0.347034484148,-1.0,-0.958748281002,-1.0,0.972741544247,0.977116107941,-1.0,1.0,1.0,-1.0,0.746899664402,0.995825529099,1.0,0.624867498875,1.0
h,-0.999553501606,0.920523643494,0.924911677837,-0.934230268002,0.614346981049,-0.778422117233,-1.0,-0.854857981205,-1.0,-0.0287296418101,0.80401301384,-1.0,1.0,1.0,-1.0,0.510327517986,-0.244279175997,1.0,0.174595281482,0.734427928925
h,-1.0,0.996194839478,0.986849665642,-0.999999821186,0.99998497963,-0.826979517937,-1.0,-0.521686971188,-1.0,-0.306074827909,1.0,-1.0,0.980845987797,-0.920519471169,-1.0,0.571735203266,0.999270021915,0.996330738068,-0.99399882555,1.0
h,-0.999991476536,1.0,0.773199260235,-0.897419631481,0.864531815052,-0.973446369171,-1.0,-0.79503852129,-0.882564842701,-0.996150791645,0.729391276836,-1.0,1.0,1.0,-1.0,0.618702054024,0.991723179817,1.0,0.0410816594958,0.695571541786
h,-0.999991595745,1.0,0.89118885994,-0.88608789444,0.984985291958,-0.831278324127,-1.0,-0.661878466606,-0.988554120064,-0.61210411787,0.961656689644,-1.0,1.0,0.998315095901,-1.0,0.884973049164,0.999709427357,1.0,1.58552745688e-06,0.661755919456
A,0.0962392687798,0.393019527197,0.380568563938,0.0993855372071,0.643917679787,0.518865644932,0.0,0.386498957872,-0.209760725498,-0.248037725687,0.348654031754,-0.0210243314505,0.0397210679948,0.502438247204,-0.162567451596,-0.0127039551735,-0.594989776611,-0.000278275518212,-0.52072262764,0.065624922514
A,0.0,0.138657748699,0.152900993824,-0.268765509129,0.208165645599,0.318074077368,0.0139238648117,0.178873091936,-0.145744293928,-0.196098506451,0.261310428381,-0.0727359503508,0.236000552773,0.368295907974,-0.00379287241958,0.133447825909,-0.697742402554,0.0,-0.392768472433,-0.0997119173408
A,0.182057350874,0.328913271427,0.58504319191,0.112716376781,0.862696051598,0.545957744122,0.0,0.179950132966,-0.317101836205,-0.225558176637,-0.0525927729905,-0.00105754565448,0.0232105981559,0.548735618591,-0.296309441328,0.000650677946396,-0.362146794796,-0.0,-0.74442499876,0.223742157221
A,0.171472415328,0.328957766294,0.21414077282,-0.187025994062,0.161022618413,0.128734901547,0.192288503051,-0.135136157274,-0.239502981305,0.121863655746,0.213597223163,-0.0207588672638,0.0529595836997,0.26961517334,-0.0179367605597,0.0770841836929,-0.448121875525,0.0386945493519,-0.3706138134,-0.170340612531
A,0.469117701054,0.0520298741758,0.527057945728,0.574565529823,0.693656623363,-0.311445921659,0.0,0.621376633644,0.112855911255,-0.0801130384207,0.075195401907,-0.170022845268,-0.279405236244,0.1566041857,-0.554930210114,0.0017376425676,-0.359439969063,-0.0618467219174,-0.442496806383,0.24145975709
A*,0.186737596989,0.584282338619,0.394364267588,-0.638158142567,0.549062907696,0.320041567087,0.351247310638,0.525854766369,-0.391642451286,-0.450256407261,0.29760992527,-0.12652027607,0.503113210201,0.463518470526,-0.198827043176,0.143039792776,-0.261675536633,0.0999626964331,-0.485163211823,-0.140004009008
A*,0.111605748534,0.527771770954,0.532627165318,-0.184819564223,0.627271413803,-0.182001501322,0.335071325302,0.233258023858,-0.127213910222,0.0671089738607,0.633542001247,-0.282295703888,-0.580381810665,0.467990905046,-0.414216697216,-0.108990244567,-0.189083442092,0.252667933702,-0.651974439621,0.0654317215085
A*,0.324144691229,0.590740680695,0.435354977846,-0.561043918133,0.325039237738,0.467411309481,0.34931075573,0.761195600033,-0.40490347147,-0.394677340984,0.236841529608,-0.0674241855741,0.583974957466,0.498841434717,-0.399517953396,0.0500166341662,-0.762875676155,0.262556195259,-0.382652074099,-0.0482666268945
A,0.299408316612,0.342252790928,0.329364448786,-0.391297578812,0.912875056267,0.081387668848,0.0,0.20360724628,0.117894291878,-0.146812841296,0.0292673613876,-0.0566762089729,-0.030819574371,0.632972240448,-0.404710829258,-0.0,-0.70911937952,0.131148681045,-0.273493051529,-0.1349966079
A,0.262871325016,0.518530249596,0.544808387756,-0.257294505835,0.992290914059,0.155265659094,0.0,0.564395070076,0.117786280811,-0.33676764369,0.0372972153127,-0.0502103753388,-0.110526204109,0.522447645664,-0.334789633751,0.0,-0.781132400036,0.0,-0.481714606285,0.124039426446
A,0.454760402441,-0.0239779222757,0.308022230864,-0.321999371052,0.921519994736,-0.48576399684,0.0,0.387944608927,-0.0324768014252,-0.0742768496275,0.0452938191593,-0.0197664666921,-0.15437348187,0.605270206928,-0.440662324429,-0.0,-0.574948310852,0.1002259776,-0.331916481256,-0.00344716920517
A*,-0.181673586369,-0.166662037373,0.125701263547,-0.0558845214546,0.208926811814,-0.154422491789,0.278928846121,0.0662339776754,-0.103733591735,-0.280163377523,0.35074442625,-0.482195854187,-0.172624468803,0.48939037323,-0.14591139555,0.440978199244,-0.475751727819,0.254060983658,-0.358317553997,0.450619161129
A*,-0.0824130401015,0.0560753010213,0.368866831064,-0.499857842922,0.161926627159,-0.317820549011,0.717472791672,-0.0629907920957,-0.169478014112,0.187509894371,0.257919281721,-0.278397291899,0.824395179749,0.335246115923,-0.0629207566381,0.133924633265,-0.420386344194,0.299206227064,-0.104971885681,0.269756138325
A*,0.13057744503,0.283323824406,0.312380045652,-0.151796907187,0.224261209369,0.0969899967313,0.0630353465676,-0.0514415949583,-0.37419205904,0.0469171255827,0.53273910284,-0.134233817458,-0.429110258818,0.390203565359,-0.299475431442,-0.121170595288,-0.662662029266,0.0417044200003,-0.573159813881,-0.000364860985428
A*,-0.139975637197,0.140621140599,0.267973721027,-0.386791080236,0.271296411753,-0.0844483077526,-0.0337845757604,-0.0200276598334,-0.235314428806,0.400998413563,0.641215026379,-0.513867974281,-0.529125094414,0.509141147137,-0.34058368206,0.154227733612,-0.820107400417,0.302063196898,-0.381033420563,0.334152817726
A*,0.0611841268837,0.283709406853,0.279907226562,0.0346532799304,-0.127551347017,-0.0405759438872,-0.375463187695,-0.312992602587,-0.34853631258,0.480197876692,0.123923398554,-0.0339034721255,-0.309778898954,0.326986432076,-0.0702981874347,0.016728816554,-0.198750153184,0.179283455014,-0.484236717224,0.137885123491
A,0.0767442137003,0.207440629601,0.262579917908,-0.239614740014,0.292241096497,0.0763400569558,0.349312245846,-0.155701607466,-0.147032469511,0.0214535389096,0.565168559551,-0.0358476042747,-0.188716188073,0.385644167662,-0.147878587246,0.0959419459105,-0.775552511215,0.0495201423764,-0.479037970304,-0.0832867175341
A,0.145307376981,0.173311129212,0.372984230518,-0.188055351377,0.743584096432,-0.00475195003673,0.0,-0.275873333216,-0.054336566478,-0.00408377218992,-0.000785542302765,-0.0163746085018,-0.174369618297,0.442354619503,-0.26552760601,-0.0,-0.648414611816,0.00669895624742,-0.443098753691,-0.150403231382
A*,0.0584811791778,0.111906737089,0.293903052807,-0.206666082144,0.345150411129,-0.0649080201983,0.235744774342,-0.169981434941,-0.14768999815,-0.0887042284012,0.355194211006,-0.284941494465,-0.384840965271,0.316386222839,-0.0450211577117,0.138048663735,-0.562610268593,0.0154905747622,-0.337512344122,0.23517356813
A,-0.0316246561706,0.548799395561,0.280974715948,-0.43125000596,0.276042193174,0.359807193279,0.907871603966,-0.0139611288905,-0.487684547901,-0.151382565498,0.533528327942,-0.299323827028,0.791211247444,0.505868792534,-0.0772035866976,0.51183360815,0.321488827467,0.373407810926,-0.316558629274,-0.164493098855
A,0.262112349272,-0.0134750856087,0.170697435737,0.00387654616497,0.408395946026,0.039010938257,0.195500582457,-0.382622420788,-0.605123996735,0.208872795105,0.274362742901,-0.213189736009,-0.210217446089,0.598215222359,-0.401247531176,0.07392154634,-0.582680463791,0.14549587667,-0.430336236954,0.283700704575
A,0.0751390829682,-0.153397247195,0.1833550632,-0.343350380659,0.581947445869,0.0470278896391,0.0,-0.23701056838,-0.186486661434,-0.0324853397906,0.341709434986,-0.0638149678707,-0.0892530232668,0.431906223297,-0.115232937038,-0.00472763134167,-0.704229176044,0.0117238461971,-0.330182403326,0.322024434805
A,0.271490335464,0.213821604848,0.295349240303,-0.304012477398,0.914954960346,-0.0353765450418,0.0,-0.338504225016,0.196125000715,-0.147223576903,0.00312800263055,-0.119578123093,-0.058614064008,0.5014513731,-0.277131378651,-0.0,-0.574248313904,0.0724964886904,-0.385208517313,-0.279293805361
A,0.0354047827423,-0.280611932278,-0.0104383621365,-0.0802963450551,0.154015690088,0.025102391839,0.097076356411,-0.469519406557,-0.388549417257,0.0603561364114,0.145667999983,0.0066552287899,-0.0388267338276,0.452164888382,0.154247432947,0.0708560794592,-0.482847034931,0.0289841908962,-0.372162878513,0.020398080349
A,0.0946834757924,0.00752151058987,0.176318138838,-0.152759432793,0.236472442746,0.0401612631977,0.109319396317,-0.437761127949,-0.181591242552,0.172662705183,-0.0474281571805,-0.017426982522,-0.156184375286,0.430313706398,0.16802996397,0.0,-0.386830896139,0.0288759004325,-0.444047778845,-0.0280764177442
A,0.150593355298,0.206959247589,0.319268554449,-0.257061749697,0.461341917515,0.309170603752,0.0167981591076,-0.2933832407,-0.161775916815,-0.0894902199507,-0.0355410538614,-0.0037315140944,0.117790922523,0.479753315449,-0.117000594735,0.000587111688219,-0.239738419652,-0.0523364953697,-0.472535610199,0.0255434755236
A*,-0.0139781748876,0.142732620239,0.509951770306,-0.302149057388,0.493709623814,-0.194110542536,0.233092188835,0.132049739361,-0.210572451353,-0.357888758183,0.559479355812,-0.358912855387,-0.0978030785918,0.464136183262,-0.453893125057,0.248053476214,-0.336798965931,0.0474024526775,-0.596207857132,0.395787537098
A,0.204360067844,0.371407061815,0.356091409922,-0.307285517454,0.749122619629,0.16607940197,0.0,0.42737030983,0.268395334482,-0.0639018416405,0.0019942172803,-0.201050847769,0.0104099195451,0.586612403393,-0.162737473845,-0.0,-0.779092609882,0.120597191155,-0.374162018299,-0.16488905251
A,0.138428598642,0.0203254576772,0.148879557848,-0.432049304247,0.307088941336,-0.00480800773948,0.083584472537,-0.120578795671,-0.297686398029,0.314522564411,0.287039637566,-0.0857333689928,0.147341147065,0.392162412405,-0.0277320407331,0.0,-0.337647259235,0.0376047305763,-0.416751891375,-0.494038194418
A*,0.0650085508823,0.221923753619,0.0585472024977,-0.306462228298,0.0682406723499,0.24230453372,0.161102637649,0.0827939882874,-0.302247911692,-0.116778552532,0.161649987102,-0.0750832259655,0.608459234238,0.520339727402,-0.0495051927865,0.464700222015,-0.551703155041,0.333569198847,-0.241621211171,0.0267064645886
A,0.242368817329,0.593637466431,0.528455853462,-0.385071694851,0.331242769957,-0.156470924616,0.180030092597,-0.155686557293,0.0965766981244,0.31821462512,-0.00910536106676,-0.0405568517745,0.293320834637,0.250762879848,0.052640452981,0.0,0.301704645157,0.129849165678,-0.186877578497,-0.412577569485
A,0.0781604200602,0.473345994949,0.473195314407,-0.309280186892,0.639700949192,0.423141777515,0.0,-0.288124144077,0.0448490567505,0.295421391726,-0.0,-0.0130167333409,0.0,0.450663775206,-0.161256030202,0.0,-0.0207464527339,-0.12362138927,-0.394404113293,-0.434004157782
A,0.412135839462,0.119421236217,0.386258631945,0.0182999968529,0.501240134239,-0.152104154229,0.0,0.274113297462,0.237341299653,-0.20534747839,0.0399903468788,-0.055630646646,-0.34671664238,0.47359791398,-0.491558283567,0.128035128117,-0.443993240595,0.0962889045477,-0.325707435608,0.0282551646233
A,0.211785048246,0.164134562016,0.300435304642,-0.251117557287,0.881969690323,-0.0456477701664,0.0,-0.504183471203,0.0497978515923,0.0327845625579,0.0445128455758,-0.0369860902429,-0.196485608816,0.539037406445,-0.380004554987,0.000873592391144,-0.529414474964,0.0948821902275,-0.356965005398,-0.248760581017
A,0.417385548353,0.202321127057,0.468107879162,-0.416503876448,0.885532021523,-0.234959065914,0.0,0.597764015198,0.109261631966,0.0441778153181,0.153371989727,-0.254053682089,-0.188848808408,0.253574371338,-0.395318448544,-0.00333912647329,-0.497970283031,0.130220681429,-0.319330990314,-0.197019949555
A,0.607840538025,0.0770207569003,0.551765203476,0.504340827465,0.660905778408,-0.3578312397,0.120070047677,0.60475975275,0.117066808045,-0.228645414114,0.0921384766698,-0.27807995677,-0.486673563719,0.180279061198,-0.685672819614,0.0429274961352,-0.31316819787,0.0921693965793,-0.424128711224,0.325689971447
A*,0.362055122852,0.162711620331,0.490339875221,-0.140365302563,0.545483589172,0.0605533383787,0.39317175746,0.524839282036,-0.580066740513,-0.0415988713503,0.313909769058,-0.176914602518,0.0770617499948,0.518683433533,-0.476407110691,-0.0898740962148,-0.436394631863,0.072163708508,-0.523162186146,0.194837644696
A*,0.247045755386,0.370202481747,0.289600938559,-0.475362598896,0.300467938185,0.0353900305927,0.350999802351,-0.665316045284,-0.541226565838,0.577345252037,0.404264956713,-0.178815320134,0.267477989197,0.485080778599,-0.305332124233,0.0,-0.460186809301,0.11089412868,-0.618910849094,-0.480574250221
A*,0.351013541222,0.464674800634,0.554536879063,-0.343617647886,0.459015399218,0.0624369420111,0.701975643635,0.630593240261,-0.280388683081,-0.338324815035,0.599183261395,-0.265981644392,0.575086176395,0.586550056934,-0.397084116936,0.529447078705,-0.120635032654,0.286940515041,-0.486352711916,0.145005211234
A*,0.302763432264,0.750261425972,0.507743120193,-0.547953367233,0.41724255681,0.117867514491,0.417483091354,0.318145096302,-0.295219689608,-0.127450495958,0.358523637056,-0.186537995934,0.573370397091,0.46238809824,-0.221910715103,0.190534055233,-0.33639216423,0.216243997216,-0.496538668871,-0.330260246992
A,0.294925659895,0.34337618947,0.536696314812,-0.349901616573,0.952097535133,-0.166452139616,0.0,-0.312342196703,0.18699298799,-0.102710135281,0.0975909978151,-0.04051701352,-0.120294511318,0.588113188744,-0.397067070007,-0.0,-0.766115903854,0.0870898738503,-0.480028569698,-0.212723568082
A*,-0.0293025206774,0.394253849983,0.275653094053,-0.354522109032,0.0333851538599,-0.0920907407999,0.455819547176,-0.434257537127,-0.482066035271,0.441131025553,0.227367430925,-0.326866567135,-0.147035852075,0.497360080481,0.16578309238,0.157365173101,-0.221303090453,0.197916358709,-0.502199470997,-0.137157961726
A*,0.690863668919,0.530442893505,0.507220208645,-0.456183642149,0.462729871273,-0.00330673274584,0.565388381481,-0.369208902121,-0.401457428932,-0.0186055544764,0.28741723299,-0.170256704092,0.660412609577,0.543689072132,-0.23564453423,0.0,0.118790201843,0.0546410270035,-0.476961880922,-0.407675802708
A*,0.298795312643,0.41874563694,0.419748783112,-0.307430386543,0.504003942013,0.0138168474659,0.312874674797,-0.399979770184,-0.428767293692,0.611892580986,0.311749398708,-0.141176953912,-0.572204113007,0.40861544013,-0.408626228571,0.016225464642,-0.513531684875,0.0940952003002,-0.696736335754,-0.224877908826
A*,0.40856218338,0.48315423727,0.573249161243,-0.267364561558,0.411909192801,0.00736474292353,0.276266694069,0.50467634201,-0.799032211304,0.241010278463,0.564298093319,-0.330151796341,-0.00405231816694,0.520092844963,-0.613852918148,0.0993283614516,0.226257532835,-0.0937802344561,-0.649645447731,0.0776098892093
A*,0.149085968733,0.21445864439,0.212043121457,0.325097680092,0.27184137702,0.104515254498,0.0,0.013742018491,-0.334218233824,0.239751920104,0.117681488395,-0.0247494298965,-0.231636971235,0.504177689552,-0.313002794981,-0.00647207722068,-0.449364095926,-0.00393564999104,-0.479060769081,0.032173525542
A,0.349782288074,0.241325631738,0.329847991467,-0.410903573036,0.80751824379,-0.128351956606,0.0660602748394,-0.382480382919,-0.157080158591,0.129403322935,0.250675588846,-0.136479988694,-0.170438021421,0.52743345499,-0.391419738531,-0.0017025580164,-0.388790071011,-0.0435487702489,-0.456469774246,-0.343436419964
A*,0.15673057735,0.511002659798,0.185857057571,-0.41193318367,-0.0242387130857,-0.0407244823873,0.0173684842885,-0.182166129351,-0.366685986519,0.13644734025,0.566763460636,-0.135644301772,0.0756069719791,0.598080873489,-0.320840209723,0.0910850465298,-0.0672260522842,0.196458026767,-0.578042626381,-0.19167663157
A,0.683420717716,0.561808764935,0.490277588367,-0.579884827137,0.963821589947,-0.296582102776,0.161261424422,0.656405746937,0.157179161906,0.144632473588,0.147701904178,-0.256663680077,-0.315998375416,0.406148254871,-0.663652777672,0.0,0.248151510954,0.293676376343,-0.248170211911,-0.255233258009
A,0.191424205899,0.366819351912,0.439978390932,-0.301927596331,0.952781498432,0.00273991608992,0.0,-0.677398681641,0.00950087234378,-0.0437664836645,0.0043239123188,-0.0472621768713,-0.246225059032,0.542462706566,-0.383254140615,0.0,-0.526845633984,0.0302716251463,-0.576314806938,-0.20046633482
A,0.370163738728,0.486131638288,0.33842921257,-0.310103327036,0.853240609169,0.146144136786,0.0,-0.326589792967,0.117825388908,-0.030403604731,0.0441137067974,-0.0319603644311,-0.0928125530481,0.440890610218,-0.344871431589,0.0,-0.356405735016,0.124556273222,-0.314127445221,-0.302251935005
A,0.20272770524,0.308691829443,0.215565219522,-0.266389667988,0.781058132648,0.319353997707,0.0,-0.228183627129,0.00817432347685,-0.224247604609,0.00473427865654,-0.0568865574896,-0.118401192129,0.335121333599,-0.295450478792,0.0,-0.400220900774,0.0435215756297,-0.221050620079,-0.160754054785
A,0.0118376156315,0.13621391356,0.169558510184,-0.307488530874,0.597671627998,0.471646130085,0.220711991191,-0.344622403383,-0.00856083258986,-0.105113968253,0.0937147885561,-0.141443505883,0.413075357676,0.566859662533,-0.369421094656,0.120456844568,-0.483321338892,0.538842499256,-0.139275282621,-0.144950732589
A,0.387519001961,0.2604996562,0.330097436905,-0.202945634723,0.630879819393,-0.143516749144,0.0,0.496679186821,0.207273975015,-0.0788125470281,0.0184465590864,-0.112537488341,-0.270631581545,0.393223494291,-0.512141525745,0.0,-0.361380547285,0.0616566464305,-0.217100858688,-0.0692683234811
A,0.223957791924,0.179969117045,0.335931330919,0.0352178812027,0.499865829945,-0.0597283281386,0.0,0.512537539005,0.100327678025,-0.381376743317,0.0268905982375,-0.118555516005,-0.225869953632,0.249676764011,-0.344688475132,0.103136852384,-0.447285652161,0.165651649237,-0.109611086547,0.106790989637
A,0.0422313958406,0.494314104319,0.278336703777,-0.268640041351,0.0661825537682,0.426061362028,0.0,-0.348810553551,-0.0625717118382,-0.0718330144882,0.091490007937,-0.038785520941,0.235571488738,0.394483566284,-0.0412946715951,0.00570468651131,-0.62522995472,0.0628757923841,-0.390913188457,-0.426324337721
A,0.318980157375,0.360486865044,0.43725669384,-0.22702910006,0.728326141834,-0.0104532875121,0.0885146558285,0.707775115967,0.0633364245296,-0.335045903921,0.319288611412,0.0227921362966,-0.0994428768754,0.535262405872,-0.292443871498,0.0352740734816,-0.635200738907,0.0878867581487,-0.337286025286,0.080203935504
A*,0.0,0.567257344723,0.485976070166,-0.440104842186,0.102980971336,0.358979254961,0.167478621006,-0.0469026006758,-0.0940967723727,0.169706910849,-0.11127666384,-0.00650968961418,0.246197119355,0.330636143684,0.023170446977,0.0,0.114389069378,0.0163105186075,-0.150419965386,-0.612669110298
A,0.384194791317,0.39815017581,0.481856703758,-0.35016220808,0.792330086231,-0.0831216797233,0.0306331757456,0.713361203671,0.074004560709,-0.190711483359,0.116456530988,-0.124693095684,-0.0916910395026,0.480895608664,-0.384627938271,-0.000472910120152,-0.708978712559,0.20657722652,-0.351886332035,0.1714720577
A,0.0,0.383050501347,0.305262893438,-0.0312389414757,0.120913222432,0.631700992584,0.260488688946,0.606403291225,-0.405199468136,-0.217413678765,-0.242434024811,-0.0297377351671,0.266242086887,0.444774657488,0.0892310664058,0.263234853745,-0.210172712803,0.0,-0.61441552639,0.220639407635
A,0.167407378554,0.586295008659,0.339494735003,-0.2963783741,-0.0644649192691,0.311999857426,0.501569569111,0.186000704765,-0.255420565605,-0.00813570898026,0.547146975994,-0.0717226415873,0.363244533539,0.376699358225,0.0456416234374,0.29209831357,-0.296198546886,0.0117352930829,-0.56387680769,-0.154846817255
A*,-0.0545634254813,0.414155811071,0.394897997379,0.00764770060778,0.0930288434029,-0.0165127106011,0.565521240234,0.713019430637,0.111321203411,0.12809625268,0.972352802753,-0.510799050331,-0.656136035919,0.479182690382,0.0376069508493,0.908531367779,-0.478289633989,0.0947476625443,-0.696370899677,0.423865020275
A*,0.137790083885,0.280352383852,0.151430115104,-0.48918235302,0.0949441418052,0.0242119543254,-0.0364825204015,0.399794399738,-0.689389824867,0.635508477688,0.813271462917,-0.640812516212,-0.390696883202,0.50083398819,-0.211855486035,0.125012174249,-0.684581041336,0.0624114386737,-0.713418126106,0.148940145969
A*,-0.286010235548,0.190400481224,0.18375658989,0.389061927795,0.119889818132,-0.165087357163,-0.190045416355,-0.364025205374,-0.313356488943,-0.113203875721,0.939320027828,-0.520033597946,-0.604616522789,0.560498058796,0.0160697884858,0.985644817352,-0.451799482107,0.0655272603035,-0.614329695702,0.51077401638
A,0.00278057088144,0.209604173899,0.354701727629,-0.0834738835692,0.460939109325,0.304594784975,0.0,0.439693748951,-0.105206869543,-0.180174037814,-0.0859116688371,-0.0288858544081,0.0162290968001,0.484868258238,-0.0447588227689,0.0,-0.624507009983,0.0,-0.444643884897,0.144242316484
A,0.0398350991309,0.222931683064,0.247340962291,0.174397155643,0.507300674915,0.248431876302,0.0,0.0305835288018,-0.0189070310444,-0.139720976353,-0.0298782400787,-0.0746166780591,-0.0311464872211,0.491118013859,-0.12720926106,-0.0,-0.473487555981,0.0,-0.362159878016,0.0767031013966
A*,0.0,0.0928930267692,0.0541814789176,-0.192236930132,0.0132161639631,0.227983877063,0.455598086119,-0.118080891669,-0.393836438656,0.171186849475,0.174240291119,-0.119417779148,0.146497890353,0.348167866468,0.0632006973028,0.229344710708,-0.136770278215,-0.00549196125939,-0.51433134079,-0.0886604040861
A,0.277034282684,0.407974720001,0.272433817387,-0.0939507633448,0.412108421326,0.494190126657,0.10063829273,0.13093264401,-0.4495896101,-0.276591271162,-0.30055475235,-0.00432974053547,0.388849079609,0.623723804951,-0.158603966236,0.000523403985426,-0.164410367608,0.0377353914082,-0.484868109226,0.264242440462
A*,0.156386032701,0.484318643808,0.464637964964,-0.51564592123,0.102982074022,-0.0441902391613,0.249979555607,-0.113186143339,-0.360867500305,0.281415402889,-0.150455147028,-0.0144049404189,0.441838204861,0.27013784647,0.0628322288394,0.0,0.0905886217952,0.00782185886055,-0.485684990883,-0.605990409851
A,0.185957923532,0.304145932198,0.415670603514,-0.153901994228,0.516946971416,0.432936042547,0.0,0.511519193649,-0.0375887677073,-0.280688166618,-0.131746992469,-0.0453797839582,0.0361655466259,0.521753191948,-0.101455919445,-0.0157021097839,-0.513328909874,0.0125958556309,-0.518064498901,0.218680456281
A,0.329277694225,-0.296407610178,0.166167229414,-0.340242862701,0.272066712379,-0.337450355291,0.346927791834,0.487440168858,-0.0108089353889,-0.13673748076,-0.183858498931,-0.0316368937492,0.455881506205,0.493423819542,-0.285485208035,0.153475239873,-0.583618044853,0.454136312008,-0.516006708145,0.484387814999
A,0.406028956175,0.312485158443,0.438783288002,0.00564180221409,0.38823184371,0.390173077583,0.228808432817,0.282221764326,-0.672731518745,-0.408964276314,-0.248029559851,-0.106581188738,0.497866630554,0.606818854809,-0.42753893137,0.0724376738071,0.0680571198463,0.00621771905571,-0.54121363163,0.610896766186
A,0.452275872231,0.146503984928,0.737912535667,0.385782033205,0.69799131155,-0.200518235564,0.113535240293,0.867293953896,0.108631655574,-0.410032242537,0.557650387287,-0.359103769064,-0.262764543295,0.436432808638,-0.466246306896,0.0339247100055,-0.714918315411,0.0972802862525,-0.451826423407,0.65510559082
A,-0.722548186779,-0.670215308666,0.699031472206,-0.681634843349,0.505894362926,-0.986479818821,-0.262924462557,-0.584191441536,-0.99976593256,-0.462550550699,0.367694973946,-0.978346645832,0.917717754841,1.0,-0.700688779354,-0.0,-0.331581324339,0.659705758095,-0.171103551984,0.683015823364
A,0.616649150848,0.121541842818,0.107702694833,0.152711629868,0.310103744268,-0.141049861908,0.12368182838,0.648170351982,0.0917721539736,-0.0498429872096,0.435466200113,-0.0531064458191,-0.256400257349,0.434072762728,-0.525499761105,0.0594856515527,0.297423243523,0.0863006040454,-0.423349678516,-0.142732724547
A,-0.293031930923,-0.0153321325779,0.699311256409,0.754773020744,0.597486615181,-0.531574964523,0.299086630344,0.825268089771,0.19523845613,-0.383365482092,0.768509328365,-0.18618825078,-0.4700910151,0.163657158613,-0.745782256126,0.45252814889,-0.176502197981,0.125795081258,-0.555765509605,0.655835151672
A,0.550874054432,-0.00184708368033,0.24707660079,0.605191588402,0.506303429604,-0.328952461481,0.166642159224,0.827307581902,-0.107954151928,-0.0913677364588,0.547944009304,-0.376657664776,-0.297886878252,0.369447529316,-0.559481322765,0.0650838389993,0.220922410488,0.154820472002,-0.585771262646,0.366782128811
A,0.352079033852,0.0162305682898,0.517356157303,0.565137147903,0.727460920811,-0.163829281926,0.102047331631,0.725268900394,0.0703583285213,-0.179821953177,0.481664717197,-0.210892528296,-0.36065608263,0.122429616749,-0.586525499821,0.0560263544321,-0.341833949089,0.249780490994,-0.382047235966,0.167981237173
A,0.438682645559,-0.0158146675676,0.662297964096,0.546855211258,0.742113530636,-0.276017993689,0.0510596781969,0.745021402836,0.137738287449,-0.24661681056,0.271587580442,-0.202703952789,-0.421587109566,0.247586980462,-0.519881904125,0.0758557841182,-0.529673397541,0.107865951955,-0.552842497826,0.457070559263
A,0.620361804962,0.0180643256754,0.431394994259,0.0336790345609,0.73124486208,-0.427261888981,0.0861218720675,0.520182669163,0.166524767876,-0.099592089653,0.0628041028976,-0.29929882288,-0.343244284391,0.195518955588,-0.610353052616,0.0314000807703,-0.0910844057798,0.0686171650887,-0.471347361803,0.153728485107
A,0.51286482811,-0.0280020553619,0.398292779922,0.305780410767,0.653401970863,-0.48311856389,0.115707293153,0.53968924284,0.108151786029,-0.0875823274255,0.0630790740252,-0.313553661108,-0.226351559162,0.409686744213,-0.500018537045,-0.0256196539849,-0.100626789033,-0.0215125661343,-0.57670211792,0.246647819877
A,0.606076180935,0.00196291436441,0.377257913351,0.709288179874,0.946963250637,-0.297176390886,0.0,0.663831889629,-0.115617975593,-0.145449101925,0.166653469205,-0.482339173555,-0.133399665356,0.0260882638395,-0.682510733604,0.0,0.192411199212,-0.120255619287,-0.501461446285,-0.0441319458187
A,0.559457778931,-0.0375940948725,0.382436662912,0.555053889751,0.743039786816,-0.476200670004,0.0,0.478991240263,0.0944474637508,-0.180972695351,-0.000780533649959,-0.324648678303,-0.271320223808,0.418640464544,-0.60548979044,-0.00457025179639,-0.199034228921,0.0146968606859,-0.408527910709,0.270334869623
A,0.417767435312,-0.003015069291,0.321062356234,0.729314565659,0.730409085751,-0.47463670373,0.0151062719524,0.76606708765,-0.0504207909107,-0.165470987558,0.201927453279,-0.476031124592,-0.179156437516,0.388820707798,-0.564335346222,-0.0289024598897,-0.201832249761,-0.0458225235343,-0.506279468536,0.624582886696
A,0.640213608742,0.000786716700532,0.528045117855,0.78393214941,0.691195428371,-0.442952513695,0.220383286476,0.688843309879,0.0998674035072,-0.237348243594,0.460359334946,-0.476751476526,-0.336942344904,0.182158306241,-0.714452922344,-0.0369932875037,0.0428113080561,-0.0592020973563,-0.649048924446,0.255470484495
A,0.328475058079,-0.0145722385496,0.448344171047,0.442333877087,0.652729928493,-0.392302811146,0.14556479454,0.587126076221,0.14976452291,-0.1892619133,-0.105884239078,-0.443453103304,-0.344241797924,0.156634300947,-0.613083422184,0.0157951321453,-0.271692574024,0.202397063375,-0.456136375666,0.503676652908
A,0.46032255888,0.039970189333,0.602547824383,0.498192548752,0.596969425678,-0.484162658453,0.390880256891,0.653359115124,0.237535431981,-0.312301874161,0.475146263838,-0.385597467422,-0.607769310474,0.219273254275,-0.936739683151,-0.00700071454048,-0.213354632258,0.09213026613,-0.643736600876,0.523856759071
A,-0.447154551744,0.0561714097857,-0.0204988904297,0.469579130411,-0.260904580355,-0.330109298229,-0.437077343464,0.138549298048,-0.194477021694,-0.189351990819,-0.0739902630448,0.108705379069,-0.407765716314,-0.062112506479,-0.838041305542,0.0919688344002,0.102713122964,-0.197537258267,-0.454869389534,-0.022392148152
A,0.674543380737,0.00147069012746,0.552688062191,0.789452373981,0.869061410427,-0.433164268732,0.0938743725419,0.642633318901,0.0529520101845,-0.246126264334,0.302214622498,-0.377420753241,-0.286245793104,0.208840593696,-0.806986391544,-0.00409817462787,0.181065052748,-0.11579926312,-0.433540552855,0.386530786753
A,0.0289798472077,-0.045677844435,0.442505627871,0.348659366369,0.641106069088,-0.406918138266,0.17426674068,0.601241827011,0.0661100670695,-0.250753670931,0.29857352376,-0.353119879961,-0.5188331604,0.417730420828,-0.739102900028,-0.172101393342,-0.435388863087,0.284989655018,-0.377852320671,0.488787829876
A,0.484953910112,-0.00497012026608,0.590308964252,0.640939712524,0.649544835091,-0.46273458004,0.277994066477,0.642758905888,0.0262299794704,-0.195220723748,0.2681607306,-0.336138039827,-0.472599893808,0.392658740282,-0.828873515129,-0.137081548572,-0.238286837935,0.158480376005,-0.505148589611,0.577786803246
A,0.188294038177,-0.0521604865789,0.672415435314,0.840639173985,0.661649703979,-0.307896465063,-0.0469880215824,0.80191975832,0.0196073185652,-0.432405054569,0.759964823723,-0.228497341275,-0.474520891905,0.116296723485,-0.782923638821,-0.134188503027,-0.413113415241,-0.0203826222569,-0.608045220375,0.639004051685
A,0.411547094584,-0.0365672037005,0.255136102438,0.481046378613,0.552002310753,-0.145697444677,0.102569557726,0.667961061001,0.0328545570374,-0.134392499924,0.521274387836,0.0507306084037,-0.245174139738,0.246992602944,-0.410384595394,-0.0213781446218,-0.449961781502,0.121069736779,-0.428167611361,0.0908851400018
A,0.3911010921,0.0252370517701,0.412601709366,0.0987065434456,0.758460938931,-0.510581254959,0.0,0.564695119858,0.168685302138,-0.140462145209,0.00112429191358,-0.250997900963,-0.211072221398,0.194434463978,-0.502200424671,0.0,-0.0862328261137,0.0950176119804,-0.298337042332,-0.067361228168
A,0.377771884203,0.0465312041342,0.170837968588,-0.104380346835,0.472902059555,-0.652774274349,0.0,0.222116202116,0.271879255772,0.0217331536114,-0.0,-0.350983738899,-0.164374053478,0.125443726778,-0.501241207123,0.0,0.037347279489,0.0733230635524,-0.114362262189,-0.0846375375986
A,0.369512706995,0.0186160746962,0.231345742941,0.467073231936,0.677998960018,-0.429272770882,0.0,0.351467430592,0.296071857214,-0.146082744002,-0.0,-0.299582093954,-0.0455540455878,0.229307994246,-0.505680143833,0.0,-0.0751080289483,0.0108506344259,-0.260149747133,0.0483715496957
A,0.415764003992,0.0181534234434,0.248810246587,0.385559588671,0.630841970444,-0.372873395681,0.0,0.494066774845,0.296078830957,-0.0679584592581,-0.0111531233415,-0.391835123301,-0.110007293522,0.183410719037,-0.445683658123,-0.00712881237268,-0.025409437716,0.0381899215281,-0.25994721055,0.0248690135777
A,0.1090644449,-0.137408226728,0.32690435648,0.309422791004,0.401793777943,-0.248868152499,0.0,-0.227438509464,0.0889807790518,-0.0809136331081,0.0407210178673,-0.0990579426289,-0.226974695921,0.34964120388,-0.443108201027,-0.0428664013743,-0.375868171453,-0.017846589908,-0.457398176193,0.164771571755
A,0.450791597366,0.00972655788064,0.421414583921,0.481397122145,0.468788892031,-0.509533643723,0.0908519625664,0.484023272991,0.277264624834,-0.160157337785,0.034203030169,-0.363195627928,-0.256613075733,0.138628199697,-0.537000179291,-0.0182626340538,0.244391471148,0.0188736245036,-0.393800795078,0.309494614601
A,0.0217374507338,-0.00525234779343,0.102204740047,0.170840039849,0.230663463473,-0.357850253582,-0.00628597801551,-0.0625177845359,-0.496178030968,0.443988859653,-0.0878432244062,-0.327056407928,-0.383543401957,0.75316464901,-0.144994929433,0.0,-0.235618859529,0.0266694128513,-0.50022393465,0.354608863592
A,0.343971192837,0.00805674679577,0.263504773378,0.0702679008245,0.525094628334,-0.574105978012,0.0,0.114699594676,0.238672763109,0.0861432254314,-0.00361458025873,-0.215605378151,-0.201558575034,0.373976171017,-0.469099521637,-0.0,-0.108913272619,0.0207296311855,-0.384322196245,0.105192929506
A,0.193805471063,0.0575698129833,0.173512563109,0.592477023602,0.360958039761,-0.6746083498,-0.156231924891,-0.0324637964368,0.0219398830086,-0.288871943951,0.0942086800933,-0.0721251964569,-0.374460220337,-0.370805054903,-0.792690694332,0.124967686832,0.335157960653,-0.268912941217,-0.523017764091,0.259520590305
A,0.00581448804587,0.0458086803555,0.487795591354,0.31729143858,0.632925570011,-0.39653801918,0.227320596576,0.144527927041,0.0727759972215,-0.129325836897,0.127655893564,-0.163907647133,-0.255732983351,0.57741445303,-0.632060706615,-0.0048750359565,0.314560115337,-0.0586915947497,-0.62153416872,0.455669224262
A,0.175245091319,-0.0878801718354,0.0919416323304,0.293598532677,0.356870442629,-0.0831512436271,0.0,-0.018238959834,-0.0265852957964,-0.0874906107783,0.157733604312,0.00850958377123,-0.276651263237,0.539047122002,-0.422230690718,-0.0306894853711,-0.11071036756,-0.0428178198636,-0.527475476265,0.134115964174
A,0.155240356922,0.0692854449153,0.388626098633,0.45913618803,0.603013336658,-0.522686064243,0.0766420662403,0.116208195686,0.189334943891,-0.239212423563,0.215591788292,-0.49957460165,-0.46568235755,0.250617921352,-0.768363177776,0.0162604115903,0.209585174918,0.00415002927184,-0.497659027576,0.488142907619
A,0.445866882801,0.0843378379941,0.398815691471,0.228542625904,0.511523962021,-0.351135283709,0.1653996557,0.45409283042,0.171113714576,-0.0539743900299,-0.00216845143586,-0.212310418487,-0.369697958231,0.231608316302,-0.568984091282,0.0354616455734,0.15440697968,-0.0188676938415,-0.461767882109,0.149928987026
A,0.538248896599,-0.00610302621499,0.63188624382,0.723268389702,0.661838412285,-0.449612230062,0.0509772188962,0.761269569397,0.173544451594,-0.244969308376,0.381556630135,-0.590741217136,-0.251421242952,0.04559661448,-0.651797235012,-0.0149037521333,-0.369072407484,0.0260352659971,-0.419706910849,0.570377230644
A,0.695363104343,0.061314471066,0.324538528919,-0.345523834229,0.830848455429,-0.331295639277,0.0566464811563,0.0569658987224,0.253345161676,-0.00237832893617,0.106795266271,-0.206636309624,-0.596058607101,0.338206589222,-0.639324724674,0.0156679470092,0.0360589139163,0.216836199164,-0.324381232262,-0.144096583128
A,0.452876627445,-0.00481902714819,0.374372810125,-0.260190844536,0.824653804302,-0.3189021945,0.0,-0.0375423282385,0.273577779531,0.0205504801124,0.0226592347026,-0.203300043941,-0.411766141653,0.314764022827,-0.521492660046,-0.0,0.162856295705,0.0765772685409,-0.330393761396,-0.221876829863
A,0.259984076023,0.0542708188295,0.394651740789,-0.23150344193,0.782484710217,-0.457451194525,0.128115579486,0.335290074348,0.187981784344,-0.0267906747758,0.130972072482,-0.284416556358,-0.174401834607,0.164786979556,-0.634434103966,0.0077125984244,0.139287158847,0.123833030462,-0.200352013111,-0.251726388931
A,0.454683750868,0.0126244630665,0.417149305344,-0.110281020403,0.745733678341,-0.456593930721,0.0,-0.309028893709,0.323439717293,0.0212220139802,-0.0222630482167,-0.075821660459,-0.377845972776,0.310107916594,-0.548063278198,0.0,0.240792989731,0.0604164041579,-0.417143344879,-0.271305322647
A,0.421590030193,-0.0114305345342,0.383390575647,-0.0990881770849,0.753096938133,-0.276529192924,0.0183050483465,-0.318320155144,0.274193525314,0.129952847958,0.0149679528549,-0.20082962513,-0.509378790855,0.411462575197,-0.60609459877,-0.0,-0.00311869033612,0.0149416550994,-0.355397552252,0.0294645242393
A,0.579500317574,0.0596005953848,0.245844259858,0.260806471109,0.900430262089,-0.569946169853,0.0,-0.457468539476,0.286673337221,-0.054370444268,-0.0,-0.0977390110493,-0.289789319038,0.351949125528,-0.675838828087,0.0,0.201049849391,-0.0588052794337,-0.3981731534,0.0356056690216
A,-0.421902418137,0.17229937017,-0.0820283740759,-0.123199209571,0.183527752757,-0.642448663712,-0.373912423849,-0.501530468464,0.128970265388,-0.0692113861442,0.00547012221068,0.296201258898,-0.648438155651,0.453559100628,-0.512021005154,0.25395861268,0.19948707521,-0.472849935293,-0.22723095119,0.00573369394988
A,0.369483202696,0.0305657368153,0.305470377207,-0.0867230817676,0.747940301895,-0.509478390217,-0.000362443795893,-0.448879659176,0.264914810658,-0.0209518950433,-0.0268210526556,-0.1492267102,-0.682639837265,0.648928880692,-0.747094094753,0.0,0.338543355465,0.0217431597412,-0.334411174059,-0.0684956163168
A,0.491081029177,0.191518828273,0.382382422686,0.0219739302993,0.444996714592,-0.0869656354189,0.360814005136,0.331869125366,0.0785693526268,0.0573528036475,0.281164169312,-0.113613143563,-0.313534379005,0.535596489906,-0.366007119417,0.367935210466,0.0585610084236,0.304283946753,-0.599759101868,-0.0596976391971
