p,1.0,-0.996575653553,-0.442187011242,0.99822896719,-0.997720181942,-1.0,1.0,-1.0,-0.699766635895,1.0,0.999819636345,-0.960718691349,-0.999902188778,1.0,-0.965618431568,0.999986946583,-1.0,0.999797999859,-1.0,0.913258671761
p,0.999999880791,-0.98687505722,-0.908524632454,0.776136875153,-0.998816668987,-1.0,0.999999821186,-1.0,-0.465731084347,1.0,0.996992170811,-0.987099468708,-0.996112346649,1.0,-0.992756485939,1.0,-1.0,0.999879837036,-1.0,0.977100551128
p,0.997683465481,-0.42078229785,0.0869473814964,0.891285657883,-0.999838411808,-1.0,0.999998509884,-0.999943494797,-0.713602483273,1.0,0.999854266644,0.649697899818,-0.999994874001,0.999944806099,-0.883145928383,0.867516994476,-0.99979531765,0.844051063061,-1.0,0.202583417296
p,0.999843358994,-0.934623420238,-0.306723862886,0.891233861446,-0.999670922756,-1.0,0.999997138977,-0.999999284744,-0.590112686157,1.0,0.998517274857,-0.529202222824,-0.999985098839,0.99999833107,-0.784852445126,0.973528146744,-0.999988794327,0.981842041016,-1.0,0.857865333557
p,0.527096092701,0.970531761646,-0.731755435467,-0.978130280972,-0.999709606171,-0.91678071022,0.967280328274,-0.990029394627,-0.0,0.999992966652,0.372433364391,-0.864828646183,-0.157666638494,0.899380326271,0.999982953072,0.870980381966,-0.999970316887,0.968956112862,-1.0,-0.944749295712
p,0.704354941845,0.999863028526,-0.291522890329,-0.609799444675,-0.999763011932,-0.684968829155,-0.427317857742,0.505924940109,-0.0,0.999394416809,0.339177250862,-0.493945837021,-0.574552357197,0.730629324913,0.999226808548,0.466976165771,-0.992613852024,0.913924872875,-0.999984681606,-0.819694340229
p,0.897279500961,-0.954595923424,-0.217227876186,-0.953500211239,-0.999873399734,-0.999954998493,0.99967700243,-0.999507069588,-0.0283077713102,0.999039769173,0.999938666821,0.11240696162,0.517379701138,0.999994516373,-0.947420060635,0.859083473682,-0.999490499496,-0.897891819477,-0.999999403954,0.650271236897
p,0.952443659306,0.905016124249,-0.451872229576,-0.861478388309,-0.999699473381,-0.999828159809,0.993610322475,-0.976558029652,-0.0,0.998953342438,-0.058343205601,-0.730135500431,-0.84752124548,0.921001911163,0.999269843102,0.647069633007,-0.994111359119,0.913248121738,-0.99998408556,-0.971024215221
p,0.994037568569,0.557162225246,-0.992973923683,-0.0178589392453,-0.912567973137,-1.0,0.999999880791,-0.999613046646,-0.0,0.985965847969,-0.998176693916,-0.966262042522,-0.955334842205,0.951736330986,0.988406896591,0.593125641346,0.864501714706,0.723560035229,-0.905729055405,-0.847553133965
p,0.445626974106,-0.99396520853,0.498946368694,-0.108236573637,-0.999999642372,-0.999409258366,0.999926447868,-0.995991110802,-0.968187272549,0.992489755154,0.999899208546,0.763416945934,-0.675604224205,0.999985218048,-0.997771382332,1.0,-0.999347865582,-0.955020308495,-0.990531921387,0.875239133835
p,-0.0332345254719,-0.539537191391,0.170830905437,-0.591969251633,-0.985459029675,-0.819721341133,0.999995589256,-0.98552107811,-0.934461236,0.64211589098,0.81871753931,0.942147672176,-0.376127660275,0.919818878174,-0.970193207264,0.999999582767,-0.606399357319,0.999972820282,-1.0,0.849659800529
p,0.999999284744,-0.995998382568,0.349000960588,0.99548214674,-0.999998688698,-1.0,0.999999940395,-0.999999880791,-0.998800635338,0.999999821186,0.999999523163,0.762253701687,-0.995233297348,0.999729514122,-0.999995470047,0.999999642372,-0.999728739262,-0.99987834692,-1.0,0.934549748898
p,1.0,-0.999992311001,0.992136776447,0.918671667576,0.999981701374,-0.999999761581,1.0,-0.99764329195,0.632445514202,1.0,1.0,0.0,1.0,-1.0,-0.99999922514,-1.0,-0.833231091499,-0.999994039536,-0.89267796278,-0.999999880791
h,0.256113767624,-0.00700028054416,0.133700653911,-0.335282891989,-0.496520876884,0.235726982355,0.225593492389,0.370791405439,-0.132369697094,-0.338326692581,0.154566928744,0.706858754158,0.00856390409172,0.638923764229,-0.384503424168,0.394309163094,-0.330740600824,0.824096381664,-0.608487844467,0.550298452377
h,0.991884410381,0.996668040752,-0.740456163883,-0.564876914024,-0.974849283695,-0.929377436638,-0.952791810036,-0.995046377182,-0.0,0.991446137428,-0.933234751225,-0.98035877943,-0.60954195261,0.683667957783,0.999438822269,0.540004551411,-0.660875856876,0.900158762932,-0.999345362186,-0.876279711723
p,0.999806523323,-0.999800145626,0.483647704124,0.999953866005,-0.999460041523,-1.0,1.0,-1.0,-1.0,0.997061729431,1.0,0.844595253468,-0.989832937717,1.0,-0.999994933605,0.999967992306,-0.999628841877,-0.999304115772,-1.0,0.985069870949
p,0.995687246323,-0.997327029705,0.512737452984,0.998703062534,-0.996535360813,-1.0,1.0,-0.999999165535,-1.0,0.985938549042,1.0,0.918762981892,-0.992110908031,1.0,-0.999980509281,0.999901175499,-0.999605894089,-0.993609189987,-0.999999880791,0.971289038658
p,0.99932295084,-0.999149024487,0.428848326206,0.99788326025,-0.996855020523,-1.0,1.0,-1.0,-0.999995529652,0.974492192268,1.0,0.969928205013,-0.98633903265,1.0,-0.99996471405,0.999894201756,-0.999871194363,-0.991490364075,-1.0,0.970791637897
p,0.919430792332,-0.999968588352,0.191408231854,-0.656443834305,-0.998920559883,-0.976189255714,1.0,-0.999999046326,-0.994322896004,0.462329000235,0.999998509884,0.948284983635,-0.0789502263069,0.999995291233,-0.9999807477,0.998865962029,-0.999942660332,-0.947449862957,-1.0,0.966557741165
p,0.998778939247,-0.999989688396,0.718741238117,0.997244238853,-0.998144447803,-1.0,1.0,-1.0,-0.999992132187,0.952472865582,1.0,0.948716878891,-0.991592407227,0.999999523163,-0.999981939793,0.99999666214,-0.999831676483,-0.99939763546,-0.999999761581,0.980609178543
p,0.998230814934,-0.999847114086,0.730265617371,0.999684393406,-0.98716455698,-1.0,1.0,-1.0,-0.999999284744,0.989011764526,1.0,0.93773317337,-0.987922549248,0.999999761581,-0.99993699789,0.99999833107,-0.999998211861,-0.795297324657,-0.999999880791,0.98618710041
p,0.999349355698,-0.999943912029,0.827707827091,0.999308347702,-0.9792355299,-0.999999880791,1.0,-1.0,-0.999984681606,0.919569790363,0.999993801117,0.987063586712,-0.965146243572,0.999993145466,-0.999984145164,0.999995529652,-0.999972879887,-0.953566372395,-0.999999582767,0.991876602173
p,0.997781157494,-0.999827027321,0.754834651947,0.999623179436,-0.991904616356,-1.0,1.0,-1.0,-0.999997854233,0.920617341995,0.999974906445,0.973686635494,-0.985741198063,0.999999344349,-0.999997675419,0.999999880791,-0.999990522861,-0.680237710476,-0.999999403954,0.993662118912
p,0.992073833942,-0.997746825218,0.767241239548,0.991242349148,-0.966971278191,-0.999998629093,1.0,-1.0,-0.999892830849,0.931243360043,0.999920248985,0.958455920219,-0.994950771332,0.999990701675,-0.999979913235,0.99999165535,-0.999963343143,-0.801275849342,-0.999994635582,0.990560770035
h,-0.863203287125,0.406568437815,-0.99922978878,-0.804804444313,0.998257696629,0.997306525707,-0.999756574631,-1.0,-0.164100199938,0.989199697971,-0.75317966938,-0.994883000851,0.999999821186,0.950667917728,-0.380267351866,0.984180569649,0.998298466206,0.997836709023,-0.898754835129,0.95406806469
h,-0.704074561596,0.424750626087,-0.97520750761,-0.663973450661,-0.342377513647,0.999999344349,-0.998204052448,-1.0,-0.216121092439,0.949338257313,-0.740757405758,-0.999027073383,0.909612834454,0.846556484699,-0.00291103404015,0.999481081963,0.992107272148,0.987329900265,-0.815152823925,0.712128281593
h,-0.645291626453,0.540187954903,-0.808185100555,-0.508034825325,-0.173211485147,0.816865444183,-0.992794454098,-0.999995648861,0.111056752503,0.561436295509,-0.650279581547,-0.890547096729,0.879596114159,0.791572451591,-0.580864667892,0.919154465199,0.991413593292,0.956260144711,-0.802985012531,0.640541553497
h,-0.642582476139,0.0720657259226,-0.999482035637,-0.564548194408,0.999995231628,0.951085627079,-1.0,-0.708979725838,-0.0136841880158,0.999356150627,-0.239240899682,-0.999999880791,1.0,0.987713575363,0.682072579861,0.947369098663,0.999747037888,0.999212324619,0.85345518589,0.993677198887
h,-0.405159920454,0.0,-0.987607717514,-0.392254590988,0.99927687645,0.729001700878,-1.0,0.887272298336,0.00629506027326,0.999929308891,-0.0563655085862,-0.999999880791,1.0,0.815919160843,0.353431046009,0.948112666607,0.997461616993,0.999648332596,0.876461803913,0.999591529369
h,-0.171741321683,0.0,-0.999909937382,-0.425460457802,0.998530507088,-0.98805129528,-1.0,-0.938007771969,-0.596895694733,0.999927043915,-0.705605924129,-0.970772206783,0.865065217018,0.982747018337,0.729245841503,0.998610436916,0.979926288128,0.989324569702,0.212746918201,0.99691927433
h,-0.485154271126,0.0,-1.0,-0.432795017958,0.999978661537,0.999998867512,-1.0,-0.999999821186,-0.616796255112,0.938286960125,-0.552071094513,-0.999942421913,0.983547210693,0.985448360443,0.144458279014,0.971986174583,0.999979496002,0.993808686733,0.291723310947,0.99550974369
h,-0.743981122971,0.134946286678,-0.999999463558,-0.700207293034,0.999930620193,1.0,-0.999990224838,-1.0,-0.281513273716,0.981105566025,-0.659940183163,-0.999065458775,1.0,0.970785021782,-0.556049585342,0.996946811676,0.999916374683,0.993111550808,-0.531048059464,0.951992571354
h,-0.752484023571,0.147015765309,-0.999783337116,-0.706001639366,0.998772203922,1.0,-0.999917328358,-1.0,0.203283682466,0.999533653259,-0.663602948189,-0.998827397823,1.0,0.975660562515,0.478009581566,0.97121745348,0.999677836895,0.992932975292,-0.581671416759,0.648244559765
h,-0.609854757786,0.0316683277488,-0.999734759331,-0.474100589752,0.999996781349,1.0,-0.999997913837,-0.999999642372,0.242606982589,0.998970091343,-0.4572083354,-1.0,1.0,0.981655776501,0.664283752441,0.976932346821,0.999981462955,0.964415490627,0.800323009491,0.886324584484
h,-0.964468240738,0.444526016712,-0.931981563568,-0.886540830135,0.998635053635,0.999561548233,-0.999907493591,-1.0,0.473342418671,0.999954283237,-0.686468780041,-0.998876094818,1.0,0.985859751701,-0.638727903366,0.9375192523,0.998507142067,0.968713521957,-0.992402255535,0.787493765354
h,-0.950894236565,0.165010109544,-0.971634447575,-0.544618844986,0.999485313892,1.0,-0.999480128288,-1.0,0.421270132065,0.999917209148,-0.464683681726,-0.99996304512,1.0,0.979125082493,-0.815185010433,0.991564512253,0.999365150928,0.991465330124,-0.975856781006,0.882375597954
h,-0.698896050453,0.4493509233,-0.745422065258,-0.623710274696,-0.474941790104,0.943247079849,-0.99116396904,-1.0,-0.559715688229,0.999534845352,-0.243449896574,-0.0516671054065,0.891333222389,0.993841528893,-0.91975992918,0.846670925617,0.877138853073,0.965052902699,-0.871878921986,0.69424700737
h,-0.952887356281,0.273581415415,-0.976064562798,-0.683574199677,0.912863433361,0.999373137951,-0.999951899052,-1.0,0.0329154580832,0.999986708164,-0.216646239161,-0.999732375145,1.0,0.99830031395,-0.686789035797,0.999161064625,0.998238027096,0.995726287365,-0.987439215183,0.957989215851
h,-0.598414838314,0.106774017215,-0.975799739361,-0.674315989017,0.922398030758,0.999901592731,-0.999929189682,-1.0,-0.501982331276,0.999575018883,-0.464758902788,-0.842546105385,1.0,0.989639937878,-0.942251443863,0.997928082943,0.986654222012,0.988016605377,-0.772319078445,0.939138531685
h,-0.73759585619,0.122048154473,-0.999999761581,-0.695830523968,0.995739579201,0.994226276875,-0.999999880791,-1.0,-0.100589610636,0.997178316116,-0.450480908155,-0.999920070171,1.0,0.989601314068,0.371375739574,0.995237469673,0.999969482422,0.999114990234,-0.121190555394,0.986373066902
h,-0.495624065399,0.0,-1.0,-0.552107870579,0.999997258186,-0.983908116817,-1.0,-0.999986886978,-0.0162264313549,0.999865293503,-0.371039152145,-0.999984145164,0.929907798767,0.94008821249,0.999534368515,0.999966740608,0.999999761581,0.980110645294,0.28331258893,0.999988853931
h,-0.357707262039,0.0,-1.0,0.838480770588,0.999998509884,-1.0,-1.0,-1.0,0.0788158625364,1.0,-0.619415163994,-0.999731302261,1.0,0.987738966942,0.630897462368,0.999999880791,0.999244630337,0.950949668884,0.804064929485,0.940216362476
h,-0.186124235392,0.0,-0.999999165535,0.785179376602,0.999859750271,-1.0,-1.0,-0.999999165535,0.0183960795403,1.0,-0.65156275034,-0.998461425304,1.0,0.85486805439,0.954027593136,1.0,0.993691265583,0.772884488106,0.215506017208,0.813562750816
h,-0.40838599205,0.0,-1.0,-0.101128078997,0.999993145466,-0.999999523163,-1.0,-0.940848171711,0.0225162860006,1.0,-0.341918021441,-0.999997496605,0.999942600727,0.998791396618,0.996386229992,0.999981105328,0.999922931194,0.996240019798,0.497894346714,0.999999642372
h,-0.135761320591,0.0,-0.999992132187,-0.140573784709,0.999999284744,-0.68632209301,-1.0,0.73287075758,-0.0694256871939,1.0,-0.110585637391,-0.999753117561,0.999999523163,0.978299558163,0.888023853302,0.988039672375,0.993382632732,0.944040179253,0.296455770731,1.0
h,-0.281576097012,0.0,-0.999999761581,-0.0,1.0,0.563648641109,-0.737800717354,0.782760977745,-0.0,1.0,-0.0,-1.0,0.96616345644,0.783932209015,0.878835320473,0.770795047283,0.990353882313,0.793174266815,0.427818328142,1.0
h,-0.350461155176,0.0,-0.999973297119,-0.541936993599,1.0,-0.821217119694,-1.0,-0.691307723522,-0.0,0.999999880791,-0.102198980749,-0.999933719635,0.881136417389,0.789893090725,0.998853802681,0.853822946548,0.993352770805,0.848542869091,0.305194318295,1.0
h,0.246222764254,0.465004652739,-0.997430622578,-0.649681925774,-0.802916169167,-0.823901891708,-0.999998092651,-0.999774217606,0.00255191233009,1.0,0.111301966012,-0.999996066093,0.999984502792,0.999588906765,-1.0,1.0,-0.999869525433,0.993275463581,-0.999958574772,0.998512506485
h,0.99577152729,-0.973740875721,-0.997341692448,0.999988973141,0.99996984005,-1.0,-0.999996066093,-1.0,-0.336380004883,1.0,0.643476366997,-0.999997377396,1.0,1.0,-0.974370241165,0.999994397163,-0.997019410133,0.991227388382,0.734825849533,0.999998509884
h,0.898745834827,0.43998247385,-0.981682300568,0.371771603823,0.999998927116,-1.0,-0.961798727512,-0.999999344349,-0.029610959813,0.99998664856,-0.970203220844,-0.998574852943,-0.984460294247,0.792044520378,0.997617781162,0.518870711327,0.806319773197,0.252462416887,0.515117287636,-0.949056148529
h,-0.0968126282096,0.477184534073,-0.99997228384,0.977886676788,0.999999165535,-1.0,-0.999566853046,-0.999997675419,0.0453324206173,0.999999880791,-0.908934354782,-0.999998092651,0.999981760979,0.98523414135,0.999802589417,0.865235090256,0.943373918533,0.424982815981,0.662137150764,0.304349839687
h,-0.426000773907,0.0,-0.999132394791,-0.234708398581,0.999787271023,0.567620813847,-0.644241690636,0.826958358288,0.0,0.999977171421,-0.0,-0.999994218349,0.999978065491,0.814361572266,-0.272009372711,0.802386283875,0.977988362312,0.997447729111,0.479154467583,0.999842345715
h,-0.152683094144,0.0,-0.972159802914,-0.166364967823,0.676568210125,0.48265632987,-0.798538684845,0.855087339878,-0.0,0.998465955257,-0.00730807427317,-0.986513197422,0.476951211691,0.587650239468,0.91231828928,0.918990910053,0.985415935516,0.956877052784,0.550987362862,-0.0567135550082
h,-0.513940691948,0.0,-1.0,-0.223615497351,0.999543130398,-0.999999344349,-0.954095900059,-0.98429620266,0.0,0.999999642372,-0.222581937909,-0.999984323978,0.999916315079,0.835847616196,0.993276119232,0.797212421894,0.99997895956,0.858498930931,0.748625338078,0.969270706177
h,-0.550306022167,0.0,-1.0,-0.298372805119,1.0,0.751214385033,-0.833804130554,0.999973535538,-0.0,0.999999761581,-0.0,-1.0,0.999999642372,0.902023971081,0.999613344669,0.69454151392,0.999989151955,0.992030262947,0.562017500401,1.0
h,-0.85048365593,0.302419751883,-1.0,-0.643073618412,0.909261345863,-1.0,-0.999997854233,-1.0,-0.0721233636141,0.999987542629,-0.512075543404,-0.999418079853,1.0,0.996951818466,0.999816536903,0.887535512447,0.999026954174,0.988625764847,-0.631346940994,0.988134562969
h,-0.483579963446,0.182563737035,-0.999999821186,0.828810870647,1.0,-1.0,-1.0,-1.0,-0.034560661763,1.0,-0.656325340271,-0.999916791916,0.956631958485,0.991514444351,0.99097776413,0.954646885395,0.997521400452,0.854631781578,0.340300321579,0.864629030228
h,0.212453886867,0.498136460781,-0.999976456165,-0.46883264184,-0.936486124992,-0.905555784702,-0.955612301826,-0.986131429672,-0.0550466552377,0.999994635582,-0.932685673237,-0.993186056614,-0.542579650879,0.616942405701,0.999832212925,0.752169489861,0.991635620594,0.786446630955,-0.696043372154,-0.937406539917
h,0.999995589256,0.837552428246,-0.951812565327,-0.642771542072,-0.999579250813,-0.999725759029,-0.744579792023,-0.870221853256,-0.0,0.999991595745,-0.995816171169,-0.999997496605,0.688122868538,0.938694179058,0.999999880791,0.84525167942,0.905325770378,0.979682922363,-1.0,-0.977626740932
h,-0.546370267868,0.0,-1.0,-0.289037048817,1.0,-0.831297814846,-0.874015331268,-0.705127894878,0.0,1.0,-0.104818128049,-1.0,1.0,0.848706185818,0.99998652935,0.999985277653,0.999999582767,0.963004291058,0.600070059299,1.0
h,-0.692000746727,0.267221391201,-1.0,0.883698284626,1.0,-1.0,-1.0,-0.999999821186,0.0,1.0,-0.390061706305,-1.0,1.0,0.927641272545,0.998880803585,0.684091985226,0.996253073215,0.407023429871,0.839868307114,0.852974593639
h,-0.535526514053,0.0239443145692,-0.999997913837,0.1468321383,0.99999576807,-0.985396921635,-1.0,-0.999640762806,-0.0581361688673,1.0,-0.688566327095,-0.999959647655,0.807506561279,0.611577570438,0.999561786652,0.951914072037,0.997126758099,0.0105895735323,0.485903799534,-0.551952242851
h,-0.461487114429,0.0,-1.0,0.716478645802,1.0,-1.0,-1.0,-0.999999344349,-0.0220553856343,1.0,-0.435245454311,-0.999999523163,0.863427758217,0.868733882904,0.99973744154,0.939396619797,0.99665248394,0.639962375164,0.336622923613,0.982445061207
h,-0.38832244277,0.062886312604,-0.999997913837,0.726295948029,1.0,-1.0,-1.0,-0.999901175499,-0.0218932405114,0.999999701977,-0.635749876499,-0.999805033207,0.996727108955,0.732865214348,0.999100089073,0.855988562107,0.938017606735,0.0639572441578,0.333328396082,0.478349357843
h,-0.0,0.0,-0.999999761581,-0.0,1.0,-0.419134259224,-0.692533969879,0.995570719242,-0.0395500101149,1.0,-0.0,-1.0,0.516169011593,0.621807277203,0.970485091209,0.866653561592,0.990635812283,0.394031733274,0.0,0.999999821186
h,-0.709560990334,0.0,-1.0,-0.467893272638,1.0,-1.0,-1.0,-0.997797489166,0.0,1.0,-0.157968491316,-1.0,1.0,0.834024488926,0.999930620193,0.873719573021,1.0,0.987458586693,0.824058771133,0.999998509884
h,-0.42943713069,0.0,-1.0,0.619445085526,0.999999403954,-1.0,-1.0,-1.0,-0.053687736392,1.0,-0.448029220104,-0.999948501587,0.950773537159,0.997595191002,0.293836891651,1.0,0.999849200249,0.752364993095,0.347021192312,0.963711261749
h,-0.611904859543,0.0,-1.0,0.519341766834,1.0,-1.0,-1.0,-1.0,-0.0113104199991,1.0,-0.375238895416,-1.0,0.892435789108,0.979538500309,0.999810278416,0.993882894516,0.999956846237,0.865661680698,0.464936822653,0.998839259148
h,0.859390854836,0.528044998646,-0.999998033047,0.987553775311,0.999965250492,-1.0,-1.0,-1.0,-0.0644124373794,1.0,-0.800367057323,-0.999990224838,0.999728679657,0.989620506763,0.841675639153,0.89144051075,0.876462817192,0.721348106861,0.667081058025,-0.671562373638
h,-0.0,0.0,-1.0,-0.0570508874953,0.999999761581,-0.772231638432,-0.973343014717,0.744209945202,-0.117231607437,0.999999761581,-0.137843444943,-0.999939024448,0.829198002815,0.803044736385,0.891879320145,0.999667406082,0.999896943569,0.837584674358,0.151330992579,0.999999880791
h,-0.538199603558,0.0730558484793,-1.0,-0.212667286396,1.0,-1.0,-1.0,-0.999985277653,-0.0201378371567,1.0,-0.371824085712,-0.999999940395,0.863561332226,0.918524682522,0.995949625969,0.694358766079,0.991423010826,0.77953094244,0.358100563288,0.919708251953
p,0.998407006264,-0.999998092651,-0.80253046751,0.998488664627,-0.997909843922,-1.0,0.999990582466,-1.0,-0.957954347134,0.999864697456,0.999228179455,-0.94388461113,0.98113578558,1.0,-0.999999463558,1.0,-1.0,0.999628186226,-0.999998927116,0.999999701977
h,0.997199952602,-0.997040331364,0.719432532787,0.996422410011,-0.998180985451,-1.0,1.0,-1.0,-0.999859452248,0.998925805092,0.999999880791,0.812176167965,-0.999999821186,0.999603450298,-0.99948567152,0.99862241745,-0.999478280544,-0.980956971645,-0.999997138977,0.987296581268
h,0.999980211258,-0.998784661293,-0.999996304512,0.999574661255,-0.989842653275,-1.0,0.999581992626,-1.0,-0.594403505325,1.0,0.999016284943,-0.999999344349,0.99998664856,1.0,-0.999435126781,1.0,-1.0,0.999951064587,-0.999998629093,0.999999940395
h,-0.249217957258,0.795938432217,-0.988487958908,-0.64966070652,-0.988431274891,-0.973966240883,-0.782099127769,0.978113591671,-0.0,0.999926805496,-0.473777472973,-0.999010145664,-0.984078645706,0.928705215454,0.989340126514,0.149090304971,0.801148116589,0.604272782803,-0.984961152077,0.0153772998601
h,0.706686019897,-0.25447639823,-0.996686816216,0.268391758204,0.904729664326,-1.0,0.932386755943,-0.999339878559,-0.179326340556,0.432619839907,-0.980947256088,-0.849486887455,-0.31048604846,0.804480671883,0.558557808399,0.67438185215,0.999669015408,0.503959298134,0.115560673177,0.703872144222
h,0.67582577467,-0.0364378020167,-0.999969184399,-0.315191060305,0.692728817463,-0.910304188728,0.687108099461,-0.999995112419,-0.0209114532918,0.58006298542,-0.932307004929,-0.999802052975,0.12131678313,0.782672166824,0.998791158199,0.975983738899,0.999899804592,0.831174254417,0.523347616196,-0.51291590929
p,0.962182402611,1.0,-0.00641357153654,-0.999998867512,-0.999975979328,-0.990878283978,-0.209095299244,0.512384772301,0.0,1.0,0.995249152184,-0.0177334602922,-0.994559168816,0.998156189919,0.15017478168,-0.0,-0.997176349163,0.908894717693,-1.0,-0.451379448175
p,0.971651077271,1.0,-0.0,-0.999998807907,-0.999920070171,-0.889020681381,-0.159122616053,0.383191943169,0.0,1.0,0.989956200123,-0.00391821190715,-0.998720467091,0.996914982796,0.12774220109,-0.0,-0.989729881287,0.90114158392,-1.0,-0.394946098328
p,0.925103366375,0.999999880791,-0.00427137268707,-0.999945759773,-0.999906539917,-0.914067327976,-0.125558614731,0.43562105298,0.0,0.999998927116,0.999530255795,-0.00103042181581,-0.971985816956,0.993760406971,0.06090548262,-0.0,-0.981275856495,0.841377019882,-1.0,-0.372274667025
p,0.986197710037,0.999996483326,-0.0,-0.999796688557,-0.999413192272,-0.369966834784,-0.210225701332,0.445394009352,0.0,0.94199359417,0.950603067875,0.0,-0.948559224606,0.973382890224,0.0,-0.0,-0.978196620941,0.916104376316,-0.999998033047,-0.419672936201
p,0.994537293911,0.999989390373,-0.0,-0.999998986721,-0.999879837036,-0.994882404804,-0.0961734727025,0.394362509251,0.0,0.991823673248,0.998691916466,1.07477708298e-05,-0.978489279747,0.991870045662,0.0,-0.0,-0.9923864007,0.897516608238,-1.0,-0.417260974646
p,0.990570604801,0.999978482723,0.0,-0.999982714653,-0.998157858849,-0.710253834724,-0.13968218863,0.295412510633,0.0,0.897398293018,0.995800793171,-0.000888926559128,-0.952624678612,0.990974187851,0.000657811935525,-0.0,-0.994180560112,0.966619551182,-0.999998211861,-0.423057168722
p,0.984861195087,0.99998986721,-0.0,-0.99998909235,-0.999890983105,-0.926383554935,-0.0856148153543,0.398116797209,0.0,0.974632680416,0.998909413815,0.000277189508779,-0.969478964806,0.988454341888,0.0785167366266,-0.0,-0.995275735855,0.929313600063,-1.0,-0.409754067659
p,0.999962389469,0.999995052814,0.0,-0.999999940395,-0.999938249588,-0.576563060284,-0.0500192008913,0.404888987541,0.0,0.891673982143,0.998905718327,0.00450932048261,-0.978957474232,0.990790367126,0.0,-0.0,-0.996497452259,0.950413286686,-1.0,-0.404647558928
p,0.995508491993,0.999761462212,-0.000550051161554,-0.999996423721,-0.999966621399,-0.97553396225,-0.153946429491,0.379776060581,0.0,0.999994933605,0.999286174774,-2.17661522584e-06,-0.981328606606,0.992372453213,0.0,-0.0,-0.998074114323,0.928954780102,-0.999999761581,-0.451893031597
p,0.995929419994,0.997110903263,-0.0,-0.999985277653,-0.999651670456,-0.984836161137,-0.108514808118,0.402960956097,0.0,0.911768019199,0.996552407742,0.00474037323147,-0.976426303387,0.979139506817,-0.00101503857877,-0.0,-0.994832873344,0.897657573223,-0.999999880791,-0.443367213011
p,0.993935108185,0.999950408936,-0.000959871802479,-0.999997615814,-0.999983370304,-0.981721401215,-0.0725000947714,0.492624610662,0.0,0.999999046326,0.999434947968,0.00699737109244,-0.992788434029,0.993713259697,0.0,-0.0,-0.998084068298,0.883877277374,-1.0,-0.429994910955
p,0.984010279179,0.999985635281,0.0,-0.999852597713,-0.999873042107,-0.703184783459,-0.17353798449,0.407141983509,0.0,0.931643903255,0.993421554565,0.0,-0.980265438557,0.983603358269,0.0,-0.0,-0.973915636539,0.899796545506,-0.999997973442,-0.376561373472
p,0.997603178024,0.999484360218,0.000522446294781,-0.999997019768,-0.999989449978,-0.959695219994,-0.126772224903,0.436714440584,0.0,0.987729728222,0.992967844009,0.00576150650159,-0.981190741062,0.984617710114,0.0,-0.0,-0.998096048832,0.938896715641,-0.999998211861,-0.467824578285
p,0.999739587307,0.999965250492,-0.0,-0.999999821186,-0.999997973442,-0.987982809544,-0.06658180058,0.520366489887,0.0,0.999998390675,0.999072730541,0.00306048174389,-0.988748192787,0.992510378361,0.0,-0.0,-0.998178899288,0.946171104908,-0.999999940395,-0.452069580555
p,0.998925566673,0.998882472515,0.0,-0.999937295914,-0.999425470829,-0.841601073742,-0.149178162217,0.336635857821,0.0,0.875682830811,0.994725763798,-1.69720005943e-05,-0.936858355999,0.972455024719,0.0,-0.0,-0.991563618183,0.892644643784,-0.999960839748,-0.409080594778
p,0.99757027626,0.999975025654,-0.0,-0.999974131584,-0.999742805958,-0.873403131962,-0.108146741986,0.422445505857,0.0,0.848089993,0.995929718018,-2.57643314399e-05,-0.975052833557,0.9866142869,0.0,-0.0,-0.993749380112,0.933307230473,-0.999999523163,-0.294323772192
p,0.999637722969,0.999998927116,0.0,-0.999997317791,-0.999983966351,-0.610089600086,-0.101445272565,0.438245207071,0.0,0.860254347324,0.965690791607,0.0,-0.985621511936,0.973744750023,0.0,-0.0,-0.991440296173,0.930858790874,-0.999994575977,-0.385490715504
p,0.999606728554,-0.99846547842,-0.632601320744,0.999913215637,0.980406284332,-0.999787807465,1.0,-0.995828807354,-0.0563271455467,-0.902389645576,0.999106705189,0.624996066093,0.997774422169,-0.776889681816,-0.998184025288,0.511055767536,-0.94513386488,-0.998708307743,-0.0575426109135,0.999654829502
p,0.999574422836,-0.923876225948,0.560970187187,0.993532657623,-0.982651114464,-0.999999821186,0.999999880791,-0.999932408333,-0.997935891151,0.920706212521,0.999996900558,0.980334997177,-0.927443087101,0.872852087021,-0.999924838543,0.996140956879,-0.999085843563,-0.90949088335,-0.999997854233,0.984946787357
p,0.994149208069,-0.959295272827,0.604667663574,0.998808383942,-0.994585394859,-1.0,0.999999880791,-1.0,-0.999999582767,0.99622374773,0.999990403652,0.92369890213,-0.952202677727,0.9999756217,-0.980192482471,0.999976277351,-0.999964892864,0.95832669735,-0.999997019768,0.976204574108
p,0.999658107758,-0.999730110168,0.701327323914,0.999491989613,-0.994816362858,-0.999999821186,0.999999761581,-0.999999582767,-0.999937415123,0.995676279068,0.999998569489,0.997006297112,-0.89497345686,0.999978303909,-0.996845781803,0.999988496304,-0.999999284744,0.991418361664,-1.0,0.990326583385
p,0.983501136303,-0.646386623383,0.657086253166,0.969465494156,-0.993858158588,-0.999879658222,0.979915380478,-0.999139666557,-0.9993673563,0.999911248684,0.998230695724,0.977938532829,-0.983986914158,0.999938070774,-0.995320260525,0.999833106995,-0.999574005604,0.989296853542,-0.9999781847,0.946820139885
p,0.991118848324,-0.920333862305,0.766977667809,0.988514065742,-0.994268000126,-0.999445140362,0.992464601994,-0.999405443668,-0.999013721943,0.993529498577,0.996495783329,0.986306548119,-0.819160401821,0.999839961529,-0.997699439526,0.999988079071,-0.99964851141,0.928952634335,-0.999946534634,0.989473938942
p,0.984901785851,-0.818905711174,0.67016351223,0.94724047184,-0.987148344517,-0.998533546925,0.987386703491,-0.999483346939,-0.998014092445,0.96391838789,0.99725574255,0.982257902622,-0.844882190228,0.999210596085,-0.995614767075,0.999945163727,-0.999235749245,0.973997950554,-0.999914765358,0.968687355518
p,0.940025091171,-0.968300521374,0.649218916893,0.874648272991,-0.993807673454,-0.999693870544,0.99790841341,-0.999977350235,-0.984833657742,0.975747704506,0.999035000801,0.788779854774,-0.986169397831,0.992630064487,-0.999494254589,0.995005786419,-0.999414145947,-0.456133157015,-0.999980211258,0.93122792244
p,0.607210576534,-0.574015378952,-0.956734597683,0.139207825065,-0.899180591106,-0.99994456768,0.999996900558,-0.999985635281,-0.510812699795,0.906532406807,0.599502325058,0.0737350061536,0.379483222961,0.944829881191,-0.9686409235,0.999703109264,0.459142655134,-0.643851041794,-0.999326586723,0.970169186592
p,0.957703828812,-0.708914935589,0.69883275032,0.838398754597,-0.995744585991,-0.997783064842,0.992705464363,-0.882114470005,-0.987981379032,0.998806118965,0.998791217804,0.970593512058,-0.915082812309,0.999238193035,-0.999744057655,0.999440014362,-0.999937713146,0.970828294754,-0.999947190285,0.963162600994
p,0.992945194244,-0.992632865906,0.687879383564,0.904535770416,-0.994983673096,-0.998134195805,0.997314572334,-0.956351816654,-0.951856791973,0.998884439468,0.999801814556,0.966298341751,-0.839726626873,0.99995547533,-0.999345064163,0.999836802483,-0.999997496605,0.890303313732,-0.999991059303,0.987404882908
p,0.995150446892,-0.995795965195,0.829891383648,0.909670054913,-0.995188295841,-0.999131083488,0.999847769737,-0.920293867588,-0.997764408588,0.985587656498,0.999881923199,0.9951146245,-0.643998622894,0.999013662338,-0.999811291695,0.999453186989,-0.999999523163,0.907433450222,-0.999999880791,0.999318778515
p,0.990630507469,-0.965177416801,0.750119388103,0.980025708675,-0.992394268513,-0.994851052761,0.960105657578,-0.998855769634,-0.987382531166,0.904797852039,0.995139837265,0.97126609087,-0.314587235451,0.999842107296,-0.998997271061,0.999955773354,-0.999834597111,0.994400322437,-0.999710559845,0.991926074028
p,0.999625861645,-0.996158659458,0.747530698776,0.962356388569,-0.994954407215,-0.99944537878,0.999812602997,-0.999816417694,-0.989058732986,0.973371267319,0.999297142029,0.993985056877,0.950489878654,0.999790966511,-0.999926626682,0.999982595444,-0.999999880791,0.994175553322,-0.999998509884,0.999947607517
p,0.98003745079,-0.998513817787,0.827428460121,0.689776182175,-0.99852257967,-0.987937092781,0.992875874043,-0.81238079071,-0.994600713253,0.997274637222,0.998803734779,0.997335016727,0.190825358033,0.99950915575,-0.999753236771,0.999816358089,-0.999989271164,0.757329463959,-0.999997437,0.996865928173
p,0.964492976665,-0.989672601223,0.801401078701,0.5787088871,-0.992163598537,-0.998577177525,0.999773681164,-0.999729812145,-0.992587506771,0.962140321732,0.998210430145,0.96821886301,-0.398111522198,0.999681830406,-0.99581938982,0.999914288521,-0.999371349812,0.662754058838,-0.999999523163,0.989199519157
p,0.955245792866,-0.990721642971,0.49905243516,0.329129934311,-0.994949758053,-0.997828960419,0.999703407288,-0.999612748623,-0.976195991039,0.983057439327,0.997943878174,0.751646220684,0.103408463299,0.999980926514,-0.998373329639,0.999959230423,-0.9998716712,0.874716579914,-0.999999940395,0.99323028326
p,0.988573729992,-0.994398474693,0.672520339489,0.640477359295,-0.996421933174,-0.998277366161,0.999518752098,-0.995435833931,-0.993178844452,0.996985852718,0.998754620552,0.981753051281,-0.048163075,0.999941170216,-0.999213516712,0.999958336353,-0.999991297722,0.982453167439,-0.999999582767,0.996886789799
p,0.9760440588,-0.988125562668,0.800482690334,0.598304331303,-0.995380043983,-0.994812309742,0.997460901737,-0.698392689228,-0.98689776659,0.994987845421,0.996850788593,0.989069700241,-0.777853608131,0.998118877411,-0.999564111233,0.999455034733,-0.999978542328,0.968582332134,-0.999998629093,0.998573064804
p,0.981208384037,-0.894684493542,0.67304879427,0.817923843861,-0.993009209633,-0.990738749504,0.968057215214,-0.975862085819,-0.994362413883,0.999102056026,0.997202634811,0.996114313602,-0.495113223791,0.998920321465,-0.997939288616,0.999852716923,-0.999134361744,0.912705540657,-0.999811828136,0.975000321865
p,0.997039496899,-0.959693968296,0.686533510685,0.999999642372,-0.990962207317,-1.0,0.999987840652,-1.0,-0.999999046326,0.999967575073,0.999504446983,0.992076277733,-0.872262597084,0.999996721745,-0.920587956905,0.999930262566,-0.9952480793,0.99704092741,-0.999999821186,0.955241441727
p,0.99817609787,-0.999444842339,0.738343834877,0.99999833107,-0.988865911961,-1.0,1.0,-1.0,-0.999999880791,0.992574155331,0.999984920025,0.992503046989,-0.862795829773,0.999990105629,-0.976334750652,0.999995350838,-0.998741447926,0.737326145172,-0.99999833107,0.965683758259
p,0.997486174107,-0.997605323792,0.746727526188,0.999972403049,-0.992135822773,-0.999999701977,1.0,-1.0,-0.99999910593,0.950774610043,0.99987334013,0.993532001972,-0.946199178696,0.999971807003,-0.995121717453,0.999986052513,-0.999722123146,0.240423813462,-0.999989151955,0.995817005634
p,0.999795973301,-0.999844074249,0.833093702793,0.999998211861,-0.981808841228,-1.0,0.999999880791,-1.0,-0.999999761581,0.990813910961,0.999983727932,0.99500387907,-0.857166469097,0.999992787838,-0.995129466057,0.999967575073,-0.999866902828,0.902506649494,-0.999999880791,0.987151265144
p,0.999920248985,-0.999903738499,0.791145026684,0.999996721745,-0.974707067013,-0.999999701977,0.999999821186,-1.0,-0.999999701977,0.935477733612,0.99986076355,0.999157190323,-0.206843808293,0.999997437,-0.998116135597,0.999995291233,-0.999981582165,0.995562493801,-0.999999284744,0.999267756939
p,0.997441887856,-0.999595046043,0.820788085461,0.999927759171,-0.983646512032,-0.999987840652,0.999985814095,-0.999997496605,-0.999992251396,0.930665612221,0.999585270882,0.996857881546,-0.874710738659,0.999993085861,-0.993486523628,0.99995303154,-0.999837458134,0.994538724422,-0.99998486042,0.997354209423
p,0.983667552471,-0.973807275295,0.801533937454,0.999249756336,-0.982898235321,-0.999847650528,0.990878582001,-0.995943427086,-0.999915957451,0.96405261755,0.998343646526,0.995678842068,-0.932108581066,0.999966025352,-0.995657026768,0.999363720417,-0.999649167061,0.988808691502,-0.999602615833,0.996315836906
p,0.916513860226,-0.89714807272,0.713785946369,0.97407579422,-0.977911055088,-0.999747335911,0.985661625862,-0.999935150146,-0.999438524246,0.888188660145,0.996704220772,0.95516782999,-0.909882545471,0.999812483788,-0.987618744373,0.999806404114,-0.994791090488,0.987087309361,-0.990384340286,0.975852310658
p,0.999310731888,-0.999957919121,0.794440567493,0.99993956089,-0.980161786079,-0.999999880791,0.999999523163,-1.0,-0.999999463558,0.964648365974,0.999938428402,0.996576368809,-0.690629005432,0.999993860722,-0.999527215958,0.999999880791,-0.999998927116,0.981383264065,-0.999998033047,0.999027013779
p,0.970182299614,-0.9575496912,0.660672903061,0.980973601341,-0.984851777554,-0.99994468689,0.995173275471,-0.999952077866,-0.999924659729,0.99624311924,0.99607115984,0.911172628403,-0.996502041817,0.999996364117,-0.98967474699,0.97095656395,-0.999842822552,0.993100762367,-0.999249279499,0.99499976635
p,0.979225993156,-0.959639728069,0.765382170677,0.976503551006,-0.967305064201,-0.999988853931,0.98526185751,-0.999997794628,-0.999085366726,0.989773452282,0.996469736099,0.976960361004,-0.995344161987,0.999652326107,-0.972546935081,0.999934256077,-0.998954892159,0.977393507957,-0.999667704105,0.983504652977
p,0.99544775486,-0.959049642086,0.788274288177,0.990865170956,-0.993800342083,-0.999985635281,0.996191501617,-0.99997740984,-0.99990093708,0.960569858551,0.999227821827,0.989106297493,-0.662228822708,0.999764442444,-0.997519671917,0.999998927116,-0.999963223934,0.947137117386,-0.999864459038,0.997129321098
p,0.971517503262,-0.870913684368,0.784766733646,0.99527746439,-0.97479557991,-0.999965965748,0.918767988682,-0.999963998795,-0.999051213264,0.963431835175,0.996842086315,0.985906839371,-0.925125181675,0.999524533749,-0.992505609989,0.999986350536,-0.998025238514,0.954329431057,-0.997657120228,0.984323561192
p,0.998931050301,-0.995093405247,0.726198792458,0.981332838535,-0.99134773016,-0.999634742737,0.999850809574,-0.999994218349,-0.999785006046,0.766368329525,0.999180555344,0.9953545928,0.591897666454,0.999680459499,-0.999570727348,0.999991178513,-0.999994575977,0.999067783356,-0.999880492687,0.999892055988
p,0.99722468853,-0.993106782436,0.797926723957,0.945081651211,-0.980766654015,-0.999999880791,0.99884480238,-0.999999880791,-0.9998010993,0.988951206207,0.999501645565,0.971177637577,-0.97412788868,0.999935865402,-0.991940021515,0.999999821186,-0.99998575449,0.923774540424,-0.999985575676,0.992579817772
p,0.969696998596,-0.956376671791,0.768369019032,0.98682141304,-0.992891132832,-0.999963402748,0.997726500034,-0.999998629093,-0.999861240387,0.957748115063,0.996606647968,0.962173342705,-0.997870028019,0.999839961529,-0.994355022907,0.999994158745,-0.996537566185,0.451489180326,-0.999285042286,0.987070500851
p,0.998576402664,-0.997707664967,0.830043196678,0.996409296989,-0.991212010384,-0.999977707863,0.999241709709,-0.999991714954,-0.999945819378,0.903082489967,0.999018490314,0.998193025589,-0.538650214672,0.999966621399,-0.998955130577,0.999999642372,-0.999971389771,0.992266952991,-0.999955534935,0.999358594418
p,0.998943567276,-0.997449338436,0.817116141319,0.992739439011,-0.98168438673,-0.999999821186,0.999672055244,-0.999998807907,-0.999995112419,0.990621268749,0.999849796295,0.994744181633,-0.800670444965,0.999991774559,-0.997799575329,0.999999761581,-0.99999833107,0.986807525158,-0.999997735023,0.99885571003
p,0.998696923256,-0.99935990572,0.797446489334,0.994797408581,-0.987896740437,-0.999999761581,0.999988853931,-0.999999821186,-0.999995172024,0.949483811855,0.999738633633,0.967732787132,-0.933209776878,0.999993979931,-0.999764025211,1.0,-0.999999761581,0.967116653919,-0.999988973141,0.998033225536
p,0.997773766518,-0.991691946983,0.786701023579,0.988699138165,-0.985614180565,-0.999997138977,0.999696731567,-0.999997377396,-0.999958395958,0.972257196903,0.998701393604,0.986483454704,-0.953806519508,0.999969363213,-0.998557031155,0.999996006489,-0.999988019466,0.979496777058,-0.999982476234,0.999136328697
p,0.99799144268,-0.99935144186,0.745634615421,0.995155394077,-0.990645647049,-0.999999701977,0.999890744686,-1.0,-0.99999076128,0.979537129402,0.999314725399,0.986693620682,-0.951083302498,0.9999807477,-0.999222576618,0.999999880791,-0.999987006187,0.902804553509,-0.999990046024,0.998084366322
p,0.996265470982,-0.999363780022,-0.162249356508,0.963451087475,-0.995518386364,-0.999979496002,0.999999403954,-0.999999523163,-0.99906629324,0.70900952816,0.998018562794,0.878512501717,0.957691907883,0.999576747417,-0.997057497501,0.99996471405,-0.999965369701,0.999700129032,-0.999172329903,0.999955952168
p,-0.303017258644,0.0131435012445,-0.356542140245,-0.0722005590796,-0.68036365509,0.325404167175,0.512915372849,-0.780348598957,-0.948080658913,-0.217172011733,0.194951042533,0.924723029137,0.101824060082,0.625312745571,-0.513447582722,0.953628599644,0.232336103916,0.890322268009,-0.275442272425,0.85605430603
p,0.985436558723,-0.993446350098,0.745131790638,0.971880197525,-0.988409757614,-0.999972045422,0.998998403549,-0.999999701977,-0.999921143055,0.91260522604,0.997099637985,0.961059272289,-0.934703946114,0.999997913837,-0.999091684818,0.999996602535,-0.999891519547,0.94902074337,-0.999029636383,0.996435105801
p,0.998525977135,-0.999586343765,0.872346639633,0.610171079636,-0.993613004684,-0.999999880791,0.999988555908,-1.00000011921,-0.999979496002,0.993184685707,0.999557614326,0.958171963692,-0.969799339771,0.99998062849,-0.997480392456,0.999999821186,-0.999986827374,0.157494053245,-0.999999582767,0.998244822025
p,0.936765491962,-0.99753010273,0.618542432785,0.800011336803,-0.98451000452,-0.999977469444,0.999990224838,-0.999992668629,-0.999922454357,0.571866214275,0.998750567436,0.969149529934,-0.976931393147,0.993411123753,-0.994160234928,0.999882459641,-0.996522009373,-0.644450962543,-0.998655796051,0.990186393261
p,0.991910040379,-0.996486127377,0.751793086529,0.997008621693,-0.989256620407,-0.999999046326,0.999404728413,-1.0,-0.999990344048,0.982296824455,0.998804271221,0.928465306759,-0.979045331478,0.999996721745,-0.998211622238,0.999998807907,-0.999982893467,0.849628508091,-0.999741911888,0.994997918606
p,0.997787594795,-0.998032391071,0.734794199467,0.998021841049,-0.991112887859,-0.999999463558,0.999761879444,-1.0,-0.999983310699,0.958294212818,0.999645769596,0.984778821468,-0.832703888416,0.999989688396,-0.997837424278,0.999999880791,-0.999996781349,0.992668688297,-0.999959290028,0.996665298939
p,0.992811977863,-0.995424568653,0.790490984917,0.952119827271,-0.979599833488,-0.999894201756,0.997014939785,-0.999989688396,-0.999810755253,0.899794280529,0.997509300709,0.976160466671,-0.973278880119,0.999978303909,-0.997925758362,0.999994158745,-0.999958634377,0.992453217506,-0.999683976173,0.997275412083
p,0.89425432682,-0.975442647934,0.614113271236,0.883752822876,-0.986434996128,-0.999999284744,0.996715784073,-0.999999761581,-0.999723494053,0.992054224014,0.994041860104,0.709683597088,-0.999899864197,0.999989748001,-0.984464406967,0.999984323978,-0.998641729355,0.883354008198,-0.997126758099,0.980257689953
p,0.978116333485,-0.984292507172,0.784813165665,0.983082890511,-0.962844133377,-0.999994695187,0.964698195457,-0.999998986721,-0.999925017357,0.968468487263,0.997028291225,0.971502840519,-0.965680539608,0.999986350536,-0.996141195297,0.999994874001,-0.99995803833,0.987021863461,-0.999655783176,0.992834031582
p,0.980659782887,-0.988680958748,0.706642925739,0.98608982563,-0.991487085819,-0.99999320507,0.999233305454,-0.999997913837,-0.999987185001,0.972206652164,0.99839669466,0.818762123585,-0.997470974922,0.999997496605,-0.99480754137,0.999997317791,-0.999956429005,0.949215173721,-0.999863982201,0.995687961578
p,0.99999833107,-0.997241437435,0.123033665121,0.999936401844,-0.987470448017,-1.0,1.0,-1.0,-0.978157520294,1.0,0.985437691212,-0.995851814747,-0.997564613819,1.0,-0.977225661278,0.999999701977,-0.99999499321,0.999862492085,-0.999999701977,0.98078674078
p,0.999783277512,-0.960249900818,0.320295453072,0.999999046326,-0.998611330986,-1.0,1.0,-1.0,-0.999962389469,1.0,0.999989032745,0.50729650259,-0.886555731297,1.0,-0.917551040649,0.999984025955,-0.999999284744,0.824542760849,-0.999997913837,0.864971935749
p,0.999655544758,-0.994037151337,0.415920466185,0.990492165089,-0.997583687305,-1.0,1.0,-1.0,-0.999962449074,0.998205900192,0.999998927116,0.989472866058,-0.995368361473,0.999999880791,-0.999565243721,0.99980199337,-0.999935925007,-0.94868272543,-1.0,0.992900788784
p,0.999998927116,-0.830271184444,0.369747698307,0.999832689762,-0.998266160488,-0.999999821186,0.999995291233,-1.0,-0.998741149902,0.999998867512,0.967496812344,-0.522922158241,-0.750159442425,0.999586820602,-0.969714045525,0.999942719936,-0.997204005718,0.996636807919,-0.999991297722,0.978142797947
h,-0.426346480846,0.0,-1.0,-0.022005347535,1.0,-0.547447085381,-0.676021099091,0.814819335938,0.0,1.0,-0.0,-1.0,0.999856472015,0.700221896172,0.954721212387,0.997723400593,1.0,0.998823165894,0.68170273304,1.0
h,-0.738575279713,0.0,-1.0,-0.0,1.0,-0.635850965977,-0.893394708633,-0.734483718872,0.0306926891208,1.0,-0.0913671776652,-1.0,1.0,0.785295963287,0.891555547714,0.999942660332,1.0,0.997180342674,0.988866448402,1.0
h,-0.156175464392,0.0,-1.0,-0.0,0.927528560162,0.557714104652,-0.549678862095,0.586782097816,-0.0,1.0,-0.0,-1.0,1.00000011921,0.647427797318,0.665080010891,0.648802757263,0.999978899956,0.90053331852,0.869229853153,0.99999755621
h,-0.367957502604,0.0,-1.0,-0.0,0.999037265778,0.647418022156,-0.686262249947,0.481796622276,0.0151454508305,1.0,-0.0,-1.0,0.999965369701,0.804946243763,0.694654881954,0.848648250103,0.999979257584,0.948992431164,0.998206079006,0.991418004036
h,-0.334856063128,0.0,-0.999999523163,-0.0,0.999549090862,0.63455504179,-0.699811041355,0.513544559479,0.0134004447609,1.0,-0.0,-1.0,0.99984228611,0.753479540348,0.575746238232,0.67886030674,0.999915659428,0.970491707325,0.999808490276,0.995092451572
h,-0.248701557517,0.0,-0.999820411205,-0.0,0.925621509552,0.35332724452,-0.50214612484,0.280935585499,0.00691474741325,1.0,-0.0,-1.0,0.98930901289,0.559806108475,0.351848870516,0.895804941654,0.997860848904,0.942851185799,0.988083481789,0.493069052696
h,-0.405672311783,0.0,-0.957268476486,-0.0,0.999999344349,0.519065201283,-0.676722824574,0.299737155437,0.0,1.0,-0.0,-1.0,1.0,0.718696117401,0.144153162837,0.713625848293,0.93458199501,0.973213791847,0.998506724834,0.858063519001
h,-0.40441980958,0.0,-1.0,-0.0,0.999998629093,0.561993598938,-0.760533809662,0.446507960558,0.0111556611955,1.0,-0.0,-1.0,1.0,0.801748096943,0.206020995975,0.898564577103,0.977985262871,0.983374536037,0.998809337616,0.999994814396
h,-0.234930247068,0.0,-0.999999880791,-0.0,0.999997973442,0.453759372234,-0.671267151833,0.357540607452,0.0120623465627,1.0,-0.0,-1.0,1.0,0.673034489155,0.109362512827,0.896288573742,0.972000598907,0.976005017757,0.997603058815,0.999789595604
h,-0.272383660078,0.0,-0.966848552227,-0.0,0.987391710281,0.483278155327,-0.762628078461,0.365351527929,0.0171945225447,1.0,-0.0,-1.0,1.0,0.737329125404,0.0465009436011,0.866448760033,0.974926948547,0.986618697643,0.99881786108,0.934659719467
h,-0.34757143259,0.0,-1.0,-0.0,0.990065455437,0.58909624815,-0.697929620743,0.325916588306,0.0142379822209,1.0,-0.0,-1.0,1.0,0.855296611786,0.0520184151828,0.650831639767,0.977537930012,0.975474655628,0.998153030872,0.999993085861
h,-0.401596456766,0.0,-0.999999821186,-0.0,1.0,0.604702830315,-0.712127864361,0.326216161251,0.0658461600542,1.0,-0.0,-1.0,1.0,0.887512743473,0.0578453801572,0.837295651436,0.989341199398,0.963553488255,0.996318876743,0.999991834164
h,-0.189867332578,0.0,-0.65613335371,-0.0,-0.0875904783607,0.273072421551,-0.665731430054,0.197996288538,0.0,1.0,-0.0,-1.0,0.983480274677,0.451020389795,0.506239712238,0.989224612713,0.810319244862,0.960448563099,0.993626534939,0.932910978794
h,-0.462218225002,0.0,-0.999774575233,-0.0711835101247,0.999983072281,0.685818493366,-0.887889862061,0.523811995983,-0.00193293031771,1.0,-0.0,-1.0,1.0,0.861209273338,0.243860453367,0.446033984423,0.988432943821,0.910488843918,0.997676193714,0.969999730587
h,-0.57091152668,0.0,-0.999537408352,0.00208548875526,1.0,-0.938167572021,-0.984636366367,0.802185893059,0.147308573127,1.0,-0.0,-1.0,1.0,0.982947051525,0.721328794956,0.934152066708,0.999216079712,0.944755494595,0.999945521355,0.999969482422
h,-0.657519996166,0.0,-1.0,0.681675970554,1.0,-1.0,-1.0,-0.999999940395,0.177360892296,1.0,-0.263537943363,-1.0,1.0,0.996574878693,0.81453281641,0.998566925526,0.999774694443,0.894241452217,0.999986886978,0.999914526939
h,-0.691289007664,0.0,-1.0,0.411528736353,1.0,-0.966237068176,-1.0,-1.0,0.324134588242,1.0,-0.308908462524,-1.0,1.0,0.973979234695,0.552589833736,0.999988853931,0.998644471169,0.916930377483,0.999957025051,0.999911367893
h,-0.667313396931,0.0,-1.0,0.13600897789,1.0,-0.879435360432,-1.0,0.841283380985,0.272808820009,1.0,-0.0181995946914,-1.0,1.0,0.946552753448,0.807731330395,0.998352944851,0.999852597713,0.951871335506,0.999993443489,1.0
h,-0.645590543747,0.0,-1.0,0.337624400854,1.0,-0.929817676544,-1.0,-0.968143463135,0.286123543978,1.0,-0.168110370636,-1.0,1.0,0.990135848522,0.603382468224,0.999959051609,0.999999046326,0.990649580956,0.999959468842,0.999998927116
h,-0.392241358757,0.0,-0.999999940395,-0.0,0.999962091446,0.672362864017,-0.913964033127,0.662871956825,0.00544181047007,1.0,-0.0,-1.0,1.0,0.905734181404,0.533575892448,0.921226263046,0.984951078892,0.988909900188,0.996936678886,0.999976813793
h,0.999997317791,-0.159146815538,-0.666298568249,-0.376664578915,-0.794516921043,-0.772508084774,-0.784286022186,-1.0,-0.000230984922382,0.999938488007,-0.676725924015,-1.0,0.586860656738,0.815975666046,0.99998319149,1.0,-0.979826211929,0.999983310699,-0.816938459873,0.790443778038
h,-0.331408619881,0.0,-0.999924063683,-0.0,0.966693162918,0.531511723995,-0.798380613327,0.479227423668,0.00346372323111,1.0,-0.0,-1.0,0.999999165535,0.72498267889,0.667821705341,0.97029954195,0.997987151146,0.994617164135,0.993997871876,0.999854624271
h,0.999998748302,0.226568937302,-1.0,0.880607247353,1.0,-1.0,-0.999985516071,-0.999999880791,0.0923008099198,1.0,-0.524929821491,-1.0,0.999999701977,0.998696267605,0.909384429455,0.999391317368,0.999998390675,0.978878617287,0.999970436096,0.93587988615
h,-0.659344673157,0.0,-0.999999761581,-0.045939501375,1.0,0.83437949419,-0.876120567322,0.633675515652,0.0491939559579,1.0,-0.0,-1.0,1.0,0.997868180275,0.782700538635,0.671215772629,0.999892473221,0.938587844372,0.998487651348,1.0
h,-0.414223998785,0.0,-0.999999821186,-0.147703930736,1.0,0.730339109898,-0.878505110741,0.561557769775,0.0,1.0,-0.0,-1.0,1.0,0.815179288387,0.292191028595,0.554960072041,0.985955834389,0.967100024223,0.999792158604,0.999895572662
h,0.869812071323,0.208016455173,-1.0,0.76184129715,1.0,-1.0,-1.0,-1.0,0.252381443977,1.0,-0.523122549057,-1.0,1.0,0.999876022339,0.955793142319,0.999765992165,0.999999046326,0.994784533978,0.997857749462,0.99886149168
h,0.994223356247,0.278819173574,-1.0,0.776775717735,1.0,-1.0,-1.0,-1.0,0.261782318354,1.0,-0.400561511517,-1.0,1.0,0.999776244164,0.933264374733,0.999512255192,0.999998509884,0.999494314194,0.999905407429,0.99966275692
h,-0.736735999584,0.0,-1.0,0.270119011402,1.0,-0.938255548477,-1.0,0.808628559113,0.219379484653,1.0,-0.0329926535487,-1.0,1.0,0.986277163029,0.93792951107,0.997210681438,0.999879181385,0.997782886028,0.999907374382,1.0
p,0.999970912933,-0.997478783131,0.800987541676,0.999825835228,-0.996166586876,-0.999998092651,0.999999821186,-0.999952316284,-0.999995648861,0.981604635715,0.999968349934,0.999996602535,-0.270713895559,0.999822318554,-0.999997854233,0.999999642372,-0.999999880791,0.997391879559,-1.0,0.998742043972
p,0.998967349529,-0.992619633675,0.686177909374,0.998777449131,-0.990777730942,-0.999937295914,0.999973356724,-0.996164798737,-0.999861955643,0.994371533394,0.999953746796,0.99975925684,-0.715563356876,0.999268949032,-0.999985158443,0.999995708466,-0.999997317791,0.993210732937,-0.999999642372,0.994213461876
p,0.999972522259,-0.992999792099,0.67847687006,0.99988681078,-0.994142472744,-0.999998450279,1.0,-0.999995589256,-0.999958574772,0.987783372402,0.999983549118,0.999872982502,-0.525883972645,0.999607264996,-0.999999046326,0.999789714813,-0.999998569489,0.993491947651,-1.0,0.999526023865
p,0.995931267738,-0.979173362255,0.696699261665,0.995697319508,-0.989906966686,-0.999644696712,0.999957859516,-0.999887466431,-0.999430298805,0.981730163097,0.99984806776,0.999598503113,-0.694248855114,0.999219417572,-0.999222159386,0.999969184399,-0.999852061272,0.980176508427,-0.999996125698,0.998384594917
p,0.996741950512,-0.93868470192,0.800073862076,0.970919311047,-0.992596030235,-0.999721288681,0.998544871807,-0.999876856804,-0.996788859367,0.994527935982,0.998714387417,0.992770671844,0.154563620687,0.999052226543,-0.997415542603,0.999886155128,-0.99987000227,0.993226289749,-0.999960482121,0.994331359863
p,0.999955117702,-0.999405920506,0.847283959389,0.999480724335,-0.996224343777,-0.999997258186,0.999999880791,-0.999999821186,-0.999933481216,0.939388275146,0.999013185501,0.999795377254,0.811761021614,0.999710023403,-0.999964654446,0.999999046326,-0.999998211861,0.994483053684,-0.999999880791,0.999996364117
p,0.999988436699,-0.99929022789,0.848128676414,0.999818563461,-0.991749286652,-0.999999463558,0.999999821186,-0.999999642372,-0.999910593033,0.97780251503,0.999898314476,0.999308586121,0.702272951603,0.9995251894,-0.999929010868,0.99999332428,-0.999999344349,0.992444396019,-1.0,0.999852001667
p,0.999907851219,-0.996067166328,0.800153613091,0.999741077423,-0.99332255125,-0.999994933605,0.999999880791,-0.999999880791,-0.999937713146,0.955080688,0.99970883131,0.999372184277,0.762762069702,0.999390125275,-0.999863147736,0.999959588051,-0.99994879961,0.857203722,-0.999999284744,0.999923527241
p,0.999875128269,-0.99579000473,0.737278580666,0.999737143517,-0.995810985565,-0.999916493893,0.999997496605,-0.999994695187,-0.999509811401,0.943371355534,0.999356508255,0.999924004078,0.986773848534,0.998349487782,-0.999985694885,0.999999046326,-0.999989569187,0.877681016922,-0.999999046326,0.999979734421
p,0.997973203659,-0.978970766068,0.798723101616,0.991027355194,-0.989418745041,-0.999476730824,0.999976098537,-0.999988436699,-0.999747991562,0.977092623711,0.9996702075,0.998446583748,0.412341833115,0.998796224594,-0.997885107994,0.999908745289,-0.999699473381,0.970809102058,-0.999995827675,0.996009409428
p,0.999996125698,-0.999343276024,0.829503297806,0.999908983707,-0.997372090816,-0.999999701977,1.0,-1.0,-0.999954521656,0.952886164188,0.999393224716,0.999444127083,0.959553062916,0.999612867832,-0.999996364117,0.999997019768,-0.999999046326,0.817432999611,-1.0,0.999996721745
p,0.999947011471,-0.999847769737,0.816094040871,0.999713242054,-0.998392760754,-0.999993801117,0.999999284744,-0.999998629093,-0.999900102615,0.967039108276,0.999664008617,0.999319076538,0.794672429562,0.999285697937,-0.999963760376,0.999998807907,-0.999998927116,0.940091907978,-0.999999880791,0.99991518259
p,0.999833226204,-0.997884631157,0.813967585564,0.999623775482,-0.996377170086,-0.999988436699,0.999998390675,-0.999999642372,-0.999681055546,0.869982004166,0.999297261238,0.994650840759,0.689876914024,0.999414205551,-0.99980956316,0.999999046326,-0.999950170517,0.957307934761,-0.999997913837,0.999702692032
p,0.999810159206,-0.992743968964,0.761419773102,0.997696578503,-0.990443229675,-0.999990046024,0.999996006489,-0.999996125698,-0.999872505665,0.985869824886,0.999401032925,0.998015344143,-0.747747898102,0.999268352985,-0.999909639359,0.999997198582,-0.999993920326,0.883520662785,-0.999998629093,0.999740421772
p,0.99986666441,-0.999524414539,0.754456758499,0.999526321888,-0.986475467682,-0.99990105629,0.999999761581,-0.999999761581,-0.999544143677,0.950125157833,0.999961495399,0.998791575432,0.837312042713,0.999584794044,-0.999540090561,0.999991595745,-0.99999576807,0.951457679272,-0.999998748302,0.999764382839
p,0.999305009842,-0.980425775051,0.69341301918,0.997013807297,-0.988844752312,-0.999993026257,0.999999344349,-0.999999701977,-0.999926328659,0.961019694805,0.999724388123,0.997967004776,-0.505701124668,0.999624848366,-0.999006569386,0.999988079071,-0.999926626682,0.992025434971,-0.999997019768,0.997057080269
p,0.999715864658,-0.998068511486,0.824524044991,0.998391091824,-0.994627296925,-0.999952733517,0.999997854233,-0.999999463558,-0.999467611313,0.909459173679,0.998937785625,0.995275914669,0.967838943005,0.99753755331,-0.999671518803,0.999986231327,-0.999966204166,0.987218677998,-0.999992370605,0.999981760979
p,0.999998986721,-0.999976933002,0.876143455505,0.999993920326,-0.987233579159,-0.999985873699,1.0,-1.0,-0.997074604034,0.680591523647,0.99992120266,0.999887287617,0.995688557625,0.999795258045,-0.999999701977,0.999978065491,-0.999996840954,-0.681422233582,-0.999994814396,0.999999403954
p,0.997993767262,-0.97873711586,0.697408676147,0.995116710663,-0.989042580128,-0.999962210655,0.999965488911,-0.999997138977,-0.998899757862,0.967882931232,0.999079406261,0.992321312428,-0.0920638144016,0.998903751373,-0.999205589294,0.999974250793,-0.999328434467,0.404074221849,-0.999971032143,0.998138189316
p,0.99585545063,-0.637887477875,0.656610310078,1.0,-0.999584257603,-1.0,1.0,-1.0,-1.0,0.999934375286,0.999682128429,0.997617185116,-0.958772838116,0.999992728233,-0.999585986137,0.999999523163,-0.99999588728,0.980076432228,-1.0,0.907540202141
p,0.999733090401,-0.988064706326,0.723965167999,1.0,-0.997809708118,-1.0,1.0,-1.0,-1.0,0.996699512005,0.999753952026,0.996240615845,-0.816498160362,0.999978423119,-0.999635279179,0.999998807907,-0.999987721443,0.992054462433,-1.0,0.982067883015
p,0.997288286686,-0.977807641029,0.688155949116,0.999998629093,-0.997389376163,-1.0,1.0,-1.0,-1.0,0.995819747448,0.999961614609,0.983271837234,-0.948788940907,0.999892950058,-0.998261451721,0.999994933605,-0.9999807477,0.928398489952,-1.0,0.962463617325
p,0.999785661697,-0.983799040318,0.710517287254,1.0,-0.996758878231,-1.0,1.0,-1.0,-1.0,0.979555010796,0.998702228069,0.998753786087,-0.78648006916,0.999693155289,-0.999999701977,0.999995589256,-0.99999409914,0.97064268589,-1.0,0.99812400341
p,0.999984383583,-0.995246469975,0.746228575706,1.0,-0.9933116436,-1.0,1.0,-1.0,-1.0,0.986942648888,0.9998524189,0.999633073807,-0.802980780602,0.999608457088,-1.0,0.999999165535,-1.0,0.992459118366,-1.0,0.998319864273
p,0.99983549118,-0.941998541355,0.679477989674,1.0,-0.997013390064,-1.0,1.0,-1.0,-1.0,0.992348253727,0.999919176102,0.998248636723,-0.947528719902,0.99988257885,-0.999971985817,0.999998807907,-0.999999761581,0.989781737328,-1.0,0.997165441513
p,0.999310851097,-0.971069455147,0.715325653553,0.999998033047,-0.996916890144,-1.0,1.0,-1.0,-1.0,0.998831033707,0.999981224537,0.973470687866,-0.984165966511,0.999861121178,-0.999941945076,0.999995172024,-0.999998033047,0.79118937254,-1.0,0.991021215916
p,0.99973398447,-0.987151503563,0.715831398964,0.999999523163,-0.994317293167,-1.0,1.0,-1.0,-0.999999940395,0.99165135622,0.999987244606,0.999424993992,-0.726960361004,0.999931573868,-0.999892175198,0.999999344349,-0.999994039536,0.916848242283,-1.0,0.996543705463
p,0.999975979328,-0.962770581245,0.616395831108,0.999999880791,-0.994374215603,-1.0,1.0,-1.0,-1.0,0.993502020836,0.999994397163,0.99953597784,-0.783594846725,0.999952495098,-0.999751925468,0.999999701977,-0.999998092651,0.991438925266,-1.0,0.996255338192
p,0.999896287918,-0.985384941101,0.655299007893,0.999918282032,-0.994782209396,-1.0,1.0,-1.0,-0.999999284744,0.987850129604,0.999989509583,0.999210953712,-0.890266299248,0.999980330467,-0.998825550079,0.999999165535,-0.999997794628,0.860875785351,-0.999999940395,0.998175263405
p,0.999945938587,-0.997003614902,0.673182666302,0.999997735023,-0.9919039011,-1.0,1.0,-1.0,-0.999997615814,0.987631559372,0.999999880791,0.998448431492,-0.863394379616,0.99986743927,-0.999206721783,0.999988675117,-0.99998062849,0.486161619425,-0.999999880791,0.995778977871
p,0.999369621277,-0.986904859543,0.714515686035,0.999991297722,-0.99255746603,-1.0,1.0,-1.0,-0.999999046326,0.989823043346,0.999924004078,0.997240483761,-0.784678816795,0.999989390373,-0.997875213623,0.999998927116,-0.999995589256,0.991935253143,-0.999998807907,0.998154044151
h,-0.998947322369,0.311726242304,-0.999999761581,-0.640389800072,0.999623537064,1.0,-0.999689221382,-1.0,0.39368018508,0.997329592705,-0.676368772984,-0.943094611168,1.0,0.971416831017,-0.935404777527,0.99891269207,0.994607567787,0.998968958855,-0.998469948769,0.785571217537
h,0.316248267889,0.0,-1.0,0.732425749302,0.999998986721,-1.0,-0.997390687466,-1.0,0.0411456152797,0.99999922514,-0.589634716511,-1.0,1.0,0.995016217232,0.987633943558,0.999984681606,1.0,0.998172938824,0.880010068417,0.998076200485
h,-0.263107001781,0.0,-0.998833656311,-0.0,0.999987483025,0.360438257456,-0.584624528885,0.535915613174,0.0,0.998980045319,-0.0,-0.999999880791,0.999838769436,0.74324375391,0.00339483865537,0.959669053555,0.999456524849,0.999152243137,0.727293789387,1.0
h,0.98420882225,0.486930817366,-1.0,0.981586873531,0.999906718731,-1.0,-0.999973475933,-1.0,0.013662760146,0.999999701977,-0.5065792799,-1.0,0.999997019768,0.999686419964,-0.588348031044,0.824735462666,0.999909520149,0.958286225796,0.993833720684,0.99680018425
h,0.998158812523,-0.165176987648,-1.0,0.824263572693,0.999987721443,-1.0,0.988069713116,-1.0,-0.0795507729053,0.999996364117,-0.953949451447,-1.0,1.0,0.999348104,0.93507707119,0.999980032444,1.0,0.999953508377,0.999968767166,0.999885618687
h,-0.630763888359,0.783103108406,-0.999887645245,-0.676055431366,0.999831855297,-0.46412050724,-1.0,-0.999490022659,-0.0,0.998850226402,-0.204346746206,-0.999999284744,1.0,0.999981582165,0.767365098,0.0,0.938977718353,0.516227722168,0.862328052521,0.991145372391
h,0.999959468842,0.136388674378,-1.0,1.0,0.999999284744,-1.0,-1.0,-1.0,-0.0385333970189,1.0,-0.0691863149405,-1.0,1.0,0.999999821186,-0.994390964508,0.999824881554,0.988725364208,0.996187031269,0.998352706432,0.999943256378
h,1.0,-0.999969065189,-1.0,1.0,1.0,-1.0,1.0,-1.0,-0.537487268448,1.0,0.770838260651,-1.0,1.0,1.0,-0.999976873398,0.999960482121,1.0,0.999999523163,1.0,1.0
h,0.973261892796,0.230710744858,-0.999929130077,-0.597988069057,0.906014204025,0.249587655067,-0.873530864716,-0.999996781349,-0.0815954133868,0.998065650463,-0.51470631361,-0.999996960163,0.999908447266,0.999972522259,-0.124088451266,0.989323794842,0.999875545502,0.999992191792,-0.839885890484,0.847353219986
h,0.999845325947,0.450752526522,-0.999978363514,0.605375349522,0.989332258701,-1.0,-1.0,-1.0,-0.0556856915355,1.0,-0.587109684944,-0.999961018562,0.808192074299,0.999780654907,0.973797023296,0.659800767899,0.992829501629,0.939699053764,0.0908486694098,0.342584192753
h,-0.706004321575,0.411212742329,-1.0,0.876361012459,1.0,-1.0,-1.0,-1.0,-0.0161184817553,0.999999761581,-0.342461258173,-1.0,1.0,0.997104883194,0.999666273594,0.488036602736,0.99996060133,0.610469639301,0.754653334618,0.999867200851
h,-0.65326654911,0.218138992786,-1.0,0.947235226631,1.0,-1.0,-1.0,-1.0,-0.00859653018415,0.999999761581,-0.400653153658,-1.0,1.0,0.977602720261,0.967028141022,0.694063127041,0.998221993446,0.294758290052,0.672667384148,0.996012866497
h,0.118305705488,0.130859896541,-1.0,0.84386074543,0.999984681606,-1.0,-0.995152592659,-1.0,0.000423676276114,0.999961018562,-0.537434339523,-0.999997913837,0.999995827675,0.992853224277,0.991689026356,0.949422180653,0.999951660633,0.531440198421,0.820246458054,0.981539964676
h,-0.761751234531,0.269081413746,-1.0,0.442444950342,1.0,-1.0,-1.0,-1.0,-0.0279722120613,1.0,-0.392021119595,-0.999999880791,1.0,0.998896956444,0.999905347824,0.757426261902,0.997561395168,0.153429478407,0.481297641993,0.997211158276
h,-0.597827970982,0.0,-1.0,0.558950424194,0.999993920326,-1.0,-0.999997735023,-1.0,-0.0637092068791,0.998923420906,-0.40552380681,-0.999970018864,0.999999523163,0.994589328766,0.997049927711,0.909739911556,0.999888002872,0.428349375725,0.35360583663,0.990580201149
h,-0.554884791374,0.00473852781579,-1.0,0.642917633057,0.999999940395,-1.0,-0.99999922514,-1.0,-0.00332126859576,1.0,-0.361061215401,-1.0,1.0,0.997118353844,0.999219655991,0.946928203106,0.999997675419,0.669558107853,0.610624313354,0.996359050274
h,0.995484352112,-0.944087803364,-0.999981105328,0.999996185303,0.999727845192,-1.0,-0.999927043915,-1.0,-0.412051171064,0.999999642372,0.755325973034,-0.999795675278,1.0,1.0,-0.999997973442,0.999999940395,-0.999999880791,0.998061299324,0.0155008975416,1.0
h,0.574910223484,0.29448902607,-1.0,0.933011710644,0.999998390675,-1.0,-1.0,-1.0,0.0011432961328,0.999980092049,-0.520242869854,-1.0,0.99999576807,0.999994754791,0.116095460951,0.802118599415,0.999978244305,0.996713280678,0.468310296535,1.0
h,-0.936801373959,0.21855352819,-1.0,-0.636593163013,1.0,-1.0,-1.0,-0.999535679817,0.000197434230358,0.999985277653,-0.157598167658,-1.0,0.999999940395,0.999917149544,0.999998629093,0.807724237442,1.0,0.715467393398,0.556162714958,1.0
h,-0.957523047924,0.335542321205,-1.0,-0.51555365324,1.0,-1.0,-1.0,-0.998712182045,0.00031768673216,0.999994039536,-0.162307441235,-1.0,1.0,0.999956429005,1.0,0.673813343048,1.0,0.705072999001,0.640944242477,1.0
h,-0.899028778076,0.223818734288,-1.0,-0.563862979412,1.0,-1.0,-1.0,-0.999996423721,0.000935991934966,0.99994790554,-0.226399168372,-1.0,1.0,0.999946832657,1.0,0.82536137104,1.0,0.883731722832,0.720095276833,1.0
h,-0.602949619293,0.55427056551,-0.999994218349,-0.781659781933,0.999999940395,-1.0,-1.0,-0.979811310768,-0.0,0.999738156796,-0.589459717274,-1.0,-0.996922850609,0.992370784283,1.0,0.358249813318,1.0,0.538572371006,0.340808272362,0.996186375618
h,-0.231874272227,0.346806406975,-0.999993681908,-0.859961748123,0.999938011169,-1.0,-0.957910180092,-1.0,-0.0,0.992270648479,-0.609010756016,-0.99999165535,-0.99997150898,0.986118912697,0.999999761581,0.361879646778,1.0,0.538188099861,0.603626489639,0.864664018154
h,-0.702464878559,0.149073153734,-1.0,-0.746127784252,1.0,-1.0,-1.0,-1.0,-0.00273448275402,0.999764621258,-0.231810763478,-1.0,0.952207565308,0.999969422817,0.999998927116,0.646957039833,0.999998927116,0.814121365547,0.62204259634,1.0
h,0.512583971024,0.0,-1.0,0.804129838943,0.999987363815,-1.0,-1.0,-1.0,0.000275760947261,0.999972879887,-0.403226822615,-1.0,0.999185085297,0.999803245068,0.999922931194,0.806243181229,0.999999880791,0.752284705639,0.746059477329,0.999999344349
h,-0.696773290634,0.0863267481327,-1.0,-0.302494108677,0.99999755621,-1.0,-1.0,-0.999948620796,-0.0057878983207,0.963414549828,-0.326597571373,-0.999999821186,0.993947863579,0.999747216702,0.999978661537,0.908924400806,0.999996304512,0.928666770458,0.369146466255,1.0
h,-0.647026002407,0.232750996947,-1.0,-0.166293933988,1.0,-0.947274506092,-1.0,0.996227860451,-0.00638700323179,0.99998575449,-0.0733892917633,-1.0,0.999997854233,0.998101890087,0.999965250492,0.70046043396,1.0,0.851066470146,0.540327072144,1.0
h,-0.513587415218,0.0677468106151,-1.0,-0.419763803482,0.999751985073,-1.0,-1.0,-0.999999761581,0.00013646496518,0.994207799435,-0.419771015644,-0.999996721745,0.999990284443,0.987621486187,0.998925149441,0.897603690624,1.0,0.933159768581,0.589167833328,0.99989014864
h,-0.834074795246,0.0,-1.0,0.405496329069,0.999999821186,-1.0,-1.0,-1.0,-0.0149776246399,0.999979197979,-0.276789426804,-1.0,1.0,0.99948656559,0.999960958958,1.0,1.0,0.944056630135,0.559346318245,1.0
h,-0.533125638962,0.0,-1.0,-0.175280883908,1.0,0.131156221032,-0.756584048271,1.0,-0.0102143520489,0.991447269917,-0.0,-1.0,0.999998450279,0.886625885963,0.928162693977,0.656374394894,0.997161388397,0.815321147442,0.285624206066,1.0
h,-0.582756400108,0.104229144752,-0.999997973442,-0.546870529652,0.999976396561,-0.999823331833,-1.0,-0.785040974617,0.000541008426808,0.838422060013,-0.200336143374,-0.999986290932,0.965387940407,0.990976929665,0.999212861061,0.870857298374,0.999306857586,0.888226270676,0.48073014617,0.999924838543
h,-0.607973277569,0.0,-1.0,-0.227204978466,1.0,-1.0,-1.0,-1.0,-0.00640479894355,0.999992966652,-0.225156009197,-1.0,0.899297893047,0.891438961029,1.0,0.895714759827,1.0,0.749086797237,0.311950773001,1.0
h,-0.638831198215,0.0,-1.0,0.376296788454,0.999999821186,-1.0,-0.97966170311,-1.0,-0.0539956279099,0.999954283237,-0.240727856755,-1.0,0.839444458485,0.999676823616,0.99999833107,0.999983787537,1.0,0.820932149887,0.184593304992,1.0
h,-0.87486320734,0.305228888988,-1.0,-0.228180274367,1.0,0.829811930656,-0.783533394337,0.982397794724,-0.0,0.999995291233,-0.0,-1.0,1.0,0.999600231647,0.448392897844,0.566147744656,1.0,0.96864759922,0.639555215836,1.0
h,1.0,-0.480343610048,-1.0,1.0,0.999634385109,-1.0,1.0,-1.0,-0.271904319525,0.999994456768,-0.961993455887,-1.0,1.0,0.999991238117,-0.995501935482,0.940302670002,1.0,0.999812602997,0.843451559544,0.990764915943
h,1.0,-0.998164594173,-0.999999940395,1.0,0.999290466309,-1.0,1.0,-1.0,-0.631974577904,1.0,0.99982637167,-1.0,1.0,1.0,-1.0,0.999980151653,-0.998750567436,0.999923229218,0.719559907913,1.0
h,0.870376825333,-0.994983553886,-0.0957011207938,0.651093542576,-0.980013787746,-1.0,1.0,-0.999999523163,-0.999850034714,-0.689176499844,0.999676346779,0.853116571903,-0.736036598682,0.999793827534,-0.990911960602,0.995407521725,-0.999940514565,-0.570416510105,-0.881486356258,0.886631011963
h,0.999005079269,-0.999999821186,0.191192030907,-0.999912679195,-0.999501407146,-1.0,1.0,-1.0,-0.99870043993,0.9873290658,0.899850487709,1.0,0.999998629093,0.99998742342,-1.0,0.999985933304,-1.0,0.999952793121,-1.0,1.0
h,0.954919874668,-0.0346181020141,-1.0,0.788913607597,0.999797463417,-1.0,0.36514288187,-1.0,-0.0190594531596,0.998634815216,-0.845772206783,-1.0,1.0,0.997580707073,0.527517139912,0.999660670757,1.0,0.99981290102,0.999657928944,0.999485909939
h,-0.564751625061,0.0,-1.0,-0.17469227314,0.999978065491,-1.0,-1.0,-1.0,-0.0056775691919,0.999860405922,-0.29321834445,-1.0,0.999993622303,0.999661266804,0.998214364052,0.915263652802,0.999998450279,0.947515904903,0.423268705606,0.999987721443
h,1.0,-1.0,-1.0,1.0,0.999937653542,-1.0,-0.879917562008,-1.0,-0.189834684134,1.0,0.966431200504,-0.987450480461,1.0,1.0,-1.0,1.0,-1.0,1.0,-0.98490023613,1.0
h,-0.605179905891,0.274185419083,-1.0,-0.986131072044,0.999999880791,-1.0,-1.0,-0.999983072281,-0.00152524723671,0.999998927116,-0.23565299809,-0.999914824963,0.959527552128,0.999152719975,0.999947190285,0.496661871672,0.999995470047,0.794981122017,0.646225214005,0.999865829945
h,-0.729531288147,0.0,-1.0,-0.0,1.0,0.56564694643,-0.662274718285,0.999861061573,-0.00119354517665,0.999971032143,-0.0,-1.0,1.0,0.993312060833,0.915310800076,0.99593347311,1.0,0.996750473976,0.676323533058,1.0
h,-0.974305033684,0.0,-0.999999821186,-0.0,1.0,0.446014761925,-0.679792523384,0.755257070065,0.0,0.999995291233,-0.0,-1.0,1.0,0.992787063122,0.257988870144,0.992015838623,0.999892234802,0.999830782413,0.936154782772,1.0
h,-0.918961882591,0.0628739595413,-0.999899804592,-0.416179984808,0.999964416027,-0.845201432705,-1.0,0.999370276928,-0.00854295212775,1.0,0.000750493549276,-0.999998509884,1.0,0.995317399502,-0.99991351366,0.937013566494,-0.999661266804,0.995237469673,0.301974564791,1.0
h,-0.999450623989,0.0322709977627,-1.0,-0.0,1.0,0.587332844734,-0.751510441303,0.999782621861,-8.1961621845e-07,0.999215960503,-0.0,-1.0,1.0,0.984935522079,0.275844037533,0.997107446194,0.999724030495,0.975758254528,0.490904539824,1.0
h,-0.728864133358,0.683832526207,-0.999999403954,-0.9998472929,1.0,0.999739050865,-1.0,0.998955190182,-0.0,0.999974370003,-0.0734482333064,-1.0,0.999987006187,0.9990208745,0.541183233261,0.356710761786,0.793888986111,0.676769793034,0.00432996312156,1.0
h,-0.618438899517,0.0,-1.0,-0.0,1.0,0.497037321329,-0.752690076828,0.909716904163,-2.43258291448e-05,0.999974429607,-0.0,-1.0,0.99988514185,0.977876782417,0.863829672337,0.97732424736,0.999999940395,0.991462886333,0.666849851608,1.0
h,1.0,-0.994628787041,-1.0,1.0,0.999995231628,-1.0,-1.0,-1.0,-0.273499011993,1.0,0.500403642654,-1.0,1.0,1.0,-0.99988669157,0.994225680828,-1.0,0.999996423721,0.908438324928,1.0
h,-0.889403700829,0.0813419818878,-1.0,-0.508578419685,1.0,-0.987571060658,-1.0,-0.999998211861,0.0,1.0,-0.13911010325,-1.0,1.0,0.997825264931,0.999696969986,0.999990522861,1.0,0.981812357903,0.969641923904,1.0
h,-0.85465824604,0.106288105249,-0.999635577202,-0.00687029957771,1.0,0.512332201004,-0.711985290051,0.568920373917,0.0896991863847,1.0,0.0,-0.999999821186,0.999997794628,0.995402157307,-0.339292913675,0.992479383945,-1.0,0.997633457184,0.620732665062,1.0
h,0.930285930634,-0.465716540813,-1.0,0.271314054728,0.999938011169,-1.0,-1.0,-1.0,-0.00119697372429,1.0,-0.304638504982,-1.0,1.0,0.999999880791,-0.999987244606,0.762307345867,-0.482724905014,0.998767733574,0.544036924839,0.999783396721
h,-0.99099034071,0.328527987003,-1.0,-0.661738336086,1.0,-1.0,-1.0,-0.999999880791,-0.00117497250903,1.0,-0.107401646674,-1.0,1.0,0.999557375908,0.999986708164,0.540569245815,1.0,0.935378372669,0.833568751812,1.0
h,-0.984006285667,0.131585076451,-1.0,-0.354884207249,1.0,-0.922790825367,-0.995743274689,-0.999997258186,0.00140441511758,1.0,-0.108864039183,-1.0,1.0,0.995634317398,0.999969005585,0.861349821091,0.999996960163,0.861797392368,0.437512695789,1.0
h,-0.651926517487,0.0,-1.0,-0.0202371254563,1.0,-0.819849491119,-1.0,-1.0,-0.164337575436,0.999293684959,-0.384795159101,-1.0,0.920748829842,0.994145691395,0.999999403954,0.999982059002,1.0,0.98739439249,0.315479695797,1.0
h,-0.968828201294,0.131143286824,-1.0,-0.265330404043,1.0,-0.984702706337,-1.0,-0.999999880791,-0.0199204161763,0.999999940395,-0.196432426572,-1.0,1.0,0.999556660652,0.999999403954,0.999999463558,1.0,0.991619706154,0.743743538857,1.0
h,0.795428574085,0.239973023534,-1.0,0.999248147011,0.999949812889,-1.0,-0.999999880791,-1.0,-0.134266600013,0.999998152256,-0.651018381119,-1.0,1.0,0.999773621559,-0.804920494556,0.97668248415,0.999818623066,0.992001771927,0.762184560299,0.999744653702
h,-0.742218911648,0.0,-1.0,-0.0204290449619,1.0,0.607533454895,-0.772670507431,-0.916202485561,-0.00248738471419,0.999999642372,-0.0025384624023,-1.0,1.0,0.999443411827,-0.553576052189,0.982256174088,0.999349176884,0.998439669609,0.783410727978,1.0
h,1.0,-0.965590536594,-1.0,0.999996066093,0.99949067831,-1.0,-0.999230265617,-1.0,-0.680561542511,1.0,0.931758344173,-1.0,1.0,1.0,-1.0,1.0,-1.0,1.0,-0.97145730257,1.0
h,-0.991597414017,0.232128575444,-1.0,-0.406692713499,1.0,-0.943966984749,-1.0,-1.0,0.0,1.0,-0.13268904388,-1.0,1.0,0.997516155243,0.998539865017,1.0,1.0,0.998785197735,0.999541163445,1.0
h,0.822232306004,0.126287356019,-0.999999642372,0.998262524605,0.999721646309,-1.0,-0.999999940395,-1.0,-0.046048309654,0.999576628208,-0.453127205372,-0.999970853329,1.0,0.999619424343,-0.906389474869,0.999784111977,0.991844117641,0.86858355999,0.874132931232,0.991009712219
h,-0.772968292236,0.0,-1.0,-0.64653468132,1.0,-1.0,-1.0,-1.0,0.0,1.0,-0.0432559065521,-1.0,1.0,0.935795843601,0.999999880791,0.6976583004,1.0,0.995501041412,0.814651548862,0.999999940395
h,-0.995409607887,0.242398768663,-1.0,-0.413405537605,1.0,-1.0,-1.0,-0.99981212616,-0.0,1.0,-0.0692797526717,-1.0,1.0,0.995106399059,1.00000011921,0.802148580551,1.0,0.994999885559,0.877406001091,1.0
A,0.960083067417,-0.993412852287,0.519273579121,0.863408446312,-0.99286788702,-0.861723601818,0.999904453754,-0.99842864275,-0.977464318275,0.955065906048,0.999994456768,0.951405525208,-0.597715258598,0.999962091446,-0.999412178993,0.998271107674,-0.999929606915,-0.955413341522,-0.999985456467,0.987965643406
A,0.898702442646,-0.999912321568,0.239786654711,-0.797455132008,-0.999286413193,-0.850934267044,0.99992442131,-0.995378851891,-0.787277519703,0.524631798267,0.999990463257,0.661816954613,0.419540464878,0.999965369701,-0.999916136265,0.999722361565,-0.999944746494,-0.99970293045,-0.999998092651,0.992489039898
A,0.909010529518,-0.950493752956,0.554766237736,0.828835070133,-0.980886638165,-0.724928438663,0.999551594257,-0.992916703224,-0.974999308586,0.950212419033,0.999983012676,0.934906840324,-0.468365758657,0.999569892883,-0.998909473419,0.999088823795,-0.999886333942,-0.819416463375,-0.999915122986,0.9758425951
A,0.856301009655,-0.991511762142,0.205299094319,-0.937555670738,-0.997131884098,-0.849790334702,0.996849477291,-0.997899055481,-0.334300071001,0.980294585228,0.999833166599,0.382404267788,-0.729137837887,0.999221086502,-0.910731673241,0.989320635796,-0.998070955276,-0.995887756348,-0.999013245106,0.601740419865
A,0.995238125324,-0.997537255287,0.813939094543,0.999418020248,-0.946667253971,-0.982964992523,0.999999463558,-0.999996364117,-0.98897767067,-0.251380354166,0.999816656113,0.99615496397,0.892114758492,0.997764706612,-0.999738156796,0.999174654484,-0.998999297619,-0.992029130459,-0.987693428993,0.999333500862
A*,0.854262471199,-0.7499371171,0.0412899591029,-0.989809215069,-0.998650312424,-0.792269468307,0.998825788498,-0.926605224609,-0.625025808811,0.955347418785,0.995786964893,0.430889517069,0.259858071804,0.999963879585,-0.937005341053,0.999734818935,-0.999823629856,0.761714756489,-0.999996125698,0.941875457764
A*,-0.227051749825,-0.7157984972,-0.552736341953,-0.837973535061,-0.990778684616,-0.889981687069,0.999994218349,-0.998848378658,-0.442175328732,0.00643887370825,0.621902763844,-0.352283865213,-0.117356054485,0.81016933918,-0.529840350151,0.988969027996,-0.683578491211,0.017878593877,-0.980180323124,0.802754402161
A*,0.963623642921,-0.917480826378,-0.01702561602,-0.987757980824,-0.999689519405,-0.991289377213,0.99978518486,-0.998584568501,-0.704673171043,0.999164164066,0.999912559986,0.349976569414,-0.250251233578,0.999997496605,-0.995381057262,0.99900239706,-0.99985408783,-0.810315787792,-0.999999523163,0.96964776516
A,0.999461531639,-0.999867320061,0.836433827877,0.90600079298,-0.992257297039,-0.990766048431,1.0,-0.999998807907,-0.992870926857,0.117926552892,0.99999833107,0.999728322029,0.138774245977,0.999221265316,-0.999994277954,0.999902367592,-0.999994397163,-0.994810521603,-0.999944150448,0.999621927738
A,0.994020760059,-0.995432138443,0.651115775108,0.84384304285,-0.992101311684,-0.892222106457,0.999999880791,-0.999999284744,-0.98905402422,0.693987250328,0.999995708466,0.994438648224,-0.71075797081,0.999893724918,-0.998953700066,0.999976575375,-0.999962329865,-0.87383711338,-0.999976575375,0.997371017933
A,0.999601244926,-0.999977648258,0.736723721027,0.84988451004,-0.987903535366,-0.828752040863,1.0,-0.999999284744,-0.935544312,-0.918268322945,0.999955296516,0.999642252922,0.668799459934,0.998798489571,-0.946615278721,0.996703743935,-0.999981403351,-0.999946415424,-0.885270357132,0.999520599842
A*,0.980415403843,-0.996441483498,-0.583630502224,0.995998084545,-0.774329483509,-0.988414287567,0.999920606613,-0.995978057384,0.0178950764239,-0.422942817211,0.998908936977,0.234146714211,0.922253727913,-0.996220648289,-0.999356508255,0.951522231102,-0.93308031559,-0.999702095985,-0.572114944458,0.95002746582
A*,0.586018502712,-0.992674648762,-0.118550680578,-0.691076636314,-0.987171769142,-0.411135852337,0.994708180428,-0.80168068409,-0.228971496224,-0.438640713692,0.981489896774,0.153453469276,0.610783994198,-0.287982076406,-0.903664886951,0.787735402584,-0.664133965969,-0.99458616972,-0.865995824337,0.723344862461
A*,0.625084996223,-0.893884599209,-0.511449873447,-0.901330411434,-0.988529801369,-0.986199438572,0.999700248241,-0.999080240726,-0.419848442078,0.834339618683,0.890028655529,-0.411926805973,-0.232984751463,0.989166736603,-0.861836016178,0.99566334486,-0.847374379635,-0.354758292437,-0.970986664295,0.930413961411
A*,0.0832465812564,-0.955743908882,-0.647475659847,-0.767867922783,-0.985849559307,-0.969935595989,0.999316692352,-0.998162090778,-0.244633957744,0.948839366436,0.918401479721,-0.649679899216,0.829727470875,0.96850758791,-0.940653204918,0.993953943253,-0.925672411919,-0.851943552494,-0.991438269615,0.968702912331
A*,0.424892604351,-0.498999834061,-0.391150057316,-0.574700593948,-0.969894349575,-0.710549592972,0.987246572971,-0.990158617496,-0.343846708536,0.651322484016,0.381872266531,0.0128590073436,-0.422153055668,0.853263676167,-0.0814564302564,0.905079066753,-0.379682391882,0.0460075438023,-0.863847970963,0.416835606098
A,0.768424034119,-0.995099186897,0.0847724080086,-0.610072135925,-0.996052861214,-0.995066285133,0.99951082468,-0.999292731285,-0.554892003536,0.930721998215,0.999869048595,0.5168633461,-0.644826710224,0.996309578419,-0.991996467113,0.989174008369,-0.997664630413,-0.98959416151,-0.994937181473,0.93897819519
A,0.956856846809,-0.998014271259,0.231835886836,-0.395662903786,-0.918331444263,-0.741043150425,0.999964654446,-0.999234080315,-0.917568445206,-0.649932324886,0.999914526939,0.899671971798,0.315352469683,0.996719837189,-0.842566549778,0.995770871639,-0.999311864376,-0.983809828758,-0.993593633175,0.995692312717
A*,0.585865676403,-0.994187414646,-0.657162070274,-0.871711671352,-0.913584291935,-0.935444951057,0.99981045723,-0.999406397343,-0.394551932812,0.347732573748,0.946194827557,-0.485672056675,0.19955201447,0.625283360481,-0.946490585804,0.992881178856,-0.735454142094,-0.952958643436,-0.970992684364,0.937999069691
A,0.751849353313,-0.922182738781,-0.750847816467,-0.993365347385,-0.999989449978,-0.999612748623,0.999863982201,-0.999893188477,-0.55201369524,0.997997641563,0.996248185635,-0.355863779783,0.769547998905,0.999959766865,-0.893608033657,0.999700129032,-0.999839484692,-0.0224927254021,-0.999993860722,0.992571175098
A,0.808796942234,-0.991512417793,0.486211061478,0.727816283703,-0.987834870815,-0.983159422874,0.999704062939,-0.999597072601,-0.705373227596,0.832167685032,0.999889075756,0.64394390583,-0.431853890419,0.943229556084,-0.99361115694,0.936603546143,-0.994045138359,-0.993104279041,-0.939489483833,0.906842589378
A,0.89067107439,-0.997857868671,0.51785326004,0.73284393549,-0.975011765957,-0.867736577988,0.999684393406,-0.99844700098,-0.75990062952,0.226897701621,0.99993544817,0.820183992386,-0.178299993277,0.917102575302,-0.992791771889,0.988906681538,-0.995645523071,-0.997699141502,-0.961953282356,0.963182866573
A,0.995494604111,-0.999855518341,0.667441606522,0.438496291637,-0.974827051163,-0.766805708408,0.999997794628,-0.999914884567,-0.971547842026,0.218300834298,0.999907851219,0.993959248066,-0.44999486208,0.999384343624,-0.999527513981,0.999884307384,-0.999151051044,-0.996508061886,-0.999487519264,0.998184740543
A,0.719380557537,-0.985846996307,0.295666664839,-0.227501273155,-0.994573414326,-0.896071255207,0.997676968575,-0.996794342995,-0.237147986889,0.807203769684,0.999785244465,0.573994755745,-0.0551346167922,0.826793968678,-0.938688397408,0.904175162315,-0.98044103384,-0.992193102837,-0.9167791605,0.575154721737
A,0.893728494644,-0.98833745718,0.686411619186,0.766749024391,-0.987164974213,-0.843069136143,0.998729228973,-0.999579906464,0.461501330137,0.806688010693,0.999540328979,0.566456258297,0.650919020176,0.154840916395,-0.993498086929,0.737326681614,-0.993038117886,-0.998394191265,-0.985537350178,-0.533705890179
A,0.947220683098,-0.998452842236,0.42888507247,-0.70181542635,-0.99553579092,-0.769290804863,0.999920487404,-0.999582469463,-0.421773850918,-0.105552949011,0.999989390373,0.84510654211,-0.156876131892,0.985906302929,-0.923111021519,0.992711544037,-0.999231815338,-0.999826312065,-0.999643981457,0.957809448242
A*,0.624358832836,-0.974370241165,-0.613703012466,-0.531488597393,-0.94426047802,-0.995579719543,0.999468028545,-0.999352812767,-0.397777467966,0.77094656229,0.832660138607,-0.559310376644,-0.00608052220196,0.846501588821,-0.934212744236,0.991078555584,-0.709634780884,-0.759567260742,-0.943849921227,0.957596600056
A,0.832707226276,-0.999965488911,0.358177483082,-0.763695776463,-0.996237814426,-0.680435955524,0.999999880791,-0.999960482121,-0.960327804089,-0.125598281622,0.998698532581,0.999437630177,0.839891910553,0.999806046486,-0.999979197979,0.99790430069,-0.999981880188,-0.965419530869,-0.973530054092,0.999926328659
A,0.948331058025,-0.999990999699,0.171443268657,-0.9882132411,-0.99879270792,-0.965020418167,0.999990642071,-0.999809682369,-0.611133635044,0.776216387749,0.999994814396,0.830975413322,0.527646005154,0.999871551991,-0.999248564243,0.999408602715,-0.999973297119,-0.998775184155,-0.999995350838,0.997248888016
A*,0.988675653934,-0.922095179558,-0.768826246262,-0.794301450253,-0.998584508896,-0.99225884676,0.999641120434,-0.999857068062,-0.391449689865,0.999721646309,0.990520954132,-0.843177616596,0.954601466656,0.999774158001,-0.979253172874,0.999810576439,-0.998893201351,0.904007554054,-0.999781608582,0.95915722847
A,0.957959294319,-0.218649789691,0.0206947438419,-0.17335857451,-0.999320447445,0.247077569366,0.00582228647545,0.428606808186,-0.0247719716281,0.878805756569,0.393998086452,0.613553404808,0.678947091103,0.987435638905,-0.590303897858,0.971726596355,-0.779048621655,0.999472141266,-0.999885439873,0.999341547489
A,0.995548844337,-0.614343225956,0.38115182519,-0.277897149324,-0.870824933052,0.335597991943,0.656027317047,0.397273123264,-0.332573443651,0.674826920033,0.718117594719,0.980727672577,0.420741707087,0.999401569366,-0.602083027363,0.987628102303,-0.919317603111,0.799089670181,-0.999643743038,0.995184481144
A,0.998976945877,-0.97526794672,0.68180847168,0.998634517193,-0.996770322323,-0.998685181141,0.999998033047,-0.999998569489,-0.998273015022,0.993903338909,0.999986946583,0.991226196289,-0.915930211544,0.999624967575,-0.998685181141,0.999848663807,-0.999948203564,-0.614325582981,-0.999963521957,0.98739361763
A,0.999853610992,-0.999967098236,0.807991087437,0.905240118504,-0.994599401951,-0.9959628582,1.0,-0.999999880791,-0.990425825119,-0.137437805533,0.99999833107,0.99973398447,0.588083088398,0.999809205532,-0.999987602234,0.999975264072,-0.999997138977,-0.998305082321,-0.999948620796,0.999766051769
A,0.999912440777,-0.99998819828,-0.405295580626,0.981032013893,-0.992981672287,-0.980746984482,1.0,-0.999999523163,-0.989201903343,-0.807494997978,0.999758839607,0.999811470509,0.975525319576,0.994531750679,-0.999999344349,0.998039424419,-0.999999880791,-0.991920650005,-0.978318035603,0.999972045422
A,0.997210502625,-0.998307645321,0.705378234386,0.997166514397,-0.983471214771,-0.995413422585,0.999999940395,-0.999999284744,-0.996661007404,0.0173697266728,0.999303460121,0.996713876724,0.532002329826,0.999626815319,-0.999983370304,0.999930143356,-0.999936342239,0.363442271948,-0.992145836353,0.999680876732
A*,0.908264696598,-0.97135668993,0.110889069736,-0.90016245842,-0.993728995323,-0.909185528755,0.999934375286,-0.999530076981,-0.963626027107,0.593397498131,0.999151706696,0.710999846458,-0.42631560564,0.995284497738,-0.999319374561,0.996524989605,-0.997498750687,-0.639122903347,-0.999934256077,0.926719605923
A*,0.936852157116,-0.99998486042,-0.0124691780657,-0.995840728283,-0.999318301678,-0.999675154686,0.999999821186,-0.999998688698,-0.783651828766,0.80428570509,0.999999463558,0.782983541489,0.0722993910313,0.999998033047,-0.999987542629,0.999442517757,-0.999992847443,-0.984237730503,-0.999999761581,0.978359401226
A*,0.918324887753,-0.941504597664,-0.517163157463,-0.772800803185,-0.99850744009,-0.999113440514,0.999438822269,-0.999662637711,-0.601202130318,0.980474293232,0.990186810493,0.0235184822232,0.143779471517,0.998359978199,-0.92670750618,0.99976336956,-0.997464478016,0.337267756462,-0.999065876007,0.935000360012
A*,0.502172112465,-0.994469165802,-0.00308153638616,-0.996120154858,-0.999639749527,-0.847789108753,0.999058842659,-0.993974149227,-0.623484909534,0.755772709846,0.998752295971,0.603781700134,-0.0115250609815,0.998635411263,-0.991897284985,0.994566321373,-0.999616086483,-0.947527587414,-0.999987244606,0.969422578812
A,0.999263882637,-0.999819338322,0.712529480457,0.899842441082,-0.984865605831,-0.899817466736,0.999999880791,-0.999998986721,-0.986983478069,0.108786702156,0.999997198582,0.999037563801,0.0529412142932,0.999245107174,-0.999991178513,0.99823474884,-0.999980688095,-0.979926288128,-0.999580025673,0.999394118786
A*,0.726830303669,-0.99473720789,-0.131653189659,-0.994272053242,-0.996970891953,-0.773146927357,0.999773442745,-0.999166429043,-0.36452883482,0.930069208145,0.993388295174,0.0524070747197,0.735975146294,0.991749405861,-0.98322147131,0.958383381367,-0.998959958553,-0.768135130405,-0.99993622303,0.988788187504
A*,0.873464763165,-0.989543199539,0.213107734919,-0.938491284847,-0.998464167118,-0.921397328377,0.999552726746,-0.997190833092,-0.665643632412,0.789361655712,0.999940514565,0.846359789371,-0.410621702671,0.996580481529,-0.994715809822,0.993676245213,-0.999482750893,-0.986550629139,-0.99984228611,0.906428098679
A*,0.566677510738,-0.963434994221,-0.0935030058026,-0.907171726227,-0.980855941772,-0.556626856327,0.999705791473,-0.99773478508,-0.584165394306,0.255820542574,0.992242336273,0.351383179426,-0.254036515951,0.914940834045,-0.957160890102,0.971998989582,-0.964589416981,-0.746887922287,-0.993803620338,0.690808594227
A*,0.641128838062,-0.984982788563,0.0225662067533,-0.799574434757,-0.975235879421,-0.976280033588,0.999005734921,-0.997433543205,-0.647023499012,0.921107947826,0.998470008373,0.203958898783,-0.578039348125,0.99141317606,-0.99636387825,0.967747986317,-0.997995972633,-0.915990233421,-0.998890995979,0.844571888447
A*,0.400231659412,-0.228500068188,0.0570851005614,-0.255741328001,-0.806506574154,-0.26900601387,0.928583860397,-0.838676989079,-0.51908415556,0.458050847054,0.942677378654,0.470073252916,-0.565130054951,0.650280475616,-0.896414875984,0.882049739361,-0.606976807117,-0.844091236591,-0.811664164066,0.267997175455
A,0.982763469219,-0.999580144882,0.401781350374,0.60417175293,-0.990261495113,-0.910711288452,0.999989271164,-0.999976336956,-0.880992650986,-0.223429277539,0.999985218048,0.83805167675,-0.591501355171,0.992650151253,-0.999500274658,0.997960090637,-0.999238193035,-0.999470412731,-0.997606039047,0.991156876087
A*,0.708890676498,-0.772062063217,-0.05962080881,-0.859980642796,-0.988818347454,-0.929711163044,0.998590946198,-0.994208693504,-0.640603542328,0.836151838303,0.965334177017,0.521994709969,-0.519419133663,0.977301239967,-0.882998287678,0.967558562756,-0.969578504562,-0.183903023601,-0.991253733635,0.746932506561
A,0.999998092651,-0.999995112419,0.0583390183747,0.998702168465,-0.993681371212,-0.988172769547,1.0,-0.999999284744,-0.998094141483,-0.0802392363548,0.999273478985,0.999928116798,0.981636345387,0.999988973141,-0.999999821186,0.999991416931,-1.0,0.996184527874,-0.99741345644,1.0
A,0.991325855255,-0.999917805195,0.514980912209,0.495016604662,-0.987916529179,-0.790113329887,0.999999642372,-0.999996781349,-0.970578432083,0.307488441467,0.999998986721,0.993694007397,-0.760199606419,0.999654471874,-0.954461455345,0.999812066555,-0.99990272522,-0.99975079298,-0.999905645847,0.996979355812
A,0.998173236847,-0.999605000019,0.615208566189,-0.408955812454,-0.996137678623,-0.900706470013,0.999998927116,-0.999972522259,-0.965264678001,0.303833633661,0.999998152256,0.998976230621,0.209550157189,0.999600589275,-0.999837517738,0.999798417091,-0.999980866909,-0.997902214527,-0.999891519547,0.999012947083
A,0.988485991955,-0.995497882366,0.593144953251,-0.519930005074,-0.997527897358,-0.908062577248,0.999977052212,-0.999805450439,-0.973238825798,0.759742200375,0.999985456467,0.990859508514,-0.320903629065,0.999377667904,-0.998396813869,0.999864041805,-0.999660670757,-0.966851234436,-0.999963641167,0.996466577053
A,0.999998748302,-0.999950766563,0.496427237988,0.908077418804,-0.999955832958,-0.999856889248,1.0,-0.999999880791,-0.971669971943,0.971306860447,0.999998033047,0.98610919714,0.929891228676,0.999654531479,-0.999998569489,0.999984681606,-0.999999344349,-0.969770491123,-1.0,0.999999642372
A,0.997958660126,-0.995497047901,0.735221743584,0.589677810669,-0.987936139107,-0.999543368816,0.999999821186,-0.999999165535,-0.983052611351,0.927384912968,0.999957740307,0.998328864574,-0.87929135561,0.999590039253,-0.999444901943,0.999907672405,-0.999812722206,-0.979131758213,-0.999814271927,0.998659789562
A,0.999469935894,-0.998690724373,0.752267360687,0.990216135979,-0.9978774786,-0.998722136021,0.999999642372,-0.999994039536,-0.993429124355,0.559690713882,0.999988734722,0.996529400349,0.446188867092,0.999316990376,-0.999962925911,0.99998497963,-0.999949812889,-0.997454285622,-0.999977111816,0.999849021435
A,0.965972185135,-0.999872982502,0.230643004179,-0.987579405308,-0.999577820301,-0.841311573982,0.999992668629,-0.99258184433,-0.413790434599,0.936429202557,0.999999761581,0.704542577267,-0.280807971954,0.999986946583,-0.999860644341,0.998602151871,-0.999989032745,-0.999808132648,-0.999999940395,0.981302082539
A,0.995768129826,-0.99994790554,0.044881504029,0.974738359451,-0.997725129128,-0.998664498329,1.0,-0.999998748302,-0.985820114613,-0.599865019321,0.999983489513,0.823635160923,0.549515128136,0.996621966362,-0.999995708466,0.99963837862,-0.999934077263,-0.999884366989,-0.993687868118,0.998710513115
A*,0.999890446663,0.815830528736,-0.0212814770639,-0.522289037704,-0.999897062778,0.335935264826,-0.0170716103166,0.551248788834,0.0,0.996684670448,0.551915884018,0.3432097435,0.743508040905,0.995864391327,-0.671633839607,0.999697327614,-0.983953952789,0.970207750797,-0.999898016453,0.385597407818
A,0.999428451061,-0.999932587147,0.121787182987,0.81619822979,-0.997006654739,-0.988101243973,1.0,-0.999995827675,-0.996952474117,-0.43939858675,0.999985516071,0.998889446259,0.936080873013,0.998942136765,-0.999986588955,0.999714136124,-0.999997317791,-0.979321777821,-0.999863386154,0.999925792217
A,0.957456946373,-0.87402266264,0.0594959408045,-0.858075201511,-0.997933804989,-0.470941066742,0.999307632446,-0.937893092632,-0.616290926933,0.994311392307,0.999999284744,0.500323116779,-0.196908414364,0.99997317791,-0.998433291912,0.998087823391,-0.99907875061,-0.991419553757,-0.999999880791,0.647612333298
A,0.795914709568,-0.999064922333,0.0951235443354,-0.985050022602,-0.999872803688,-0.895279586315,0.999541521072,-0.993126809597,0.148430079222,0.996729195118,0.99999833107,0.374680280685,0.526766419411,0.999972939491,-0.997182905674,0.997881770134,-0.999770760536,-0.999915242195,-0.999999880791,0.495998233557
A*,0.951215863228,-0.997321724892,-0.237283676863,-0.0923348963261,-0.991951167583,-0.999720990658,0.99931114912,-0.999916791916,0.00459926575422,0.99705851078,0.98975777626,-0.475961059332,-0.481318920851,0.995228767395,-0.918577134609,0.985972881317,-0.993457138538,-0.989672243595,-0.998307883739,0.397605001926
A*,0.521960496902,-0.921090960503,0.024818783626,-0.702610135078,-0.948798000813,-0.663531780243,0.988838434219,-0.955967247486,-0.335044652224,0.943155944347,0.978839337826,0.142217874527,-0.692894220352,0.910624980927,-0.914139926434,0.915757417679,-0.932383060455,-0.985757470131,-0.996746361256,0.244760736823
A*,0.862134695053,-0.403658866882,-0.572851896286,-0.107271544635,-0.989408969879,-0.996800303459,0.996708333492,-0.995850324631,-0.0624790862203,0.898506879807,0.953383922577,-0.163166731596,-0.448102682829,0.880369663239,0.178431048989,0.978415489197,-0.589935481548,-0.978666007519,-0.930613934994,-0.653059840202
A,0.97623115778,-0.997113406658,0.359341800213,-0.026898002252,-0.997038900852,-0.729626238346,0.999961018562,-0.996917366982,-0.945174157619,0.00316201569512,0.99999755621,0.945148050785,0.270626485348,0.999445557594,-0.992897391319,0.99939841032,-0.999787569046,-0.999161541462,-0.999997258186,0.99385625124
A,0.876514911652,-0.995832741261,0.47169688344,0.912565290928,-0.977619171143,-0.788153588772,0.999971449375,-0.999861180782,-0.87946754694,0.657951653004,0.999989688396,0.955515563488,-0.817310512066,0.99627071619,-0.996275424957,0.999405503273,-0.998038232327,-0.999905705452,-0.998755037785,0.972452163696
A*,0.997844338417,-0.999992012978,0.822395145893,0.996560394764,-0.99901252985,-0.911607801914,0.999995589256,-0.999995648861,0.802832305431,0.9854824543,1.0,0.307125359774,0.98668050766,0.922447085381,-0.99996137619,0.957502603531,-0.999833464622,-1.0,-0.999999046326,0.00931069161743
A,0.925850689411,-0.999987185001,0.39135286212,-0.819634199142,-0.997209846973,-0.637597858906,0.999999761581,-0.999257922173,-0.237769454718,-0.687524914742,0.999999463558,0.72772449255,0.616489112377,0.944755792618,-0.895030200481,0.979865670204,-0.911702573299,-0.999992072582,-0.817576348782,0.899271786213
A*,0.990915238857,-0.770374238491,0.0991319641471,-0.81105017662,-0.998779714108,0.332373023033,0.875509083271,0.488946437836,0.407412648201,0.978753626347,0.999753117561,0.404043316841,0.763326108456,0.997814834118,-0.880063951015,0.996298611164,-0.999546825886,-0.969960510731,-0.999961018562,-0.498796582222
A,0.997506856918,-0.999952375889,0.500045418739,0.449080646038,-0.998808383942,-0.931776762009,0.999999344349,-0.999764859676,-0.930130720139,0.170408532023,1.0,0.995010972023,0.619972527027,0.999273657799,-0.999963879585,0.999851465225,-0.999948382378,-0.999997794628,-1.0,0.998899698257
A,0.999860644341,-0.999995470047,-0.839078724384,0.999490559101,-0.999504983425,-0.998739302158,1.0,-1.0,-0.99146270752,-0.506999433041,0.999979496002,0.996920585632,0.985389053822,0.994550824165,-0.999999523163,0.999147176743,-0.999999523163,-0.859224200249,-0.9987809062,0.999823510647
A,0.810314714909,-0.972192525864,0.0754921510816,-0.643648445606,-0.821004748344,-0.708275198936,0.999688029289,-0.994650959969,-0.976990997791,-0.533088386059,0.999947011471,0.656537890434,-0.135700196028,0.904297471046,-0.876056134701,0.986757934093,-0.947882711887,-0.996710300446,-0.999872267246,0.690869033337
A,0.929048657417,-0.998629748821,0.207931637764,0.959050357342,-0.995112419128,-0.999378800392,0.999999821186,-0.999992728233,-0.998098373413,-0.316305845976,0.999879956245,0.985484600067,0.0857672393322,0.991996347904,-0.999899506569,0.997972130775,-0.999523997307,-0.99189466238,-0.973737239838,0.990031003952
A,1.0,-1.0,0.887423932552,0.996877849102,-0.975058078766,-1.0,1.0,-1.0,-0.999995470047,0.128074944019,0.999996304512,0.999999940395,0.996029019356,0.999986171722,-1.0,0.999718427658,-0.99999910593,-0.999997854233,-0.999999880791,0.999973773956
A,0.999997973442,-0.999942481518,0.849516689777,0.99930036068,-0.964403927326,-1.0,1.0,-1.0,-0.999996185303,0.747581362724,0.99999833107,0.999229729176,0.488323509693,0.999966084957,-0.99996471405,0.999947190285,-0.999906659126,-0.937296807766,-0.999999880791,0.999211192131
A,0.425314873457,-0.95323485136,-0.832821965218,0.998856365681,-0.982196450233,-1.0,1.0,-0.999993801117,-0.982259511948,0.341133952141,0.97182071209,0.772120594978,0.99298864603,0.363363981247,-0.998764872551,0.999601185322,-0.613687336445,-0.995191812515,-0.986680269241,0.99953430891
A,0.999958217144,-0.999989211559,0.669171512127,0.999945402145,-0.987059772015,-1.0,1.0,-1.0,-0.999233782291,0.585537672043,0.99989682436,0.998925149441,0.999897897243,0.978772461414,-0.999994456768,0.999957203865,-0.998953223228,-0.999377608299,-0.999973416328,0.999881923199
A,0.838713645935,-0.997437238693,-0.806827127934,0.969783067703,-0.983759403229,-0.999894678593,1.0,-0.999999642372,-0.990323662758,-0.462054073811,0.989982783794,0.989764392376,0.946035921574,0.975382804871,-0.999567866325,0.999349415302,-0.9820099473,-0.58637547493,-0.882376849651,0.999400615692
A,0.656540572643,-0.976338386536,-0.610101222992,0.80580419302,-0.971696019173,-0.974371910095,0.999996244907,-0.99994713068,-0.940349936485,-0.277218014002,0.975241363049,0.961328744888,0.847129940987,0.997256338596,-0.977560222149,0.99900239706,-0.46442475915,-0.791813492775,-0.917789638042,0.992555558681
A,0.237499400973,-0.977115392685,-0.798100650311,0.850141763687,-0.782456099987,-0.725054740906,0.999995231628,-0.998953640461,-0.904674887657,-0.748092830181,0.985666453838,0.988648295403,0.826172888279,-0.101852618158,-0.929217517376,0.982387900352,-0.520654737949,-0.997583806515,-0.178496867418,0.99879437685
A,0.384742677212,-0.994867444038,-0.530128657818,0.894551336765,-0.908462941647,-0.749544739723,0.999986410141,-0.997639477253,-0.888999521732,-0.862481236458,0.994558632374,0.966510057449,0.746556043625,0.281431287527,-0.947544574738,0.9866065979,-0.766062140465,-0.996973633766,-0.337950736284,0.995267391205
A,0.576930582523,-0.747301697731,0.495313346386,0.981504917145,0.424441635609,-0.655303061008,0.999440968037,-0.981020867825,-0.946146667004,-0.712464570999,0.99450224638,0.967201888561,0.801252424717,0.617375791073,-0.816563248634,0.982156634331,0.0139140728861,-0.98377674818,-0.248181834817,0.967430412769
A,0.312771707773,-0.972116172314,0.362919986248,0.825904369354,-0.706068813801,-0.598618209362,0.999938607216,-0.991900742054,-0.935176968575,-0.800539672375,0.990958690643,0.976569473743,0.566481173038,0.78316795826,-0.79914110899,0.986477971077,-0.188861116767,-0.994311153889,-0.327193021774,0.986796736717
A,0.462901413441,-0.996298909187,0.0391969494522,0.997436463833,-0.744945943356,-0.933268427849,0.999997258186,-0.999386847019,-0.91643422842,-0.837394654751,0.995121538639,0.959566950798,0.732624769211,0.476535469294,-0.969515740871,0.987294852734,-0.469334632158,-0.994058728218,-0.182756766677,0.986916899681
A,0.315708100796,-0.993817150593,-0.929027080536,0.996520221233,-0.0438869968057,-0.983110785484,0.999998390675,-0.999314546585,-0.952813863754,-0.897386789322,0.956322729588,0.976617395878,0.891781687737,-0.449545711279,-0.997268974781,0.994525790215,0.809778392315,-0.99445694685,0.228723019361,0.998982608318
A,0.785205125809,-0.996443390846,0.13101388514,0.999619662762,-0.589300513268,-0.887105286121,0.999998748302,-0.999926626682,-0.644454658031,-0.92348664999,0.992448151112,0.99012774229,0.839412391186,-0.0218917019665,-0.997935473919,0.990985512733,-0.861217916012,-0.999430179596,-0.199764639139,0.998842298985
A,0.951426625252,-0.958071768284,-0.99651491642,0.996914565563,0.99682867527,-0.998405992985,0.999999821186,-0.9982213974,-0.737640202045,-0.991472423077,0.951636791229,0.638174951077,0.99796295166,-0.972417235374,-0.994273483753,0.935530841351,0.933958888054,-0.981927633286,0.36338570714,0.999842941761
A,0.989867389202,-0.836344301701,0.77639323473,0.927795112133,-0.955873727798,-0.999540984631,0.984943330288,-0.9999538064,-0.653988659382,0.929528295994,0.958197116852,0.957513093948,-0.99673551321,0.702763557434,-0.995487034321,0.989417135715,-0.76855134964,-0.551622033119,-0.991567909718,0.490341991186
