p,0.999999940395,-0.999908447266,0.95198071003,0.999999880791,-0.999903202057,-0.999999821186,1.0,-0.99989771843,-1.0,1.0,1.0,0.896135151386,-0.999993920326,1.0,-0.812466919422,0.954995512962,-0.999974727631,0.997080385685,-1.0,0.93954449892
p,1.0,-0.997557401657,0.868716478348,0.999999880791,-0.999993145466,-0.999942660332,0.999958753586,-0.999975860119,-0.777667403221,1.0,1.0,0.81040006876,-0.999826192856,1.0,-0.835634946823,0.753553986549,-0.999999344349,0.999903142452,-1.0,0.875114500523
p,0.999999344349,0.549315989017,0.525825798512,0.999749243259,-0.999961972237,-0.999961018562,0.999709129333,-0.891672492027,-0.801346242428,0.999999940395,0.999999880791,0.821543335915,-0.999999761581,1.00000011921,-0.929964780807,0.809307098389,-0.997077524662,0.956168234348,-1.0,0.257796496153
p,1.0,-0.982208073139,0.731695055962,0.999884009361,-0.999938368797,-0.999849379063,0.999915957451,-0.999498128891,-0.812047302723,1.0,1.0,0.675969779491,-0.999999046326,1.0,-0.749789297581,0.841911315918,-0.999819517136,0.996973872185,-1.0,0.936170458794
p,0.951717972755,0.99647551775,-0.125930175185,-0.505273759365,-1.0,-0.545815825462,-0.670018672943,0.65586411953,-0.0,0.999995470047,0.999928832054,-0.00874489545822,-0.546534895897,0.709206998348,0.966178834438,0.396510452032,-0.971207261086,0.855059742928,-0.998499155045,-0.757282197475
p,0.818723022938,0.99996393919,-0.225499302149,-0.472789466381,-0.999857127666,-0.598769426346,-0.964707612991,0.306504696608,-0.0,0.98705381155,0.874502062798,-0.125760123134,-0.358413487673,0.571628928185,0.951217591763,0.23981410265,-0.815335631371,0.776009142399,-0.984179198742,-0.732883870602
p,0.988298952579,-0.193124502897,-0.369373112917,-0.980085432529,-0.999941647053,-0.943672895432,-0.507348299026,0.56961774826,0.0,0.997942268848,0.880634665489,0.0456921234727,0.960505187511,0.999985814095,-0.996920645237,0.781233131886,-0.85793274641,-0.658408582211,-0.9998087883,0.81265437603
p,0.858659029007,0.999487698078,-0.000864966714289,-0.454963684082,-0.999930143356,-0.587958455086,-0.669726192951,0.33716148138,-0.0,0.94825476408,0.819597482681,-0.00181168527342,-0.575515627861,0.716312527657,0.917598247528,0.185777291656,-0.81230956316,0.779633164406,-0.989860057831,-0.561940968037
p,0.999999821186,-0.991879582405,-0.258768081665,0.829963505268,-0.999989748001,-0.999908030033,0.999999880791,-0.999979496002,-0.399804383516,0.99944293499,0.999920964241,0.190936386585,-0.999793767929,1.0,-0.9115280509,0.524040341377,-0.999192655087,0.147003605962,-0.999977350235,0.988460481167
p,0.999995946884,0.739552676678,0.784024298191,0.992354929447,-0.999996423721,-0.852305173874,-0.6692096591,-0.888886153698,-0.936921238899,1.0,1.0,0.946716606617,-0.935865879059,0.999999165535,-0.993241667747,1.0,-0.983181238174,0.487869590521,-0.956891536713,0.941467583179
p,0.984206140041,-0.782560110092,-0.393698781729,0.552644312382,-0.989109456539,-0.817288637161,0.996638596058,-0.983300149441,-0.991791129112,0.709528565407,0.80649971962,0.969280898571,0.634312033653,0.999708890915,-0.972494900227,0.999999642372,-0.972333312035,0.99975335598,-0.999905526638,0.959743201733
p,1.0,-1.0,0.976915061474,1.0,-1.0,-0.99997574091,1.0,-1.0,-0.838351428509,0.999999940395,1.0,0.602787554264,-0.999956727028,0.999999701977,-0.999643921852,0.99988669157,-0.998680055141,-0.999996781349,-1.0,0.998112738132
p,-0.899453818798,0.99737405777,-0.0631531402469,0.610748708248,-0.999971807003,-0.77361369133,0.994443356991,0.1160216555,-0.870535731316,0.838037252426,0.997251570225,0.493627876043,-0.606220543385,-1.0,0.0695473477244,-0.0270399041474,0.983612239361,-0.410846561193,-0.998772025108,-0.683690071106
h,0.680393874645,-0.0199923161417,-0.0067601474002,-0.622847259045,-0.647720813751,0.106749773026,-0.195810765028,-0.848998308182,-0.00231130071916,-0.564630925655,0.0916924029589,0.138766556978,0.0600448362529,0.539639413357,-0.354643493891,0.519131422043,-0.460073143244,0.999322235584,-0.368221223354,0.609889507294
h,0.999696850777,0.961432874203,-0.887959957123,-0.908121645451,-0.937088191509,-0.995056629181,0.768098115921,-0.973274767399,-0.0,0.335390657187,-0.994927883148,-0.936463236809,-0.459409445524,0.834243178368,0.999719023705,0.479282468557,0.653098583221,0.933103382587,-0.999879837036,-0.994153499603
p,0.99999588728,-0.999999523163,0.857129633427,1.0,-0.999768137932,-0.999984323978,1.0,-0.999993562698,-1.0,1.0,1.0,0.952108025551,-0.830260634422,1.0,-0.916778504848,1.0,-0.999740660191,0.949674546719,-1.0,0.996745288372
p,0.999995470047,-0.999992609024,0.911880493164,0.999997735023,-0.999825358391,-0.999959349632,1.0,-0.997643709183,-1.0,0.999489545822,1.0,0.931445538998,-0.997471749783,1.0,-0.990109682083,0.999999880791,-0.997830986977,-0.0108405863866,-1.0,0.994333565235
p,0.999999046326,-0.999997019768,0.933756113052,0.999998152256,-0.999912321568,-0.996917486191,0.999999880791,-0.999785482883,-0.999999821186,0.999778747559,1.0,0.980958580971,-0.995511293411,1.0,-0.996648788452,0.999998807907,-0.998625576496,-0.214491292834,-1.0,0.99557954073
p,-0.0761134251952,-0.999817073345,-0.912151873112,-0.789785146713,-0.999354720116,-0.123674251139,0.998425006866,-0.96238720417,-0.95161908865,-0.465723633766,0.932521104813,0.977910041809,0.713978290558,0.999627292156,-0.952326536179,0.98328101635,-0.909464120865,-0.788379967213,-0.99990016222,0.991476178169
p,0.999996304512,-0.999999821186,0.996482253075,0.999999761581,-0.999740183353,-0.998970508575,0.999993681908,-1.0,-0.999999761581,0.976225733757,1.0,0.978443264961,-0.975708782673,0.999999821186,-0.966378092766,1.0,-0.999603629112,0.141288459301,-0.999999880791,0.996640443802
p,0.999987959862,-0.999995231628,0.991328239441,0.999999821186,-0.999128043652,-0.998484432697,0.999990642071,-1.0,-0.999999940395,0.998684227467,1.0,0.972275853157,-0.991938471794,0.999999880791,-0.972481667995,0.999999821186,-0.999897837639,0.988313257694,-0.999999821186,0.997162342072
p,0.99988591671,-0.999931573868,0.991386055946,0.999987959862,-0.996913790703,-0.912339806557,0.999999701977,-0.999997615814,-0.999998927116,0.329090982676,0.999999761581,0.990092158318,-0.943834006786,0.999998033047,-0.927628576756,0.999911248684,-0.999587059021,0.0025089031551,-0.999999940395,0.997057080269
p,0.999999523163,-0.999901235104,0.998629808426,1.00000011921,-0.999608099461,-0.995717227459,0.999998211861,-1.0,-0.999999821186,0.996123254299,1.0,0.990421652794,-0.995208501816,0.999999463558,-0.991417229176,0.999999582767,-0.999941647053,0.981840074062,-1.0,0.999005198479
p,0.999934017658,-0.997311711311,0.986396431923,0.999933123589,-0.997916042805,-0.913121461868,0.999998986721,-0.999999821186,-0.999994337559,0.881342709064,0.99999910593,0.952738285065,-0.987504243851,0.999997794628,-0.983615279198,0.999030709267,-0.999853730202,0.843476951122,-0.999999642372,0.997870445251
h,1.0,0.0,-1.0,0.999999403954,0.998988628387,-1.0,-0.999946594238,-1.0,0.999602913857,0.996829211712,-0.951555609703,-0.999840557575,1.0,0.766443014145,-0.137860640883,0.999988794327,0.998649358749,0.999977648258,0.998437166214,0.936157107353
h,1.0,0.0,-0.999999284744,0.999999821186,0.999748945236,-1.0,-0.999988436699,-1.0,0.999012231827,0.999971866608,-0.725870370865,-0.999999880791,1.0,0.667967736721,-0.151411518455,0.999974727631,0.815007388592,0.999942421913,0.982440054417,0.894557893276
h,1.0,0.0,-0.999999403954,1.0,0.997829496861,-0.999999761581,-0.999999046326,-1.0,0.989789962769,0.999836921692,-0.950741529465,-0.999999344349,1.0,0.663696348667,-0.0179202388972,0.999827980995,0.585396051407,0.999979317188,0.996096968651,0.926055431366
h,0.999429821968,0.0,-0.999999880791,0.274348139763,0.999789774418,-0.999188303947,-0.999970912933,-0.998583972454,0.238503366709,0.978790163994,-0.997101306915,-0.999999821186,1.0,0.925241053104,0.106559231877,0.999991118908,0.999815225601,0.999999761581,0.999779343605,0.986847937107
h,-0.411248028278,0.0,-0.999756991863,-0.353731304407,0.955268204212,0.838173389435,-0.999999761581,0.412046223879,-0.00697622168809,0.957948148251,-0.0,-0.999961972237,0.999999821186,0.716324806213,0.129524618387,0.997319996357,0.995422065258,0.999704957008,0.987106502056,0.999738037586
h,1.0,0.0,-1.0,0.999121248722,0.997783958912,-1.0,-0.999892950058,-0.999945938587,-0.383926510811,0.997488319874,-0.993692576885,-0.994239091873,1.0,0.814375281334,0.609077394009,0.999996006489,0.960194647312,0.998744785786,0.789775848389,0.957766234875
h,1.0,0.0,-1.0,1.0,0.998496413231,-1.0,-1.0,-1.0,0.828790307045,0.995879173279,-0.989121317863,-0.999994516373,1.0,0.813254833221,-0.0546085163951,0.999713540077,0.996341645718,0.999986171722,0.985903382301,0.967844486237
h,1.0,0.0,-1.0,1.0,0.998880624771,-1.0,-1.0,-1.0,0.99994546175,0.998197138309,-0.840817451477,-0.999050855637,1.0,0.72938144207,-0.480423688889,0.999990940094,0.997897803783,0.999862909317,0.982021808624,0.923506319523
h,1.0,0.0,-1.0,1.0,0.999638319016,-1.0,-1.0,-1.0,0.999999821186,0.99994134903,-0.992077589035,-0.999020040035,1.0,0.745859920979,-0.305802732706,0.997834682465,0.945836365223,0.999656021595,0.999516427517,0.880370616913
h,1.0,0.0,-1.0,1.0,0.999892652035,-1.0,-1.0,-1.0,0.865275323391,0.999980270863,-0.984962642193,-1.0,1.0,0.665428519249,-0.0177128929645,0.999150633812,0.577818453312,0.999529242516,0.999524950981,0.916783630848
h,1.0,0.0,-0.999999701977,0.999999046326,0.99901252985,-1.0,-0.999997794628,-1.0,0.999971091747,0.9994161129,-0.961999773979,-0.994317054749,1.0,0.767160415649,-0.152026161551,0.999725580215,0.999972522259,0.998896360397,0.999773204327,0.896405220032
h,1.0,0.0,-1.0,0.999999821186,0.999529778957,-0.999999880791,-0.999999046326,-1.0,0.999925434589,0.999735295773,-0.90141928196,-0.999968647957,1.0,0.801398038864,-0.201203033328,0.999986469746,0.999988734722,0.999865353107,0.999929785728,0.937997281551
h,1.0,-0.0,-1.0,0.993156433105,0.995999038219,-1.0,-0.999737679958,-1.0,0.87653619051,0.998326480389,-0.667605638504,-0.560507595539,1.0,0.851908862591,-0.977232396603,0.99977004528,0.999496400356,0.999915063381,0.995452702045,0.86581236124
h,1.0,-0.480381011963,-0.999996066093,1.0,0.999999761581,-0.99999833107,-1.0,-1.0,0.957672297955,1.0,0.988530933857,-0.998412847519,1.0,0.98713850975,-0.635448753834,0.993182182312,-1.0,1.0,0.999620199203,1.0
h,1.0,0.0,-1.0,0.998948156834,0.998870670795,-0.999993443489,-0.999726295471,-1.0,0.975439012051,0.998639047146,-0.895687282085,-0.838312923908,1.0,0.825642287731,-0.980273067951,0.999772667885,0.864230036736,0.999657392502,0.984769523144,0.879190325737
h,1.0,-0.109937228262,-1.0,1.0,0.999938189983,-1.0,-1.0,-1.0,0.909758985043,1.0,-0.02405176498,-0.999828934669,1.0,0.887346804142,-0.137915715575,0.998453855515,-0.999999642372,0.999999761581,0.980740308762,0.999376773834
h,1.0,0.0,-1.0,0.980868339539,0.999998807907,-1.0,-1.0,-0.999996900558,-0.0649261027575,0.999994456768,-0.999997258186,-0.999999761581,0.176098152995,0.718920171261,0.999998152256,0.999999344349,0.983338534832,0.999798715115,0.923630058765,0.987052679062
h,1.0,0.0347986482084,-1.0,1.0,0.997799873352,-1.0,-1.0,-1.0,0.453928172588,0.999938309193,-0.999087274075,-0.958182990551,1.0,0.754494428635,-0.749395132065,0.992105185986,-0.478802323341,0.9644292593,0.980915427208,0.977630376816
h,1.0,0.0,-1.0,1.0,0.998945057392,-1.0,-0.855414628983,-0.999584496021,-0.261049449444,0.875320494175,-0.999516487122,-0.999964475632,0.999987959862,0.479043781757,0.99953597784,1.0,0.98947840929,0.707160234451,0.998726665974,0.97213113308
h,1.0,0.0,-0.999256134033,0.999490439892,0.999910652637,-1.0,-1.0,-1.0,0.023274499923,0.999999642372,-1.0,-1.0,-0.287109643221,0.858777523041,1.0,1.0,0.989555120468,0.998461484909,0.952595710754,0.868293583393
h,0.960928559303,0.0,-1.0,0.362063169479,0.999997735023,-0.999999880791,-1.0,-0.965891361237,-0.036892246455,0.997128844261,-0.937774896622,-0.999548614025,0.999998271465,0.91760212183,0.99932217598,1.0,0.999802649021,0.999997258186,0.865972220898,0.999966084957
h,1.0,0.0,-1.0,1.0,1.0,-1.0,-1.0,-0.999998807907,-0.0221006441861,1.0,-0.99970126152,-1.0,1.0,0.851117312908,0.964690506458,0.999910652637,-0.157380506396,0.999999582767,0.982938885689,0.99857032299
h,0.95373493433,0.0,-1.0,-0.160148113966,1.0,-0.999999403954,-1.0,-0.981789588928,-0.00390288187191,0.999138116837,-0.977728128433,-0.999954581261,0.99997651577,0.759241819382,0.999965310097,0.88245600462,0.996586680412,1.0,0.947376966476,0.999999701977
h,1.0,-0.46959528327,-1.0,1.0,1.0,-1.0,-0.999998509884,-0.999999761581,-0.454082578421,1.0,1.0,-0.99999833107,1.0,0.999914884567,-1.0,0.999836742878,-1.0,1.0,0.99041557312,1.0
h,1.0,0.183697745204,-0.999997675419,0.470991164446,0.909972429276,-1.0,-0.817243158817,-1.0,-0.201983034611,0.996690511703,-0.999999761581,-0.99971550703,0.634051799774,0.999818205833,0.999995708466,0.864503741264,0.962847054005,0.954292953014,-0.999989688396,-0.92462003231
h,1.0,0.67500680685,-0.999996364117,-0.780184686184,-0.919569849968,-1.0,0.992672920227,-0.992193937302,-0.0912997350097,0.335835248232,-1.0,-0.994504868984,-0.930602014065,0.973022580147,0.999138951302,0.254143476486,0.916763484478,0.566576302052,-1.0,-0.998196780682
h,1.0,-0.443096339703,-1.0,0.999999344349,0.999999761581,-1.0,0.193747848272,-1.0,-0.271582663059,1.0,-0.972922503948,-1.0,0.0779301226139,0.999904930592,1.0,0.928162872791,0.992301881313,0.821089148521,0.999791026115,0.997155547142
h,-0.6281722188,0.0,-0.999946892262,-0.548268377781,1.0,-0.956217229366,-0.990407884121,0.172909677029,0.0,0.999756872654,-0.0,-1.0,1.0,0.797100841999,-0.332453459501,0.999840557575,0.987945973873,0.99999755621,0.84322476387,1.0
h,-0.0,0.0,-0.961448788643,-0.207399815321,0.676731109619,0.714499175549,-0.998247385025,0.455286294222,-0.0,0.997935712337,-0.0,-0.999685525894,0.640004754066,0.490296691656,0.918531775475,0.788789212704,0.997493803501,0.999465405941,0.830393373966,0.883015871048
h,1.0,0.0,-1.0,0.999980688095,0.999930858612,-1.0,-0.999962329865,-1.0,-0.00173190468922,0.999992251396,-0.999841094017,-0.999822199345,0.99994134903,0.930940687656,0.999998450279,0.966765522957,0.667656838894,0.997846245766,0.991143107414,0.971233487129
h,1.0,0.0,-1.0,0.99998986721,1.0,-1.0,-1.0,-0.999999403954,0.0,1.0,-0.99995136261,-1.0,1.0,0.910875082016,0.881998419762,0.999998867512,0.604185461998,0.999999880791,0.99749481678,0.999841749668
h,0.406079143286,0.0,-1.0,-0.114383243024,0.999999403954,-1.0,-0.999996483326,-1.0,0.00825971830636,0.996222913265,-0.984701037407,-0.987492799759,1.0,0.964709699154,0.999994933605,0.719934761524,0.997311413288,0.996607065201,0.967252314091,0.990724921227
h,1.0,0.0,-1.0,0.999999880791,0.999878942966,-1.0,-0.996902644634,-1.0,-0.418606132269,0.997498929501,-0.997076272964,-0.999982595444,0.943664133549,0.981037914753,1.0,0.906009793282,0.963417708874,0.988854944706,0.825375437737,0.980619072914
h,1.0,0.0,-1.0,0.999996781349,0.999997198582,-1.0,-1.0,-1.0,0.161330282688,1.0,-1.0,-0.999995529652,0.765738010406,0.90068680048,1.0,1.0,0.829615414143,0.984794676304,0.920066595078,0.767314553261
h,1.0,0.196226835251,-1.0,0.999988019466,0.997226119041,-0.999996840954,-0.972199261189,-1.0,-0.082141622901,0.999978482723,-0.775211811066,-0.999974548817,0.999998629093,0.99032998085,0.977905094624,1.0,-0.882969021797,0.973767399788,0.227624133229,0.250970035791
h,1.0,0.0,-1.0,0.999999821186,1.0,-1.0,-1.0,-1.0,0.0,1.0,-0.99997574091,-1.0,1.0,0.818678915501,0.999995827675,0.999987900257,0.69751316309,0.99995547533,0.983410179615,0.996609926224
h,0.999942302704,0.100586973131,-1.0,1.0,0.999999821186,-1.0,-1.0,-1.0,0.00114350276999,0.999974370003,-0.999978125095,-0.999991238117,1.0,0.942235171795,1.0,0.661168217659,0.948554217815,0.70366692543,0.99381095171,0.939955830574
h,1.0,0.0,-0.999999701977,1.0,0.999968349934,-1.0,-0.931106328964,-1.0,-0.293929278851,1.0,-1.0,-1.0,-1.0,0.744263589382,1.0,0.947467327118,0.973724722862,0.320980966091,0.67809677124,-0.991824269295
h,0.999968767166,0.0,-1.0,1.0,0.999993801117,-1.0,-1.0,-1.0,0.101188570261,0.999999701977,-0.99962747097,-1.0,0.998539566994,0.776830971241,1.0,0.893711984158,0.953971683979,0.868319988251,0.876726508141,0.99205827713
h,0.999982178211,0.0,-1.0,1.0,0.999989390373,-1.0,-1.0,-1.0,0.134777247906,0.999999046326,-0.999537944794,-0.999999880791,0.999818265438,0.665656983852,0.999999821186,0.933558523655,0.710190594196,0.227461889386,0.874607145786,0.935939013958
h,1.0,0.0,-1.0,1.0,0.999999582767,-1.0,-1.0,-1.0,0.0918350443244,1.0,-0.954485356808,-1.0,1.0,0.522907316685,0.776196300983,0.998736679554,0.0481757968664,0.999983429909,0.348692327738,0.980526268482
h,1.0,0.0,-1.0,1.0,1.0,-1.0,-1.0,-1.0,0.0,1.0,-0.999946296215,-1.0,1.0,0.911667823792,0.999587476254,0.999999403954,0.864130437374,0.99999922514,0.998452425003,0.998194754124
h,1.0,0.0,-1.0,1.0,0.999901652336,-1.0,-1.0,-1.0,0.205591619015,0.999980330467,-0.999385595322,-0.997436583042,0.992698431015,0.904398858547,0.999975979328,1.0,0.997305452824,0.955127894878,0.87767136097,0.991941154003
h,1.0,0.0,-1.0,1.0,0.999999761581,-1.0,-1.0,-1.0,0.144032627344,1.0,-0.999803423882,-1.0,1.0,0.921972930431,1.0,0.916393101215,0.978593409061,0.998139441013,0.963802874088,0.991854727268
h,1.0,0.0,-1.0,1.0,0.99998998642,-1.0,-1.0,-1.0,0.384214699268,0.999999880791,-0.99985563755,-0.99969881773,0.998831510544,0.657656013966,0.999998450279,0.824988722801,0.943656265736,0.734722077847,0.941836416721,0.972768306732
h,1.0,0.0,-0.999895691872,0.999999523163,0.999975919724,-1.0,-1.0,-0.999050974846,-0.0130875818431,1.0,-0.95877045393,-0.99997729063,0.981425464153,0.729677259922,0.975498020649,0.999467253685,0.769848942757,0.999933242798,0.68903785944,0.992228090763
h,0.999998927116,0.0,-1.0,1.0,0.999998271465,-1.0,-1.0,-1.0,0.0398032404482,1.0,-0.999876439571,-1.0,1.0,0.92717397213,1.0,0.668065190315,0.877081811428,0.960929453373,0.948830723763,0.972837924957
p,0.999999761581,-0.99996984005,0.986901521683,0.999999940395,-0.999998152256,-0.999696552753,0.980974018574,-1.0,-0.999907255173,0.993748128414,0.999999940395,0.997386276722,-0.831399202347,1.00000011921,-0.998637974262,1.0,-0.99998998642,0.999790787697,-0.999967336655,0.999788880348
h,0.999999046326,-0.999971091747,0.984057188034,0.999864697456,-1.0,-0.999983370304,1.0,-0.999997019768,-0.999745965004,0.999906659126,1.0,0.9308411479,-1.0,0.999867558479,-0.999732553959,0.984546840191,-0.993732571602,-0.994248569012,-1.0,0.999181509018
h,1.0,-0.348771184683,-0.999998688698,1.0,0.999978601933,-0.999999284744,-0.999999940395,-1.0,-0.555038094521,1.0,0.999990820885,-0.999889194965,1.0,1.0,-0.990047991276,0.999974370003,-0.999999642372,0.991862535477,0.995542764664,0.999991118908
h,0.589563846588,0.0,-0.999998629093,-0.915653467178,0.999330341816,-0.999979555607,-0.999999880791,-0.998298287392,0.000198765425012,0.999375224113,-0.714662730694,-0.994360566139,0.998458862305,0.994946777821,0.834728956223,0.48683321476,0.998859703541,0.986854612827,0.999231934547,0.999952077866
h,0.999999463558,-0.0708990693092,-0.999947369099,0.874210238457,-0.613020598888,-0.999995529652,0.999999880791,-0.999907016754,-0.139990180731,0.170964732766,-0.9998909235,-0.664668381214,-0.90653604269,0.921181023121,0.803178369999,0.737954556942,0.993779718876,0.712070822716,0.689519166946,0.234002798796
h,1.0,0.0775398612022,-0.999999821186,-0.0901716127992,0.952166736126,-0.992042839527,0.975685894489,-1.0,-0.0634962320328,0.279941886663,-0.999907314777,-0.9985922575,0.756798446178,0.97468316555,0.999996483326,0.994887530804,0.999950885773,0.918885469437,0.125350579619,-0.99463135004
p,0.967580080032,1.0,-0.0,-0.999683916569,-0.999995708466,-0.999406218529,-0.0274770781398,0.129676505923,0.0,1.0,0.998555958271,-0.000234043385717,-0.980445384979,0.999999403954,0.296604126692,-0.0,-0.945529580116,0.905624628067,-1.0,-0.0358997955918
p,0.996711552143,1.0,-0.0,-0.99992609024,-0.99998742342,-0.984178960323,0.521684467793,0.123167686164,0.0,1.0,0.993013739586,0.0,-0.937168180943,0.999992966652,0.501589179039,-0.0,-0.951754748821,0.951031446457,-1.0,-0.0393347628415
p,0.974657297134,1.0,-0.00486887525767,-0.998607099056,-0.999954164028,-0.996032476425,-0.235730662942,0.105326943099,0.0,1.0,0.999529123306,-0.000148225473822,-0.726986527443,0.999966681004,0.315922349691,-0.0,-0.85255241394,0.924206972122,-0.999997854233,-0.0985429212451
p,0.975816845894,0.999997675419,-0.0,-0.998796522617,-0.999903142452,-0.960235118866,0.111886195838,0.110324710608,0.0,0.999999940395,0.99840593338,0.0,-0.829648196697,0.99982625246,0.0,-0.0,-0.975108444691,0.963147580624,-0.999984443188,-0.021868666634
p,0.986952602863,0.999955415726,-0.0,-0.999651610851,-0.999949157238,-0.99623298645,0.370464891195,0.01717213355,0.0,1.0,0.999375283718,-0.000253466365393,-0.868216097355,0.999859273434,0.179527118802,-0.0,-0.96244341135,0.957903623581,-0.999999582767,-0.0
p,0.996331334114,0.999945640564,-0.0,-0.999220967293,-0.999067723751,-0.924050867558,0.585771083832,0.0,0.0,0.999994516373,0.99815428257,-0.000425726932008,-0.767273724079,0.999924838543,0.129705414176,-0.0,-0.988720297813,0.98791539669,-0.999986588955,-0.0
p,0.998247623444,0.999983251095,-0.0,-0.998128294945,-0.999969899654,-0.937079429626,0.228025361896,0.0173143167049,0.0,1.0,0.999648809433,0.0,-0.71605604887,0.999938488007,0.16271905601,-0.0,-0.949836790562,0.967525064945,-0.99999666214,-0.0
p,0.99964171648,0.999981462955,0.0,-0.999655008316,-0.999984502792,-0.842640399933,0.0206175092608,0.00479514850304,0.0,1.0,0.999956846237,-5.72183380427e-05,-0.866971671581,0.999958217144,0.0,-0.0,-0.994540274143,0.985548138618,-0.999999463558,-0.0
p,0.997084259987,0.999942719936,-0.0,-0.99940508604,-0.999980926514,-0.997764587402,-0.197867482901,0.0173120629042,0.0,1.0,0.999926388264,0.0,-0.9682944417,0.999956190586,0.0,-0.0,-0.987720668316,0.984411478043,-0.999986469746,-0.00640934286639
p,0.998530089855,0.968622982502,-0.0,-0.99825578928,-0.999929904938,-0.977742195129,-0.0857606977224,0.0863647013903,0.0,0.999999821186,0.998542606831,0.0,-0.607000768185,0.999778568745,0.0326362363994,-0.0,-0.976841151714,0.972839295864,-0.999997496605,-0.112410083413
p,0.997531890869,0.999652504921,-0.0,-0.999266028404,-0.999997675419,-0.984122574329,0.0393753349781,0.145760148764,0.0,1.0,0.999839961529,0.0,-0.886772751808,0.999879896641,0.0,-0.0,-0.971884131432,0.894518256187,-0.999999821186,-0.00808984879404
p,0.983785450459,0.999992489815,-0.0,-0.994764328003,-0.99982136488,-0.933997809887,-0.206771954894,0.0118642607704,0.0,0.999999523163,0.996240019798,0.0,-0.956478714943,0.999694406986,0.0,-0.0,-0.939395427704,0.968460142612,-0.999973833561,-0.0
p,0.980077505112,0.999856293201,-0.0,-0.999016940594,-0.999959468842,-0.987402141094,-0.510443925858,0.118831641972,0.0,1.0,0.998951435089,0.0,-0.936242580414,0.999444663525,0.0,-0.0,-0.906116425991,0.947800993919,-0.999952733517,-0.035309754312
p,0.998634815216,0.999988734722,-0.0,-0.99829351902,-0.999998033047,-0.994003355503,-0.605222344398,0.141414374113,0.0,1.0,0.999903023243,-0.000152863154653,-0.964666306973,0.999806821346,0.0,-0.0,-0.871331930161,0.869826555252,-0.999957501888,-0.0
p,0.995412230492,0.998823523521,-0.0,-0.997207939625,-0.998652994633,-0.908367931843,-0.178002431989,0.0,0.0,0.999982714653,0.996807932854,0.0,-0.651836395264,0.997958779335,0.0,-0.0,-0.957151293755,0.957410216331,-0.999595344067,-0.0
p,0.995913624763,0.999992668629,-0.0,-0.99813747406,-0.99983894825,-0.954410970211,-0.161267533898,0.0375855341554,0.0,0.984228730202,0.999083459377,0.0,-0.927752554417,0.999827563763,0.0,-0.0,-0.864552795887,0.951404690742,-0.999987483025,-0.0
p,0.995451033115,0.999992311001,0.0,-0.998493552208,-0.999966681004,-0.878474116325,-0.556774914265,0.103853054345,0.0,1.0,0.998279154301,0.0,-0.988656401634,0.999239742756,0.0,-0.0,-0.843580245972,0.95878559351,-0.999965667725,-0.0
p,0.999975144863,-0.957916915417,-0.779850959778,-0.41860640049,-0.966892302036,-0.32876765728,0.999941885471,-0.999998927116,-0.0360646508634,-0.180780738592,0.754193127155,0.705393314362,0.182380154729,0.820543408394,-0.892694473267,0.997982561588,-0.930468022823,-0.578549265862,-0.999966919422,0.26647490263
p,0.999521911144,-0.663919389248,0.833618581295,0.999875307083,-0.999629676342,-0.974489450455,0.999344646931,-0.990825355053,-0.998841166496,0.980770111084,0.999987840652,0.987110674381,-0.94352388382,0.999933898449,-0.963030934334,0.999694049358,-0.998119354248,0.947019040585,-0.999969363213,0.967687010765
p,0.999949991703,-0.995843410492,0.986639261246,0.999998688698,-0.999626100063,-0.999921321869,0.999885797501,-0.999993920326,-0.99999922514,0.999989330769,1.0,0.99105066061,-0.860757946968,0.999998748302,-0.904726266861,0.999894499779,-0.999795079231,0.994913756847,-0.99999922514,0.995227694511
p,0.999997317791,-0.999663770199,0.949901580811,1.0,-0.999527931213,-0.99649554491,0.999595105648,-0.999999940395,-0.999979913235,1.0,1.0,0.99919205904,-0.980400204659,0.99999922514,-0.97238779068,0.999998211861,-0.999994277954,0.999392688274,-0.999999403954,0.997792541981
p,0.999159872532,-0.961724162102,0.993666231632,0.999983370304,-0.997118711472,-0.998934328556,-0.639470338821,-0.999708175659,-0.999709308147,1.0,0.999995350838,0.977793514729,-0.996401131153,0.999998509884,-0.968526601791,0.999735891819,-0.999965190887,0.999856889248,-0.999264001846,0.998371958733
p,0.999607145786,-0.927874922752,0.991389751434,0.999983727932,-0.99615329504,-0.967944681644,-0.90351909399,-0.999924242496,-0.999841213226,0.99981456995,0.999847412109,0.989248812199,-0.951225578785,0.999973654747,-0.974588632584,0.999996304512,-0.999823093414,0.996803104877,-0.991190969944,0.997523367405
p,0.99791020155,-0.767924547195,0.970671713352,0.999829232693,-0.99350041151,-0.936914145947,-0.507978737354,-0.999841094017,-0.999352693558,0.978760421276,0.999773621559,0.972133934498,-0.952311098576,0.999915897846,-0.965376257896,0.999992191792,-0.998709917068,0.99768280983,-0.997315466404,0.98537749052
p,0.999875724316,-0.992837846279,0.993522942066,0.999775707722,-0.999106884003,-0.983756840229,0.938016235828,-0.999999821186,-0.976767241955,0.996577501297,0.999962508678,0.852137565613,-0.987174212933,0.998929202557,-0.997594773769,0.997033178806,-0.999732613564,0.636300742626,-0.999835848808,0.993009269238
p,0.949907004833,-0.393815636635,-0.624391615391,-0.0909365713596,-0.978121817112,-0.62940043211,0.980161786079,-0.991421222687,-0.549495816231,0.297306805849,0.616261601448,0.688654720783,-0.532518863678,0.992768645287,-0.813680946827,0.998657822609,-0.260354012251,0.0337377525866,-0.99801325798,0.634513020515
p,0.996776759624,-0.599925458431,0.935867130756,0.999721944332,-0.999208688736,-0.907941818237,-0.933796525002,-0.999782383442,-0.986640572548,0.99507856369,0.999938130379,0.960668861866,-0.989217400551,0.999970436096,-0.992511332035,0.999960899353,-0.999437689781,0.99642598629,-0.992591977119,0.991113364697
p,0.999998152256,-0.998572587967,0.997447133064,0.99999755621,-0.998283863068,-0.984098911285,-0.439563661814,-0.999887168407,-0.979775547981,0.999999642372,0.999999940395,0.9672716856,-0.986065626144,0.999999880791,-0.993616223335,0.999950706959,-0.999999403954,0.998677670956,-0.998227477074,0.998786628246
p,0.999993383884,-0.995683908463,0.99763584137,0.999998211861,-0.992472648621,-0.970428884029,0.0600349456072,-0.999979913235,-0.98449420929,0.999998629093,1.0,0.996436357498,-0.902172684669,0.999970436096,-0.992887675762,0.999798297882,-0.999999284744,0.99702334404,-0.998494803905,0.999493956566
p,0.998518943787,-0.968360066414,0.993378937244,0.999971687794,-0.997492671013,-0.851941585541,-0.991294264793,-0.999815165997,-0.999059081078,0.986953258514,0.999872207642,0.985159277916,-0.948219954967,0.999993860722,-0.983742833138,0.999973237514,-0.99994301796,0.99968546629,-0.98604953289,0.998491168022
p,0.999999701977,-0.998042881489,0.999565601349,1.0,-0.994837582111,-0.982687592506,0.555442988873,-0.999999463558,-0.984520733356,0.999999284744,0.999999880791,0.995573997498,-0.49440652132,0.999989390373,-0.998388409615,0.999944925308,-1.0,0.999949336052,-0.999929487705,0.999983072281
p,0.999992787838,-0.999348163605,0.993896305561,0.999994754791,-0.997457027435,-0.957759082317,-0.782820522785,-0.736166298389,-0.987285614014,1.0,0.999990463257,0.997511327267,-0.936708927155,0.999987542629,-0.990265607834,0.999956250191,-0.999990642071,0.998835027218,-0.996379733086,0.999509871006
p,0.999996721745,-0.995931923389,0.984360396862,0.999995470047,-0.977889895439,-0.989804208279,0.641896247864,-1.0,-0.909699380398,0.998955905437,0.998357117176,0.932350039482,0.768420815468,0.999847590923,-0.994830191135,0.999904692173,-0.999965965748,0.995027005672,-0.998443961143,0.999938845634
p,0.999987244606,-0.997204899788,0.992772877216,0.999996721745,-0.997124314308,-0.977966845036,0.440015763044,-0.999999880791,-0.845864534378,0.999986946583,0.999984502792,0.946563482285,-0.809390723705,0.999998807907,-0.995404422283,0.999990105629,-0.999996721745,0.994565248489,-0.9999589324,0.999348223209
p,0.999973475933,-0.99547290802,0.995528638363,0.999980568886,-0.999068617821,-0.866908490658,0.812803208828,-0.999989032745,-0.992770969868,0.99998819828,0.999996066093,0.987393915653,-0.84950196743,0.999998390675,-0.995362102985,0.999992311001,-0.999989509583,0.998662590981,-0.999940633774,0.999501645565
p,0.999997138977,-0.998885929585,0.997681200504,0.999998509884,-0.99295771122,-0.985149681568,-0.0163433905691,-0.99593180418,-0.91244238615,0.999999821186,0.999998927116,0.991416633129,-0.949569642544,0.999989569187,-0.992774784565,0.999753057957,-0.999999523163,0.999386489391,-0.999364197254,0.999862849712
p,0.989793896675,-0.664572894573,0.924858093262,0.997185766697,-0.997074067593,-0.712543010712,-0.925053596497,-0.998041331768,-0.984382033348,0.999605953693,0.999085783958,0.9918628335,-0.976927042007,0.99995726347,-0.970595538616,0.999972522259,-0.991655647755,0.989735245705,-0.99479663372,0.990862131119
p,0.99943614006,-0.870415329933,0.953473269939,0.99999910593,-0.996921122074,-0.999995589256,0.874531388283,-0.999575912952,-0.999999582767,0.999999165535,0.999968826771,0.993104696274,-0.999215066433,1.0,-0.850200116634,0.999998211861,-0.982315540314,0.998259961605,-0.999974548817,0.983953177929
p,0.999573886395,-0.979569613934,0.997139275074,0.999998390675,-0.997195959091,-0.999960064888,0.773322880268,-0.999999701977,-0.999994218349,0.999983549118,0.999998629093,0.988120257854,-0.999070703983,0.999999940395,-0.865957379341,1.0,-0.997079014778,0.999307870865,-0.999908328056,0.987475097179
p,0.999981343746,-0.998371720314,0.995217740536,0.999999821186,-0.999504506588,-0.98953640461,0.99999922514,-0.999999880791,-1.0,0.987935781479,0.999998509884,0.996380150318,-0.992587506771,0.999998688698,-0.930230677128,0.999999403954,-0.999691069126,0.998162806034,-0.999999880791,0.999130487442
p,0.999997615814,-0.999377012253,0.998349368572,1.0,-0.998733341694,-0.999350965023,0.999859511852,-0.999999880791,-0.999999821186,0.999999642372,1.0,0.995703697205,-0.985456168652,1.0,-0.950668334961,0.999999880791,-0.999814450741,0.999851822853,-0.999999523163,0.996648013592
p,0.999999821186,-0.999485969543,0.999196767807,1.0,-0.998278558254,-0.979067444801,0.999932825565,-1.0,-1.0,0.99994713068,1.0,0.997462034225,-0.92504131794,0.999999880791,-0.975632488728,0.999999821186,-0.999953866005,0.999998033047,-0.99999588728,0.999500274658
p,0.999963223934,-0.999168992043,0.99803185463,0.999998867512,-0.998575508595,-0.968611478806,0.997865378857,-0.999999523163,-0.999999523163,0.999638974667,0.999997854233,0.993400394917,-0.994104146957,0.999999880791,-0.945266962051,0.999996364117,-0.999845683575,0.999949634075,-0.999927937984,0.999090433121
p,0.999667644501,-0.990361571312,0.994048118591,0.9999807477,-0.997198402882,-0.990403532982,0.771021366119,-0.999760806561,-0.999988615513,0.998730659485,0.999982535839,0.996362686157,-0.994588971138,0.999999701977,-0.961754918098,0.999906480312,-0.999863862991,0.999918758869,-0.997895717621,0.998782753944
p,0.996393442154,-0.966001808643,0.983922243118,0.9996971488,-0.994808614254,-0.993308842182,0.691549003124,-0.999898195267,-0.999974966049,0.979684650898,0.999934196472,0.97884362936,-0.923765540123,0.999988973141,-0.947178840637,0.999961555004,-0.999147593975,0.999506294727,-0.980510473251,0.993155002594
p,0.999996483326,-0.999660372734,0.999293148518,0.999999880791,-0.998723745346,-0.997459590435,0.993594646454,-1.0,-1.0,0.999926269054,0.999999821186,0.9977902174,-0.978536248207,0.999999880791,-0.987684905529,0.999999880791,-0.999976277351,0.999969959259,-0.999979138374,0.9995906353
p,0.999839961529,-0.987090826035,0.991592228413,0.999986827374,-0.997509658337,-0.998904168606,0.94098085165,-0.999972343445,-0.99999576807,0.99999165535,0.999998807907,0.838493943214,-0.998911261559,0.999999761581,-0.94965493679,0.846686899662,-0.999940693378,0.999950051308,-0.997590243816,0.999135077
p,0.999146103859,-0.963466286659,0.991119861603,0.999916493893,-0.994365513325,-0.987338781357,0.841057956219,-0.99999153614,-0.999925494194,0.998047053814,0.999894320965,0.928201258183,-0.999886870384,0.999999523163,-0.911680996418,0.999971032143,-0.998893022537,0.991866290569,-0.997498035431,0.995267927647
p,0.999828517437,-0.908409833908,0.991752207279,0.999994516373,-0.99886316061,-0.995364487171,0.530490994453,-0.99999588728,-0.999975919724,0.997292339802,0.999988257885,0.988329768181,-0.991407990456,0.999998927116,-0.980954170227,0.999999582767,-0.999840199947,0.998844265938,-0.995066106319,0.99837833643
p,0.959841370583,-0.336174547672,0.953205168247,0.999276041985,-0.996810734272,-0.980016052723,0.0476706810296,-0.997188091278,-0.998032867908,0.773816287518,0.998795509338,0.961699962616,-0.996422767639,0.999992847443,-0.918700754642,0.999990105629,-0.987789332867,0.990226686001,-0.9609375,0.984501183033
p,0.999966263771,-0.994509041309,0.994235634804,0.999991178513,-0.999249219894,-0.923891067505,0.993718981743,-0.999994933605,-0.999988853931,0.940753340721,0.999993145466,0.99268591404,0.0944243147969,0.999988555908,-0.995455801487,0.999988138676,-0.9999807477,0.999996960163,-0.999081850052,0.999863505363
p,0.999998152256,-0.992705821991,0.995255112648,0.999996721745,-0.997196793556,-0.998837530613,0.991437256336,-0.999999880791,-0.999972879887,0.999014019966,0.999996721745,0.967247724533,-0.995160162449,0.999994516373,-0.962901473045,1.0,-0.999946713448,0.987852334976,-0.999805152416,0.998756527901
p,0.998430430889,-0.910872519016,0.980178892612,0.999794542789,-0.99662399292,-0.996551573277,0.194328591228,-0.999989211559,-0.999870240688,0.97742408514,0.999668776989,0.978527367115,-0.999867975712,0.999959111214,-0.930260956287,0.999999821186,-0.994887530804,0.716141343117,-0.994561553001,0.993794739246
p,0.999997496605,-0.999035000801,0.999300181866,1.0,-0.998829007149,-0.996904850006,0.962067902088,-0.99999910593,-0.99999833107,0.999741613865,0.99999910593,0.998327672482,-0.970834314823,0.999999284744,-0.988437116146,0.999999642372,-0.999994814396,0.999986767769,-0.999543964863,0.999915540218
p,0.999999642372,-0.998526275158,0.998703479767,1.0,-0.999027192593,-0.999937415123,0.998809814453,-1.0,-0.999999761581,0.999999880791,1.0,0.992400169373,-0.959643542767,0.999999761581,-0.98425078392,0.999999463558,-0.999992609024,0.999934434891,-0.999901771545,0.999605238438
p,0.999999880791,-0.999472022057,0.99976593256,1.0,-0.999494552612,-0.999704420567,0.999863684177,-1.0,-1.0,0.999952495098,1.0,0.985631942749,-0.971134066582,0.999999046326,-0.994111895561,0.999998629093,-0.999998807907,0.99995881319,-0.999990522861,0.99983227253
p,0.999999821186,-0.99360793829,0.998591780663,0.999999821186,-0.999407172203,-0.999674499035,0.999288201332,-0.999999761581,-0.999999284744,0.999999463558,0.999999701977,0.979913711548,-0.975699722767,0.999998033047,-0.988049089909,0.999991059303,-0.999997079372,0.999942958355,-0.999889194965,0.999925553799
p,0.999999284744,-0.999586999416,0.998407959938,1.0,-0.999192297459,-0.999829351902,0.998749136925,-1.0,-0.999999880791,0.999989688396,1.0,0.99342238903,-0.984361588955,0.999995231628,-0.983706891537,0.999995410442,-0.999995827675,0.9993917346,-0.999976396561,0.999358355999
p,0.999976098537,-0.999833285809,0.785808861256,0.999999523163,-0.996111035347,-0.98661506176,0.994818985462,-1.0,-0.99795037508,-0.7147808671,0.999805808067,0.978387892246,0.798415005207,0.999918520451,-0.962723612785,0.997887909412,-0.999999284744,0.999546349049,-0.945859730244,0.999967157841
p,-0.0569259785116,0.0,0.427138060331,-0.0572848804295,-0.711777091026,0.126441240311,0.495532006025,-0.938099324703,-0.927070498466,-0.556292951107,-0.0520557239652,0.836690425873,0.0312316771597,0.734538495541,-0.356767416,0.983736157417,0.659893631935,0.999812841415,-0.458189100027,0.980472922325
p,0.999908149242,-0.996154606342,0.999177873135,0.999994277954,-0.99833548069,-0.996856927872,0.925965428352,-0.999999821186,-0.999998629093,0.994635164738,0.999997913837,0.981182217598,-0.994549334049,0.999999821186,-0.983092308044,0.999998748302,-0.999979138374,0.999484300613,-0.997535407543,0.999090254307
p,0.999999821186,-0.999633491039,0.999942362309,0.999999761581,-0.998882770538,-0.9996778965,0.997453093529,-1.0,-0.999999403954,0.999994397163,1.0,0.97427380085,-0.998055696487,0.999997735023,-0.973568081856,1.0,-0.999987900257,0.99208521843,-0.999987304211,0.999902069569
p,0.994315385818,-0.990401625633,0.957501649857,0.997686982155,-0.9976785779,-0.953441023827,0.999384105206,-0.999454081059,-0.99992954731,0.353318840265,0.999826550484,0.96006333828,-0.982934057713,0.999792814255,-0.93303579092,0.999938368797,-0.990119814873,0.620245993137,-0.997667849064,0.99620693922
p,0.999982535839,-0.998169004917,0.998012125492,0.999999344349,-0.999074816704,-0.999755561352,0.99348795414,-1.0,-0.999999642372,0.999888420105,0.999999582767,0.963458538055,-0.996044099331,0.999999880791,-0.978667378426,0.999948143959,-0.999992549419,0.999408423901,-0.999883830547,0.999278247356
p,0.999999284744,-0.9989823699,0.998778522015,1.0,-0.999311745167,-0.999492108822,0.999327778816,-1.0,-0.999999523163,0.999957859516,0.999999642372,0.985295057297,-0.912611365318,0.999999701977,-0.977137386799,0.999998509884,-0.999999821186,0.999980092049,-0.999962985516,0.999390721321
p,0.999986350536,-0.998152792454,0.999029934406,0.999999701977,-0.998806297779,-0.997203826904,0.980811953545,-0.999999582767,-0.999994516373,0.999908030033,0.999998509884,0.955579578876,-0.996133744717,0.999999761581,-0.989220559597,0.999981760979,-0.999999046326,0.999965727329,-0.999086558819,0.999775350094
p,0.999478816986,-0.99358355999,0.990875244141,0.999846041203,-0.998240113258,-0.999871373177,0.985817074776,-1.0,-0.999989926815,0.999409973621,0.999999403954,0.891540825367,-0.999219477177,0.999999821186,-0.937688112259,0.999978125095,-0.999255299568,0.997439920902,-0.997389674187,0.998699426651
p,0.996944785118,-0.951212108135,0.983211278915,0.999609351158,-0.993522047997,-0.987992882729,0.0742604807019,-0.999977350235,-0.999887168407,0.958163142204,0.999839961529,0.945751190186,-0.998051583767,0.999998569489,-0.95854049921,0.999943673611,-0.999271512032,0.99881964922,-0.98746150732,0.99308514595
p,0.999868631363,-0.995258390903,0.99812746048,0.999991595745,-0.999252676964,-0.999288022518,0.960430562496,-0.999999403954,-0.999997913837,0.999392151833,0.999999403954,0.928435385227,-0.999280691147,0.999999403954,-0.954299271107,0.999997675419,-0.999895095825,0.998514175415,-0.997789621353,0.99956035614
p,0.999986708164,-0.998780250549,0.897278010845,0.999999582767,-0.999761044979,-0.99997740984,0.999988734722,-0.999988734722,-0.999999463558,0.999999940395,0.999999761581,0.791235804558,-0.999981820583,1.0,-0.610190093517,0.999999046326,-0.999985575676,0.999980509281,-1.0,0.998766601086
p,0.999955892563,-0.999995648861,0.788196504116,1.0,-0.999953687191,-0.999938666821,1.0,-0.999999880791,-0.999982535839,1.0,1.0,0.915619552135,-0.994293510914,1.0,-0.777644753456,0.99992120266,-0.999997258186,0.905534446239,-1.0,0.981205761433
p,0.999975144863,-0.999998211861,0.832279026508,0.999999821186,-0.999957680702,-0.99941855669,1.0,-0.999999582767,-1.00000011921,0.999987602234,1.0,0.975447595119,-0.986305236816,1.0,-0.976757884026,0.999023973942,-0.999824166298,-0.109669230878,-1.0,0.998838961124
p,1.0,-0.999827384949,0.993294894695,0.999979257584,-0.999916911125,-0.993151724339,1.0,-1.0,-0.999583363533,0.999929487705,0.999993383884,0.922020316124,-0.999590396881,0.97628569603,-0.864850699902,0.883913099766,-0.999954402447,0.991345345974,-1.0,0.960035085678
h,1.0,0.0,-1.0,0.826786637306,1.0,-1.0,-1.0,-1.0,-0.0,1.0,-0.954202651978,-1.0,0.999998748302,0.540491044521,0.999393820763,0.971806704998,-0.998315513134,0.999999821186,0.896127104759,0.992449939251
h,1.0,0.0,-1.0,1.0,1.0,-1.0,-1.0,-1.0,0.00149062322453,1.0,-0.999921143055,-1.0,1.0,0.869952142239,0.99946719408,0.999967753887,0.77345508337,0.999996781349,0.991249740124,0.999245345592
h,1.0,0.0,-1.0,1.0,1.0,-1.0,-1.0,-1.0,-0.000143648852827,1.0,-0.999874770641,-1.0,1.0,0.974255144596,0.999983966351,0.999569177628,0.940894305706,0.999991416931,0.998728334904,0.999818861485
h,1.0,0.0,-1.0,1.0,0.999998390675,-1.0,-0.999999940395,-1.0,0.0224272180349,1.0,-0.99985319376,-1.0,1.0,0.96624571085,0.999849677086,0.999821484089,0.988290071487,0.999842822552,0.99954521656,0.990101337433
h,1.0,0.0,-1.0,1.0,0.999987542629,-1.0,-0.999997317791,-1.0,0.0399153009057,1.0,-0.999875366688,-1.0,1.0,0.976956546307,0.999759733677,0.999485850334,0.999765098095,0.999835669994,0.999997675419,0.996013224125
h,1.0,0.0,-1.0,1.0,0.99999320507,-1.0,-0.999197125435,-1.0,0.074956998229,1.0,-0.999991476536,-1.0,1.0,0.944093465805,0.99993622303,0.999263167381,0.863143563271,0.998655259609,0.999943673611,0.98469132185
h,1.0,0.0,-1.0,1.0,0.999998509884,-1.0,-0.999906241894,-1.0,0.0,0.999999821186,-0.999996602535,-1.0,1.0,0.957200407982,0.999998927116,0.99862164259,0.886722207069,0.999572455883,0.999932706356,0.99536883831
h,1.0,0.0,-1.0,1.0,0.999983608723,-1.0,-0.999970734119,-1.0,0.0460629984736,1.0,-0.999559521675,-1.0,1.0,0.958235561848,0.999972105026,0.999908566475,0.999992311001,0.999971985817,0.999990820885,0.991776823997
h,1.0,0.0,-1.0,1.0,0.999990940094,-1.0,-0.999904632568,-1.0,0.0891935452819,1.0,-0.999717772007,-1.0,1.0,0.921914458275,0.999996602535,0.999694287777,0.998080730438,0.999970197678,0.999918758869,0.980281949043
h,1.0,0.0,-1.0,1.0,0.999951422215,-1.0,-0.997246205807,-1.0,0.103330023587,0.999999403954,-0.999604463577,-1.0,1.0,0.947737932205,0.999985575676,0.999805390835,0.999906122684,0.999878287315,0.999949574471,0.975921213627
h,1.0,0.0,-1.0,1.0,0.999926865101,-1.0,-0.991746664047,-1.0,0.235099896789,1.0,-0.998203039169,-1.0,1.0,0.969791471958,0.998579502106,0.995560646057,0.99973732233,0.999673306942,0.999948203564,0.992125630379
h,1.0,0.0,-1.0,1.0,0.999971926212,-1.0,-0.999998688698,-1.0,0.27242910862,1.0,-0.998472988605,-1.0,1.0,0.886682271957,0.999996006489,0.999370336533,0.995723068714,0.999822556973,0.999520480633,0.99808806181
h,1.0,0.0,-1.0,0.999994874001,0.999999761581,-1.0,-0.996011912823,-1.0,0.0146367615089,1.0,-0.999996960163,-1.0,1.0,0.960185229778,0.999996721745,1.0,0.979356586933,0.999997913837,0.998718321323,0.953864634037
h,1.0,0.0,-1.0,0.999999761581,0.999998629093,-1.0,-0.995613634586,-1.0,0.0357037186623,1.0,-0.999963521957,-1.0,1.0,0.983069777489,0.995595633984,1.0,1.0,0.998832523823,0.999946713448,0.388845413923
h,1.0,0.0,-0.999986290932,0.999996364117,0.999998807907,-1.0,-0.967826843262,-1.0,0.44730207324,1.0,-0.999993264675,-1.0,0.999999284744,0.970490455627,0.995197117329,0.999988734722,0.999997496605,0.987027943134,0.999999463558,-0.658680081367
h,1.0,0.0,-1.0,1.0,0.999855399132,-1.0,-1.0,-1.0,0.337155252695,1.0,-0.995486617088,-1.0,1.0,0.977145671844,0.993625819683,0.989377200603,0.998391270638,0.970754683018,0.999989271164,0.995672523975
h,1.0,0.0,-1.0,1.0,0.99930113554,-1.0,-1.0,-1.0,0.393794387579,0.999999880791,-0.992961227894,-1.0,1.0,0.552512705326,0.999890446663,0.999487519264,0.991023659706,0.977278828621,0.99948143959,0.952589154243
h,1.0,0.0,-1.0,1.0,0.999961197376,-1.0,-1.0,-1.0,0.319609045982,1.0,-0.997367084026,-1.0,1.0,0.775637805462,0.997973799706,0.999548912048,0.999942719936,0.991212964058,0.999983012676,0.986336350441
h,1.0,0.0,-1.0,1.0,0.99998819828,-1.0,-1.0,-1.0,0.338659346104,1.0,-0.996272563934,-1.0,1.0,0.941462576389,0.999981164932,0.999305665493,0.999204456806,0.998962104321,0.999884665012,0.9735481143
h,1.0,0.0,-1.0,1.0,0.999978482723,-1.0,-0.999937832355,-1.0,0.25125926733,1.0,-0.99656522274,-1.0,1.0,0.917603909969,0.999997794628,0.999997437,0.406825810671,0.999991595745,0.999692380428,0.985908806324
h,1.0,0.0,-1.0,0.999983251095,0.999997138977,-1.0,-0.95188575983,-1.0,-0.0,0.999951720238,-0.999999821186,-1.0,1.0,0.908047437668,1.0,1.0,0.999871015549,0.999944269657,0.99998062849,0.951068639755
h,1.0,0.0,-1.0,1.0,0.99931204319,-1.0,-0.999979555607,-1.0,0.176840037107,0.999998986721,-0.994617044926,-1.0,1.0,0.857849478722,0.999956250191,0.999999880791,0.999981224537,0.999995172024,0.999871432781,0.979531705379
h,1.0,0.0,-1.0,1.0,0.999261617661,-1.0,-0.999058187008,-1.0,0.120314560831,0.999956190586,-0.999390006065,-1.0,1.0,0.979916095734,0.981670022011,0.998877644539,0.999990344048,0.994844555855,1.0,0.994561374187
h,1.0,0.0,-1.0,1.0,0.9997433424,-1.0,-1.0,-1.0,0.144847244024,0.999999761581,-0.948036909103,-1.0,1.0,0.971672236919,0.999903023243,0.997327327728,0.999999940395,0.997453927994,0.999958574772,0.999790430069
h,1.0,0.0,-1.0,1.0,0.999997854233,-1.0,-0.999814331532,-1.0,0.0022676018998,0.999999701977,-0.999999642372,-1.0,1.0,0.973636686802,1.0,0.999928474426,1.0,0.999796807766,1.0,0.990393638611
h,1.0,0.0,-1.0,1.0,0.996815621853,-1.0,-1.0,-1.0,0.607113003731,1.0,-0.984590172768,-1.0,1.0,0.889351546764,0.762954473495,0.993530273438,0.999998509884,0.982394814491,0.999899089336,0.985297381878
h,1.0,0.0,-1.0,1.0,0.999993741512,-1.0,-0.981167733669,-1.0,0.516822934151,1.0,-0.345168054104,-1.0,1.0,0.72030210495,0.999998033047,1.0,1.0,0.969312131405,1.0,-0.918958067894
h,1.0,-1.0,-0.999998450279,1.0,0.999901950359,-1.0,0.777165412903,-0.999998986721,-0.912306785583,1.0,0.845981240273,-0.999994158745,1.0,-0.999898016453,-0.91190123558,0.908671140671,-0.999998927116,0.999997377396,0.999994516373,1.0
p,0.999999821186,-0.999296486378,0.988325059414,1.0,-0.999347686768,-0.946858584881,0.999989271164,-1.0,-0.999997198582,0.99998986721,0.999997138977,0.999981105328,0.806945264339,0.999992609024,-0.999410569668,0.999966919422,-0.999997377396,0.999778389931,-0.999995946884,0.999994874001
p,0.997638642788,-0.970211327076,0.913770616055,0.99994301796,-0.999722540379,-0.659648954868,0.995003521442,-0.990887761116,-0.999752163887,0.999949514866,0.999981999397,0.999003767967,-0.864825546741,0.999971389771,-0.995562493801,0.999931931496,-0.999568641186,0.998869776726,-0.999904751778,0.982813239098
p,0.999998450279,-0.998389899731,0.937568366528,0.999999880791,-0.999923765659,-0.940314769745,0.999997496605,-0.999999761581,-0.999995946884,0.999983608723,0.999999284744,0.999753832817,0.341222494841,0.999956429005,-0.999873101711,0.996449947357,-0.999992311001,0.999618589878,-0.999999701977,0.999984145164
p,0.99986487627,-0.990995585918,0.956631660461,0.999993681908,-0.999629974365,-0.813906431198,0.999413907528,-0.999998152256,-0.999901175499,0.999775588512,0.999989569187,0.99869799614,-0.752039134502,0.99981290102,-0.990794241428,0.999974370003,-0.99985063076,0.995650529861,-0.999982953072,0.999443650246
p,0.999204576015,-0.899757683277,0.978037655354,0.999557375908,-0.999315500259,-0.677507758141,0.988757431507,-0.999908745289,-0.999431312084,0.997468173504,0.999674320221,0.982608318329,-0.902712166309,0.999087035656,-0.973659157753,0.999938905239,-0.998932778835,0.992948651314,-0.998665034771,0.994981110096
p,1.0,-0.999702095985,0.99941778183,1.0,-0.999660134315,-0.974085748196,0.999991834164,-1.0,-0.999996066093,0.99995470047,1.0,0.999395668507,0.129190981388,0.999758481979,-0.998106598854,0.999999642372,-0.999988913536,0.999797165394,-0.999998629093,0.999995112419
p,0.999999821186,-0.99923235178,0.998655259609,1.0,-0.999496936798,-0.976674437523,0.999984622002,-1.0,-0.999973297119,0.999995708466,0.999999880791,0.997052431107,0.56347233057,0.999918341637,-0.998073577881,0.999999403954,-0.999990642071,0.999528765678,-0.999999642372,0.999921619892
p,0.99999833107,-0.995979189873,0.997772157192,0.999999821186,-0.999881088734,-0.943361163139,0.999995052814,-0.999999880791,-0.99999153614,0.998913884163,0.99999922514,0.996148943901,-0.315130233765,0.999203801155,-0.996155261993,0.999988853931,-0.999881625175,0.979393899441,-0.999997258186,0.999926030636
p,0.999995827675,-0.995803117752,0.985926091671,0.999999940395,-0.999542117119,-0.753155708313,0.999796926975,-1.0,-0.999932050705,0.999071598053,0.99997150898,0.997255504131,0.97692668438,0.996393620968,-0.999000251293,0.999993860722,-0.999975204468,0.93226981163,-0.999770343304,0.999996602535
p,0.999881088734,-0.98609483242,0.983188211918,0.999795496464,-0.999756097794,-0.755909740925,0.999649882317,-0.999992847443,-0.999950170517,0.994132816792,0.999966561794,0.997418403625,-0.597353219986,0.999742209911,-0.986098766327,0.99997574091,-0.99947065115,0.989937663078,-0.999984323978,0.998325407505
p,1.0,-0.999424993992,0.999240517616,1.0,-0.999786913395,-0.97988140583,0.999990642071,-1.0,-0.999998390675,0.999903142452,0.999999582767,0.998544812202,0.568482398987,0.997983574867,-0.999179363251,0.999999761581,-0.999993503094,0.995051264763,-0.999999940395,0.999980390072
p,0.99999910593,-0.999912083149,0.998546302319,1.0,-0.999951899052,-0.967912435532,0.999737501144,-0.999999821186,-0.99998986721,0.999925553799,0.999999642372,0.999744474888,0.215631246567,0.999684214592,-0.998600542545,0.999999880791,-0.999988496304,0.995391190052,-0.999999284744,0.999931752682
p,0.999999642372,-0.999122440815,0.998877465725,1.0,-0.999828100204,-0.97264277935,0.999905824661,-1.0,-0.999973893166,0.991957783699,0.999995529652,0.993340134621,-0.0189084578305,0.99948489666,-0.996621906757,0.999999403954,-0.99997651577,0.989953100681,-0.999989449978,0.999971091747
p,0.999998390675,-0.992040872574,0.989823043346,0.999999642372,-0.999656677246,-0.98738014698,0.998836874962,-1.0,-0.999933123589,0.999932467937,0.999999403954,0.993053197861,-0.954682707787,0.999778747559,-0.998193025589,0.99998986721,-0.99989938736,0.985959947109,-0.999982535839,0.999801397324
p,0.999984204769,-0.998434484005,0.985141813755,0.999998688698,-0.999734461308,-0.652692198753,0.99998241663,-0.999999821186,-0.999983668327,0.989445447922,0.999995589256,0.993135273457,0.577142596245,0.999775767326,-0.995039761066,0.999989688396,-0.999971985817,0.989808380604,-0.999993979931,0.999851346016
p,0.999995350838,-0.985315024853,0.975868225098,0.99999922514,-0.999362528324,-0.974745154381,0.999952733517,-0.999999761581,-0.999989748001,0.996306657791,0.999992907047,0.997055411339,-0.748989999294,0.999748110771,-0.992730140686,0.999987900257,-0.999874889851,0.998145759106,-0.999993503094,0.998457849026
p,0.999992728233,-0.999155044556,0.99434453249,0.999999463558,-0.999407351017,-0.927593529224,0.999869346619,-1.0,-0.999936819077,0.942261397839,0.999959170818,0.995282709599,0.719815254211,0.996655523777,-0.995900452137,0.999986171722,-0.999957442284,0.998065948486,-0.999954044819,0.999984443188
p,0.999999284744,-0.999119520187,0.991181433201,0.999997675419,-0.997655153275,-0.572467625141,0.999958097935,-1.0,-0.999832987785,-0.324402660131,0.999854564667,0.998237013817,0.990819573402,0.998692810535,-0.998213648796,0.996255517006,-0.999740004539,0.192699477077,-0.999274611473,0.999999046326
p,0.999932408333,-0.978229403496,0.986259758472,0.999982237816,-0.99961990118,-0.987339615822,0.993761539459,-0.999997496605,-0.999472796917,0.988286852837,0.99995726347,0.977201521397,-0.94770270586,0.999658763409,-0.988176703453,0.999994218349,-0.999174535275,0.967955172062,-0.999866962433,0.998884260654
p,0.999757647514,-0.999184668064,0.987469553947,1.0,-0.999962925911,-0.999999821186,1.0,-0.999999880791,-1.0,1.0,1.0,0.999754428864,-0.964218318462,1.0,-0.988160312176,0.999428033829,-0.999943315983,0.999616742134,-1.0,0.998688459396
p,0.999990344048,-0.999987244606,0.99469512701,1.0,-0.99990105629,-0.999989509583,1.0,-1.0,-1.0,0.999999880791,1.0,0.999781310558,-0.933718442917,1.0,-0.987757861614,0.999944150448,-0.999938130379,0.99888086319,-1.0,0.999400377274
p,0.999989688396,-0.993341743946,0.978090643883,1.0,-0.999847114086,-0.999868392944,1.0,-0.999997019768,-1.0,1.0,1.0,0.998810470104,-0.981261670589,1.0,-0.975347220898,0.999989449978,-0.999781727791,0.973692893982,-1.0,0.993579030037
p,0.999999642372,-0.994562327862,0.95496660471,1.0,-0.999948620796,-0.99952852726,1.0,-1.0,-0.999999761581,0.999990940094,1.00000011921,0.999909341335,-0.849674403667,0.999994575977,-0.99953609705,0.999911367893,-0.999918401241,0.994946241379,-0.999999761581,0.999984622002
p,1.0,-0.998413741589,0.993624210358,1.0,-0.999965131283,-0.998999655247,1.0,-1.0,-1.0,0.999998807907,1.0,0.999930739403,-0.64641135931,0.999999165535,-0.9999781847,0.999980151653,-0.999998927116,0.998406589031,-1.0,0.999978661537
p,0.99999910593,-0.989394247532,0.903542339802,1.0,-0.999928534031,-0.999438941479,1.0,-1.0,-1.0,0.999992370605,1.0,0.999336838722,-0.881647109985,0.999998986721,-0.998346149921,0.999938488007,-0.999983429909,0.995685279369,-1.0,0.999846935272
p,0.999999821186,-0.991983950138,0.981061160564,1.0,-0.999993801117,-0.999947547913,0.999999940395,-1.0,-1.0,0.999999642372,1.0,0.996606051922,-0.992199242115,0.999999761581,-0.997988820076,0.999970555305,-0.999935865402,0.896455526352,-1.0,0.998628020287
p,0.999993085861,-0.995124101639,0.98230522871,1.0,-0.999836444855,-0.996514260769,0.999999940395,-0.999999701977,-0.999999940395,0.999976456165,1.0,0.999014437199,-0.595565617085,0.999998390675,-0.997359752655,0.999982357025,-0.999864280224,0.858211457729,-1.0,0.999771118164
p,0.999999523163,-0.98499339819,0.982021212578,1.0,-0.999867677689,-0.999111294746,1.0,-0.999999821186,-1.0,0.999980390072,1.0,0.999255001545,-0.773071587086,0.999998509884,-0.994507908821,0.999993801117,-0.99996137619,0.972616910934,-1.0,0.998887717724
p,0.999999642372,-0.994262337685,0.9892385602,1.0,-0.999953389168,-0.998507618904,1.0,-0.999999821186,-0.999999880791,0.99986821413,1.0,0.998938500881,-0.946850717068,0.999998450279,-0.993595063686,0.999997675419,-0.99993544817,0.797157168388,-1.0,0.999668180943
p,0.999998807907,-0.999444544315,0.941291689873,1.0,-0.999929070473,-0.996413111687,1.0,-0.999998450279,-0.999994516373,0.995905399323,1.0,0.998830497265,-0.742700397968,0.999972045422,-0.996349811554,0.999730050564,-0.999425113201,-0.158225923777,-1.0,0.999854743481
p,0.999758780003,-0.99514067173,0.968504369259,0.999999880791,-0.999727904797,-0.953990757465,1.0,-0.999999821186,-0.999995708466,0.991652369499,1.0,0.99542093277,-0.768189668655,0.999999761581,-0.987791359425,0.999918043613,-0.999933362007,0.951337873936,-0.999995291233,0.999858915806
h,1.0,0.0,-1.0,1.0,0.999320626259,-1.0,-1.0,-1.0,1.0,0.998197853565,-0.526476740837,-0.933178603649,1.0,0.612115859985,-0.16648876667,1.0,0.994975030422,1.0,0.999602138996,0.980231046677
h,1.0,0.0,-1.0,1.0,0.999919593334,-1.0,-0.999998629093,-1.0,0.0724972039461,0.998340904713,-0.999821662903,-0.999999880791,1.0,0.865991175175,0.994589328766,0.99997228384,0.999362766743,0.930083811283,0.999801516533,0.993305325508
h,1.0,0.0,-0.999834775925,0.938750982285,0.999999761581,-0.0457320250571,-0.999976277351,-0.97379720211,-0.0208851415664,0.999863386154,-0.292502313852,-0.999999880791,0.999991178513,0.762850999832,-0.156513541937,0.988816082478,-0.997691512108,0.999898135662,0.978731095791,0.999382734299
h,1.0,0.0,-1.0,0.999999880791,0.999047338963,-1.0,-0.992947340012,-1.0,-0.000428757368354,0.999278008938,-1.0,-1.0,0.999999821186,0.958146691322,0.999865889549,0.854406654835,0.999515235424,0.983757197857,0.999981939793,0.995551407337
h,1.0,0.0,-1.0,1.0,0.999629199505,-1.0,-0.999586820602,-1.0,-0.00829316675663,0.995681285858,-0.999996423721,-0.99999910593,1.0,0.835786342621,0.999826788902,0.999997079372,1.0,0.994844138622,0.999994277954,0.996178627014
h,0.999996185303,0.343069463968,-1.0,0.864008009434,0.999745666981,-0.999515533447,-0.999994933605,-0.999999761581,0.0,0.993187248707,-0.97800630331,-0.999989390373,0.989371478558,0.992304444313,0.75232809782,0.0,0.998358607292,0.825107753277,0.993876874447,0.967461943626
h,1.0,0.0,-1.0,1.0,0.999826967716,-1.0,-0.999942600727,-1.0,0.0191915296018,0.998505473137,-0.99996483326,-1.0,1.0,0.93835747242,0.994944870472,0.999993920326,0.999932289124,0.999507308006,0.999950170517,0.997815489769
h,1.0,-0.0,-1.0,1.0,0.99729347229,-1.0,-0.918848872185,-1.0,-0.315897792578,0.99897569418,-0.701279103756,-0.996924877167,1.0,0.745884001255,-0.994565963745,0.956257224083,-0.997976064682,0.999184012413,0.999282717705,0.989936947823
h,0.999999940395,0.0,-1.0,0.985684156418,0.999115347862,-0.998862206936,-0.978260576725,-0.999999880791,0.00569752696902,0.960178792477,-0.987959384918,-0.999643862247,0.999939858913,0.873379170895,0.875487267971,0.999480783939,0.9999807477,0.999139130116,0.999944031239,0.989544689655
h,1.0,0.0,-1.0,0.999861419201,0.999859452248,-1.0,-0.993003070354,-1.0,-0.0225892551243,0.999944388866,-0.999999880791,-1.0,0.999177157879,0.990602612495,1.0,0.514219462872,0.999990403652,0.997192144394,0.985569655895,0.991077542305
h,1.0,0.0229617524892,-1.0,1.0,0.999965906143,-1.0,-1.0,-1.0,-0.00251590437256,0.999666512012,-0.999937415123,-0.999999940395,1.0,0.913387179375,0.999999880791,0.327499687672,0.992992341518,0.817496478558,0.986359000206,0.999185323715
h,1.0,0.0,-1.0,1.0,0.99978017807,-1.0,-1.0,-1.0,0.0221448261291,0.999894082546,-0.999763786793,-0.999968111515,1.0,0.952299833298,0.999998688698,0.739766001701,0.986950397491,0.422787338495,0.980892181396,0.991756796837
h,1.0,0.0,-1.0,1.0,0.999524354935,-1.0,-0.999985277653,-1.0,0.00956279784441,0.984069049358,-0.999998509884,-0.993870735168,1.0,0.90929043293,0.997756302357,0.999300599098,0.954682528973,0.529392838478,0.995219409466,0.99395442009
h,1.0,0.0,-1.0,1.0,0.999982357025,-1.0,-1.0,-1.0,0.0300440620631,0.999993681908,-0.999979913235,-0.998511433601,1.0,0.984213292599,1.0,0.67635756731,0.966245532036,0.378614544868,0.944797337055,0.996029555798
h,1.0,0.0,-1.0,0.999999821186,0.999920129776,-1.0,-0.999992847443,-1.0,-0.00484864320606,0.993356883526,-0.999997973442,-0.998309075832,0.999997854233,0.926626563072,0.999998092651,0.923742175102,0.98090583086,0.438577920198,0.981402933598,0.997372806072
h,1.0,0.0,-1.0,1.0,0.999998450279,-1.0,-0.999997079372,-1.0,-0.00228597270325,0.999912440777,-1.0,-0.999998748302,1.0,0.922403752804,0.999998688698,0.942774951458,0.954846858978,0.801597297192,0.997127711773,0.995813965797
h,1.0,0.0,-1.0,0.999987065792,0.999505460262,-1.0,-0.999984383583,-1.0,-0.0428353361785,0.995087146759,-0.999953985214,-0.999983370304,0.995589196682,0.714675426483,0.597516477108,0.952431857586,0.994010150433,0.924104571342,0.853806853294,0.99860316515
h,1.0,0.0,-1.0,0.999714612961,0.999994397163,-1.0,-1.0,-1.0,-0.0453217290342,0.99976849556,-0.999825298786,-1.0,0.98892802,0.830540120602,0.999806582928,0.524699389935,0.998464047909,0.999560296535,0.866771101952,0.999685943127
h,1.0,0.0,-1.0,0.999991059303,1.0,-1.0,-1.0,-1.0,-0.0,1.0,-0.999533295631,-1.0,0.999999701977,0.872240304947,0.999442636967,0.592645287514,0.994735062122,0.990548849106,0.98306953907,1.0
h,1.0,0.0,-1.0,0.999996066093,1.0,-1.0,-1.0,-1.0,-0.00273730955087,1.0,-0.999543070793,-1.0,0.999999761581,0.951235711575,0.99931460619,0.444828718901,0.999992489815,0.998755991459,0.988346815109,1.0
h,1.0,0.0,-1.0,0.999999880791,0.999997973442,-1.0,-1.0,-1.0,-0.0117525327951,0.999999642372,-0.998949468136,-1.0,0.999999403954,0.903689205647,0.999955356121,0.748785197735,0.999991416931,0.997881054878,0.988327026367,0.999988913536
h,1.0,0.0,-1.0,0.999668002129,0.999999940395,-1.0,-1.0,-1.0,0.0,0.999999940395,-0.999999821186,-1.0,0.999877750874,0.958189249039,0.999998629093,0.245384886861,0.995109558105,0.989743232727,0.964677870274,0.999996781349
h,0.999999880791,0.0,-1.0,0.998564183712,0.999977171421,-1.0,-1.0,-1.0,-0.000612028001342,0.999920487404,-0.999998390675,-0.99883043766,0.972640216351,0.947359263897,1.0,0.400905102491,0.999786734581,0.983694136143,0.993067443371,0.999753713608
h,0.999999880791,0.0,-1.0,0.999910235405,0.999998390675,-1.0,-1.0,-1.0,-0.00484090251848,0.999999403954,-0.999723732471,-0.999997079372,0.920294940472,0.954872965813,0.999931573868,0.50355219841,0.977576851845,0.997340857983,0.983328938484,0.999996304512
h,1.0,0.0,-1.0,0.999962210655,0.999902069569,-1.0,-1.0,-1.0,-0.00142327102367,0.999572277069,-0.999939322472,-0.999999880791,0.999442219734,0.817966401577,1.0,0.853061139584,0.996765494347,0.750083446503,0.993880093098,0.997516095638
h,0.999997794628,0.0,-1.0,0.999660372734,0.999967694283,-1.0,-1.0,-0.999999642372,-0.000354380754288,0.999941945076,-0.999732732773,-1.0,0.782076895237,0.856600403786,0.999957442284,0.771576344967,0.992947995663,0.993742763996,0.896180450916,0.999897837639
h,1.0,0.0,-1.0,0.999999463558,0.99970304966,-1.0,-1.0,-1.0,-0.0179352182895,0.999940514565,-0.999881148338,-1.0,0.999983489513,0.762663960457,0.995401620865,0.680657148361,0.999556005001,0.999746739864,0.956819534302,0.999894797802
h,1.0,0.0,-1.0,0.999823868275,0.999001920223,-1.0,-1.0,-1.0,-0.0196631103754,0.997639298439,-0.999880850315,-0.999129652977,0.98297393322,0.888346493244,0.999994635582,0.894798755646,0.999931395054,0.994960546494,0.970694482327,0.997005999088
h,1.0,0.0,-1.0,1.0,0.999990522861,-1.0,-1.0,-1.0,-0.00996036827564,0.999998629093,-0.999501764774,-1.0,1.0,0.70562428236,0.999962449074,0.919148027897,1.0,0.989038944244,0.996330559254,0.999958336353
h,1.0,0.0,-1.0,0.999999165535,1.0,-1.0,-1.0,-1.0,0.00535307219252,1.0,-0.996585428715,-1.0,1.0,0.596100330353,0.527796208858,0.793718993664,-0.79341584444,0.999579250813,0.892382025719,0.999987125397
h,0.999899506569,0.0,-0.999999880791,0.958272993565,0.999998033047,-0.999999821186,-1.0,-0.999148845673,-0.0245197135955,0.999435901642,-0.989159584045,-1.0,0.987025260925,0.939850389957,0.987518429756,0.824254274368,0.997970819473,0.967049121857,0.958215475082,0.999710917473
h,1.0,0.0,-1.0,0.999852657318,1.0,-1.0,-1.0,-1.0,-0.00110811751802,1.0,-0.99992364645,-1.0,0.999957561493,0.831079244614,1.0,0.840788662434,0.987506091595,0.994672358036,0.950757026672,0.999985933304
h,1.0,0.0,-1.0,0.999999344349,0.999999284744,-1.0,-1.0,-1.0,-0.0132888602093,0.999971032143,-0.998899281025,-1.0,1.0,0.67351436615,0.999962091446,0.869552910328,0.99950248003,0.996849536896,0.774644911289,0.999992549419
h,0.999999761581,0.0,-1.0,0.999992191792,1.0,-1.0,-1.0,-0.998153328896,-0.0,1.0,-0.834610283375,-1.0,1.0,0.967385709286,0.729151368141,0.781098246574,1.0,0.999993741512,0.987508058548,1.0
h,1.0,0.0,-1.0,1.0,0.998258113861,-1.0,-0.160286143422,-1.0,0.0841943472624,0.742617487907,-0.999999701977,-0.978798508644,1.0,0.741178750992,0.985759198666,0.998800575733,0.999889314175,0.904706656933,0.999923467636,0.97863817215
h,1.0,0.0,-1.0,0.999999880791,0.997593998909,-1.0,-0.782978177071,-1.0,0.0418435968459,0.941103994846,-0.999997317791,-0.998162925243,0.999658644199,0.768196463585,0.999298930168,0.999219059944,0.904961407185,0.987101793289,0.999705195427,0.985630571842
h,1.0,-0.772563695908,-0.999999880791,0.999997854233,0.998840272427,-0.999989569187,0.999998748302,-1.0,-0.996965408325,0.915680229664,0.870832800865,-0.9867374897,0.999995231628,0.99019920826,-0.999992847443,0.997099101543,-0.996630847454,0.994337797165,0.974293708801,0.992207288742
h,1.0,-1.0,-1.0,1.0,1.0,-0.999924242496,1.0,-1.0,-0.999995231628,1.0,0.999979734421,-0.999931335449,1.0,0.999029159546,-1.0,0.999426364899,-1.0,1.0,1.0,1.0
h,1.0,0.0,-1.0,1.0,0.997383236885,-1.0,-0.999931037426,-1.0,0.0671099871397,0.993589520454,-0.999870359898,-0.998509645462,1.0,0.89705324173,-0.170970588923,0.99961912632,0.997765183449,0.990310430527,0.999996840954,0.996322393417
h,1.0,0.0,-1.0,0.999971628189,0.999925374985,-1.0,-0.999999761581,-1.0,-0.00173909717705,0.999902546406,-0.999974966049,-1.0,0.927679240704,0.912949740887,1.0,0.864623069763,0.905420362949,0.999447584152,0.951723337173,0.999568223953
h,1.0,-0.0,-1.0,1.0,0.99997651577,-1.0,-0.999996006489,-1.0,-0.00312057137489,0.999982357025,-0.999827802181,-1.0,1.0,0.826164126396,0.698276102543,0.999996781349,0.986335515976,0.999999821186,0.999985277653,0.999430060387
h,0.999999880791,0.100057080388,-0.999994397163,0.993894517422,0.999999940395,-1.0,-1.0,-0.999965250492,-0.000787425145973,1.0,-0.983347594738,-0.989293754101,0.972737252712,0.954895317554,0.999999940395,0.257108896971,-0.788202345371,0.999212265015,0.818883121014,0.993122458458
h,1.0,0.0,-1.0,0.998008549213,1.0,-1.0,-1.0,-1.0,-0.0137229301035,1.0,-0.999246537685,-1.0,1.0,0.838579595089,0.984956800938,0.999784708023,-0.980613529682,1.0,0.953423798084,1.0
h,-0.894390642643,0.0,-1.0,-0.193106353283,1.0,0.793560326099,-0.986514627934,0.380664139986,-0.0,0.999973773956,-0.0,-1.0,1.0,0.927915513515,0.308211386204,0.999557495117,1.0,1.0,0.997902810574,1.0
h,-0.920710861683,0.0,-1.0,-0.638478755951,1.0,0.980936527252,-1.0,-0.904936730862,-1.08145748356e-07,0.999758064747,-0.0,-0.999937176704,1.0,0.949024617672,0.932431578636,0.666143476963,1.0,0.999998807907,0.787396132946,1.0
h,-0.999964177608,0.0,-1.0,-0.269276320934,1.0,0.766379535198,-0.910968780518,0.971291542053,-7.12871717212e-09,0.999951303005,-0.0,-1.0,0.999964237213,0.773854076862,0.426345318556,0.497627705336,0.960628271103,0.923245549202,0.597078680992,1.0
h,1.0,0.668325066566,-1.0,1.0,1.0,-1.0,-0.999999821186,-0.999999701977,-0.00578369386494,1.0,0.950607776642,-1.0,1.0,0.999386191368,-0.787791609764,0.400089263916,-0.999814987183,1.0,0.51178252697,1.0
h,1.0,0.0,-1.0,-0.746882915497,1.0,-1.0,-1.0,-0.999977111816,-0.00431347917765,0.999994635582,-0.928993761539,-1.0,1.0,0.93043422699,0.99221765995,0.999999880791,1.0,1.0,0.960764408112,0.999976336956
h,1.0,0.0,-1.0,1.0,0.999819099903,-1.0,-1.0,-1.0,-0.000425611127866,0.999996781349,-0.999968469143,-1.0,1.0,0.940614283085,0.418564260006,0.995803534985,0.999939203262,0.99998497963,0.999295055866,0.999859392643
h,1.0,0.0784727782011,-1.0,1.0,1.0,-1.0,-1.0,-1.0,-0.0041345260106,1.0,-0.954855978489,-1.0,1.0,0.788061738014,1.0,0.98534321785,-0.993989050388,0.998934984207,0.967453241348,0.997738301754
h,1.0,-0.327379465103,-1.0,1.0,1.0,-0.999773144722,-0.99902844429,-1.0,-0.0263209193945,1.0,0.953861773014,-1.0,1.0,0.97706413269,-0.175953909755,0.999901235104,-1.0,1.0,0.991488158703,1.0
h,1.0,0.0,-1.0,0.999993979931,0.999984502792,-1.0,-0.999999642372,-1.0,1.04240089058e-05,0.999959051609,-0.999998211861,-0.999779760838,1.0,0.929979979992,0.996431589127,0.650519311428,0.996509075165,0.999850451946,0.996577560902,0.99996650219
h,1.0,0.161454498768,-1.0,0.999941885471,1.0,-1.0,-1.0,-1.0,7.68674653955e-05,1.0,-0.992303967476,-0.999987244606,1.0,0.935629427433,0.999999403954,0.138385638595,-0.737595617771,0.999497950077,0.962107658386,0.999776780605
h,1.0,0.0,-1.0,1.0,1.0,-1.0,-1.0,-1.0,-2.6530935429e-05,1.0,-0.999167978764,-1.0,1.0,0.846518874168,0.999994814396,0.633300423622,0.933480739594,0.999840021133,0.882323086262,0.999999165535
h,1.0,0.0,-1.0,0.957065165043,0.999996602535,-1.0,-1.0,-1.0,-0.0382630676031,0.999980866909,-0.999329388142,-1.0,1.0,0.618968188763,1.0,0.999980330467,0.999985873699,0.99940174818,0.933766841888,0.999852716923
h,1.0,0.0,-1.0,1.0,1.0,-1.0,-1.0,-1.0,-0.0184699539095,1.0,-0.999673128128,-1.0,1.0,0.805469930172,0.999998390675,0.999999523163,0.992987513542,0.999977648258,0.993327558041,0.999990880489
h,1.0,0.0166354011744,-1.0,1.0,0.997731387615,-1.0,-0.999998688698,-1.0,-0.0398515872657,0.999469459057,-0.999938845634,-0.999965667725,1.0,0.888167738914,-0.72901982069,0.660367429256,-0.29091194272,0.995099127293,0.952658951283,0.998318731785
h,1.0,-0.322667181492,-1.0,1.0,1.0,-1.0,-0.999990224838,-1.0,0.0460866913199,1.0,0.858522891998,-1.0,1.0,0.995754063129,-0.48620557785,0.998194754124,-1.0,1.0,0.997723519802,1.0
h,1.0,0.0,-1.0,1.0,0.999997198582,-1.0,-1.0,-1.0,0.00199314719066,0.999999821186,-0.999965727329,-0.999835848808,1.0,0.857558906078,0.998467683792,0.898163259029,0.99961912632,0.999947071075,0.988204836845,0.999960124493
h,1.0,0.0,-1.0,1.0,1.0,-1.0,-1.0,-1.0,-0.0,1.0,-0.999939858913,-1.0,1.0,0.957370758057,0.999838590622,1.0,0.999718904495,0.999999940395,0.999583125114,0.999997019768
h,1.0,-0.0396320894361,-0.999999880791,0.99971807003,0.992959439754,-0.999999821186,0.999253571033,-1.0,-0.489054918289,0.937667071819,-0.989604890347,-0.997420489788,0.988301277161,0.868431389332,0.984133124352,0.999992966652,0.999999165535,0.904635548592,0.950369000435,0.978761553764
h,1.0,0.0,-1.0,0.999999165535,1.0,-1.0,-1.0,-1.0,-0.0,1.0,-0.99848896265,-1.0,1.0,0.738900721073,1.0,0.610561192036,-0.998435139656,0.999959230423,0.969360649586,0.999093532562
h,1.0,0.179807335138,-1.0,1.0,1.0,-1.0,-1.0,-1.0,0.000209518519114,1.0,-0.969157636166,-1.0,1.0,0.810558438301,0.999982893467,0.547510743141,-0.998753011227,0.99994623661,0.972685873508,0.999997019768
A,0.999942958355,-0.999959826469,0.82465082407,0.999637067318,-0.999471724033,-0.178050667048,0.997346997261,-0.99999320507,-0.984166681767,-0.00285594840534,0.999983847141,0.935698091984,0.929528295994,0.999972879887,-0.999818980694,0.998958706856,-0.999416291714,-0.99606025219,-0.999884784222,0.997494697571
A,0.778912067413,-0.999993503094,-0.670251965523,-0.94275778532,-0.999926805496,0.0136873954907,0.971146702766,-0.996442496777,-0.67052513361,-0.76351994276,0.998287081718,0.476900458336,0.660897016525,0.999952852726,-0.998798489571,0.999146342278,-0.99511218071,-0.999967515469,-0.994411587715,0.995864450932
A,0.997876644135,-0.98744815588,0.932121992111,0.988831281662,-0.998557150364,-0.100351221859,0.970706999302,-0.999146401882,-0.988437831402,0.821106612682,0.999937593937,0.896878480911,0.326339930296,0.999939441681,-0.999426841736,0.999868392944,-0.999160289764,-0.900410890579,-0.999685227871,0.9861728549
A,0.975114345551,-0.986488759518,-0.178334653378,-0.977459251881,-0.999843895435,-0.574991941452,0.992781341076,-0.974775850773,-0.557613551617,0.464976906776,0.999341785908,0.292500048876,0.0431767888367,0.999636650085,-0.963296055794,0.997644841671,-0.990942239761,-0.999007046223,-0.999774217606,0.869760990143
A,0.987684726715,-0.988373637199,0.798197746277,0.995607793331,-0.99839246273,-0.0374918617308,0.999902963638,-0.998154938221,-0.982690751553,-0.953413009644,0.998695194721,0.987616956234,0.773104190826,0.998962461948,-0.937697052956,0.977487027645,-0.994391381741,-0.982566416264,-0.991392672062,0.999256134033
A*,0.992586195469,-0.989490568638,-0.94010668993,-0.979274272919,-0.999717473984,-0.248681798577,0.922468960285,-0.988198339939,-0.740002214909,-0.394814193249,0.938443303108,0.222299128771,0.918897688389,0.999866068363,-0.966196596622,0.9994186759,-0.996965944767,-0.63700735569,-0.984624505043,0.988646388054
A*,0.927512168884,-0.98557049036,-0.999276280403,-0.974462270737,-0.988625466824,-0.332696229219,0.998793065548,-0.999752998352,-0.64782333374,-0.605563402176,-0.0354436822236,-0.760277032852,0.97379130125,0.996822535992,-0.950685024261,0.975699961185,-0.911929607391,-0.727767765522,-0.942717432976,0.996742665768
A*,0.999929845333,-0.994165480137,-0.970749139786,-0.989603161812,-0.999914765358,-0.65138143301,0.970151305199,-0.999852716923,-0.677679717541,0.910101294518,0.995256543159,-0.0502187609673,0.995715618134,0.999998390675,-0.999117136002,0.999331712723,-0.998719573021,-0.985698461533,-0.998189270496,0.998755931854
A,0.996418297291,-0.999294400215,0.681510984898,0.915424466133,-0.999583303928,-0.102545179427,0.999989151955,-0.99990862608,-0.993912041187,-0.926758646965,0.999869704247,0.999656915665,0.929510712624,0.99968957901,-0.999124825001,0.965015411377,-0.999709904194,-0.999219179153,-0.997775495052,0.999828636646
A,0.998696804047,-0.997587680817,0.236454159021,0.776015996933,-0.999393165112,-0.678408026695,0.99998664856,-0.999998450279,-0.977737903595,-0.421588331461,0.998872935772,0.997267246246,0.625261366367,0.999932408333,-0.988545536995,0.99999076128,-0.998695611954,-0.736390471458,-0.999962031841,0.998175799847
A,0.999777436256,-0.999698400497,0.966515541077,0.994458734989,-0.999864339828,-0.00171228463296,0.99995726347,-0.999999403954,-0.991704404354,-0.992248475552,0.999399960041,0.937282443047,0.830012023449,0.997652649879,-0.992586314678,0.988002121449,-0.999069452286,-0.999987065792,-0.997070610523,0.999919831753
A*,0.9884557724,-0.998313426971,-0.395897179842,0.988476753235,-0.967641711235,-0.376529067755,0.999154746532,-0.914416432381,-0.0554270632565,-0.9875690341,0.999211549759,0.0,0.589449465275,-0.998452603817,-0.996020793915,0.768515706062,-0.858443021774,-0.999494314194,-0.760360896587,0.172169312835
A*,0.897189676762,-0.999499499798,-0.933911025524,-0.837976157665,-0.999412357807,-0.0480160415173,0.987266302109,-0.988233029842,-0.255422443151,-0.812957346439,0.950057804585,0.271392971277,0.778475999832,0.793124675751,-0.990363240242,0.917308866978,-0.980543971062,-0.998419106007,-0.838266313076,0.959542989731
A*,0.922334730625,-0.966385543346,-0.912987470627,-0.974598109722,-0.998182296753,-0.285819381475,0.995932221413,-0.964052021503,-0.673561573029,-0.273881673813,0.956226229668,-0.169731736183,0.499424755573,0.990489780903,-0.953419744968,0.990418493748,-0.922018527985,-0.845872104168,-0.98662084341,0.96797055006
A*,0.196995839477,-0.970823287964,-0.985468089581,-0.982816636562,-0.998488306999,-0.226467102766,0.967675507069,-0.968939721584,-0.0658726394176,0.153317257762,0.390346229076,-0.575641214848,0.952612698078,0.964968562126,-0.847942650318,0.990418076515,-0.492153257132,-0.981113135815,-0.985760629177,0.988555669785
A*,0.587539255619,-0.861096680164,-0.853747546673,-0.851351797581,-0.992886543274,-0.0912007838488,0.98680472374,-0.892943918705,-0.554294586182,-0.140306964517,0.429461747408,0.179998382926,0.270095765591,0.947551012039,-0.297410130501,0.921824991703,-0.509330391884,-0.401686161757,-0.879086911678,0.794069111347
A,0.908040046692,-0.994392096996,-0.597211778164,-0.883246302605,-0.99983137846,-0.39678606391,0.998164832592,-0.996098279953,-0.557786643505,-0.505600631237,0.999272584915,0.324366509914,0.445389181376,0.998980402946,-0.988992750645,0.991350471973,-0.983154177666,-0.997639477253,-0.998867809772,0.974503695965
A,0.958911538124,-0.99817186594,0.46708136797,-0.36194857955,-0.999630153179,-0.104663856328,0.9985242486,-0.997333109379,-0.967950463295,-0.948845148087,0.999218225479,0.844255328178,0.637258470058,0.998282074928,-0.925588548183,0.993087470531,-0.997063398361,-0.998600304127,-0.99843364954,0.998008131981
A*,0.956484615803,-0.998344421387,-0.997570753098,-0.98468619585,-0.899624347687,-0.700942575932,0.999582469463,-0.999759793282,-0.234614536166,-0.745614111423,0.79576331377,-0.558329343796,0.821424007416,0.941716074944,-0.761991620064,0.99863666296,0.247911125422,-0.993556380272,-0.864278435707,0.980758666992
A,0.997442662716,-0.935021281242,-0.995672941208,-0.997551202774,-0.999996423721,-0.696079134941,0.996647655964,-0.842926561832,-0.557534575462,0.46907350421,0.932464003563,0.155379906297,0.973143458366,0.999974012375,-0.826088607311,0.988070905209,-0.990768074989,-0.698718965054,-0.999230563641,0.992448329926
A,0.866909921169,-0.985560774803,-0.195804268122,0.107518613338,-0.998914062977,-0.20666615665,0.998676598072,-0.980359077454,-0.849172055721,-0.799211919308,0.999148488045,0.515769183636,-0.117813073099,0.934542000294,-0.978386521339,0.919183313847,-0.973949730396,-0.998456120491,-0.989182531834,0.839666604996
A,0.953047573566,-0.995079100132,0.327086389065,0.350331395864,-0.999110877514,-0.245484352112,0.998017430305,-0.986023485661,-0.943674147129,-0.876225233078,0.999694466591,0.801230311394,0.0666455924511,0.928498089314,-0.984630942345,0.994711756706,-0.980296969414,-0.998438239098,-0.992830336094,0.978968858719
A,0.994733095169,-0.999093949795,0.850956499577,0.102788545191,-0.997626543045,0.0387980081141,0.999914824963,-0.999501645565,-0.995483636856,-0.745932817459,0.999012470245,0.9783603549,0.455303430557,0.999361157417,-0.994432032108,0.998230755329,-0.996723413467,-0.9976978302,-0.999015927315,0.998482763767
A,0.753633201122,-0.980810761452,-0.308642268181,0.00509148836136,-0.99551898241,-0.299569159746,0.993113577366,-0.855237185955,-0.0914637446404,-0.831016838551,0.998783290386,0.291245400906,0.284580409527,-0.617366731167,-0.951617777348,0.834616005421,-0.795197188854,-0.998061835766,-0.88588476181,0.0397085659206
A,0.83932697773,-0.983308196068,0.12390729785,-0.180690661073,-0.999624073505,-0.0650459751487,0.994764566422,-0.993766129017,-0.0872932523489,-0.939820349216,0.999085485935,0.237771734595,0.60246360302,0.520007491112,-0.891481637955,0.897340118885,-0.965425491333,-0.998641610146,-0.920795023441,-0.558950483799
A,0.881476819515,-0.997569322586,-0.0592478252947,-0.9534522295,-0.999712884426,-0.153422743082,0.996920585632,-0.998566150665,-0.717388629913,-0.8362185359,0.99668687582,0.659008681774,0.208094835281,0.995772957802,-0.869340121746,0.998420834541,-0.992255032063,-0.999961078167,-0.966435730457,0.986944615841
A*,0.87856566906,-0.939144849777,-0.979582488537,-0.953164756298,-0.992189288139,-0.527706980705,0.997810304165,-0.992513358593,-0.431540101767,-0.480412304401,0.628593504429,-0.192359536886,0.519069194794,0.952609479427,-0.649082899094,0.995434999466,-0.375469237566,-0.953976273537,-0.975876092911,0.969020545483
A,0.98495388031,-0.999857723713,-0.548779964447,-0.953170537949,-0.990369200706,-0.101802751422,0.99999320507,-0.99998652935,-0.991873145103,-0.322772115469,0.939232945442,0.998891413212,0.966951429844,0.999469518661,-0.999621987343,0.994789123535,-0.999418377876,-0.996949195862,-0.912458181381,0.999689042568
A,0.982560455799,-0.99999499321,-0.980412840843,-0.989721536636,-0.999414384365,-0.26518535614,0.995004117489,-0.997441709042,-0.833123683929,-0.643354773521,0.982171237469,0.489166557789,0.963568627834,0.999468028545,-0.99587059021,0.998277783394,-0.997605085373,-0.999353766441,-0.999355077744,0.996883511543
A*,0.977637529373,-0.972981154919,-0.948254644871,-0.988020122051,-0.999878764153,-0.0874055698514,0.995792388916,-0.98219782114,-0.489647656679,-0.41859203577,0.940644621849,0.0201678816229,0.957079827785,0.999990940094,-0.98011636734,0.848544836044,-0.994114100933,-0.798579216003,-0.999532938004,0.987774074078
A,0.999331593513,-0.999693274498,-0.997715234756,-0.984558045864,-0.999582529068,0.0709764584899,0.769716382027,-0.987796366215,-0.332163989544,0.807121634483,0.743844389915,0.328216791153,0.969142377377,0.999852359295,-0.850873470306,0.999995291233,-1.0,0.999994814396,-0.990367770195,0.999983727932
A,0.999834597111,-0.999992072582,0.850051283836,0.996734321117,-0.992966651917,0.00811133440584,0.987301051617,-0.999025225639,-0.926868855953,0.742234528065,0.999962806702,0.949650645256,0.990169644356,0.999271452427,-0.997790396214,0.999870181084,-0.99999588728,-0.414166152477,-0.997258782387,0.999364435673
A,0.999936044216,-0.994083583355,0.57733976841,0.999976217747,-0.999917864799,-0.576809346676,0.99996560812,-0.999997496605,-0.989416599274,0.783020734787,0.999894320965,0.954437673092,0.886432111263,0.999602079391,-0.999008655548,0.995764315128,-0.999508798122,-0.973202347755,-0.999405145645,0.999714851379
A,0.99825501442,-0.999534189701,0.391896218061,0.981293737888,-0.999614834785,-0.0761882588267,0.999995052814,-0.999994933605,-0.993445813656,-0.959855556488,0.999807715416,0.938647210598,0.981302499771,0.999537944794,-0.999205291271,0.981505990028,-0.999497950077,-0.999859035015,-0.998491466045,0.99996727705
A,0.999994158745,-0.99993956089,-0.968529462814,0.987515807152,-0.99914765358,0.0262764599174,0.999975502491,-0.999998986721,-0.966880142689,-0.95090842247,0.998604357243,0.999002754688,0.992876589298,0.999153912067,-0.999956011772,0.933691680431,-0.99998575449,-0.990250349045,-0.704962015152,0.999975502491
A,0.999086678028,-0.994393646717,0.896254181862,0.996876299381,-0.99834138155,-0.224947780371,0.999727964401,-0.999998629093,-0.995182454586,-0.973766386509,0.999558091164,0.991315305233,0.612089335918,0.999691069126,-0.995559513569,0.976749658585,-0.999771058559,0.156906843185,-0.973857879639,0.999550521374
A*,0.997928023338,-0.980683207512,-0.86186850071,-0.973924636841,-0.997456729412,-0.313953459263,0.998246014118,-0.999747872353,-0.976211249828,-0.585723817348,0.993699133396,0.0819808542728,0.845920443535,0.999709427357,-0.999228298664,0.999402523041,-0.990419685841,-0.831023693085,-0.999961137772,0.990410745144
A*,0.997401237488,-0.999997735023,-0.999805033207,-0.993529438972,-0.999571621418,-0.341917186975,0.999794483185,-0.999996185303,-0.755997121334,-0.708175957203,0.986822247505,0.456818521023,0.996804893017,0.999997675419,-0.999657988548,0.99590998888,-0.998291134834,-0.997834563255,-0.999846875668,0.998516261578
A*,0.96164482832,-0.810266792774,-0.728098452091,-0.958101511002,-0.999809205532,-0.615837991238,0.987881243229,-0.762009620667,-0.678753972054,-0.250962436199,0.988470554352,0.397652685642,0.350377112627,0.999826490879,-0.918973982334,0.919160485268,-0.977354824543,-0.359924852848,-0.998846173286,0.917424023151
A*,0.891010284424,-0.998013079166,-0.969181239605,-0.995260238647,-0.999967813492,-0.244152441621,0.96549475193,-0.98640203476,-0.614952802658,-0.400465011597,0.955982923508,0.200967460871,0.889874339104,0.997197568417,-0.987553656101,0.984948456287,-0.995124816895,-0.972251713276,-0.999758064747,0.992503285408
A,0.998602569103,-0.998894929886,0.611107587814,0.944984138012,-0.998053789139,-0.0675255730748,0.999991595745,-0.999993860722,-0.990446746349,-0.918379724026,0.999920129776,0.96553593874,0.899326264858,0.999568641186,-0.998925566673,0.91061270237,-0.999465823174,-0.989257991314,-0.998775839806,0.999617338181
A*,0.571944057941,-0.999407291412,-0.993688583374,-0.993459761143,-0.995233297348,0.105567984283,0.986405551434,-0.968266427517,-0.216288283467,-0.369528710842,0.582757890224,-0.245390355587,0.984834253788,0.905395328999,-0.938566327095,0.765039622784,-0.939113855362,-0.893383383751,-0.996459007263,0.986613094807
A*,0.840889394283,-0.991723895073,-0.574742138386,-0.95986789465,-0.999836266041,-0.219765633345,0.994518399239,-0.964242637157,-0.811493813992,-0.587662220001,0.997108101845,0.694228351116,0.892419397831,0.997856199741,-0.990204691887,0.993235290051,-0.995250761509,-0.989092350006,-0.999638617039,0.990458130836
A*,0.947112500668,-0.991274178028,-0.942483603954,-0.970924258232,-0.9961835742,0.0291784033179,0.997101724148,-0.998530089855,-0.57459551096,-0.581364572048,0.938344120979,-0.0679321661592,0.780885338783,0.992427766323,-0.995593845844,0.981157243252,-0.975297570229,-0.922643482685,-0.992863595486,0.985139250755
A*,0.896746516228,-0.982713937759,-0.961951315403,-0.967236399651,-0.993316531181,-0.198959112167,0.971167623997,-0.993128299713,-0.721438288689,-0.13050621748,0.948313772678,-0.338253617287,0.875139057636,0.995890796185,-0.995652318001,0.971736371517,-0.982591450214,-0.915689229965,-0.999399423599,0.96608787775
A*,0.740518093109,-0.622197270393,-0.311680585146,-0.694931268692,-0.984400570393,0.050235234201,0.986081898212,-0.943333029747,-0.753922939301,-0.0188252758235,0.958790719509,0.107951447368,-0.402916491032,0.929673016071,-0.948462128639,0.979313671589,-0.722572028637,-0.94542402029,-0.965234935284,0.620962321758
A,0.98647403717,-0.999290943146,0.389460712671,0.0318497382104,-0.999712049961,-0.132381543517,0.999813437462,-0.999927163124,-0.982834517956,-0.929608762264,0.999881267548,0.610061466694,0.0709681436419,0.996564388275,-0.991469740868,0.995248258114,-0.992713570595,-0.999588370323,-0.999626994133,0.993329584599
A*,0.73329937458,-0.922203481197,-0.703857660294,-0.958519816399,-0.995890140533,-0.0137529214844,0.995521783829,-0.955016255379,-0.887560248375,-0.106626644731,0.871262788773,0.261031925678,0.681636929512,0.988341331482,-0.91136610508,0.917782247066,-0.936518609524,-0.728928864002,-0.993254959583,0.883752644062
A,0.999401926994,-0.999212443829,-0.506703972816,0.998045504093,-0.99205070734,0.0489130094647,0.999954819679,-0.999997675419,-0.998551428318,-0.92243885994,0.998317420483,0.995725631714,0.941958189011,0.999917924404,-0.997160851955,0.967793047428,-1.0,0.995462715626,-0.514758944511,0.999999821186
A,0.762993812561,-0.999256193638,0.774754881859,0.0211294852197,-0.98010879755,-0.0707525834441,0.999866366386,-0.999920427799,-0.991391479969,-0.825630605221,0.999779939651,0.913004279137,0.10691986233,0.999851465225,-0.795173764229,0.993700444698,-0.99568939209,-0.99986833334,-0.910129368305,0.996164262295
A,0.98371976614,-0.997070133686,0.609338104725,-0.143552318215,-0.999777257442,-0.191380336881,0.999907851219,-0.998156070709,-0.964704632759,-0.850776255131,0.999851465225,0.998510062695,0.860761284828,0.99859046936,-0.997558534145,0.994427382946,-0.998964369297,-0.999479115009,-0.99973654747,0.998391866684
A,0.985127210617,-0.995775341988,0.935203850269,0.738994956017,-0.999980330467,-0.0889518111944,0.999215960503,-0.998709082603,-0.994104504585,-0.734599471092,0.999983370304,0.972327291965,0.482798784971,0.999798834324,-0.997054815292,0.999708712101,-0.998186051846,-0.999500513077,-0.999986350536,0.997840642929
A,1.0,-0.999994456768,0.462129116058,0.999999523163,-1.0,-0.781567394733,0.99991941452,-1.0,-0.980547845364,0.413542419672,0.999999582767,0.932299911976,0.999998509884,0.994468331337,-0.99999910593,0.992491185665,-0.999951660633,-0.999845325947,-0.999478042126,1.0
A,0.999611616135,-0.994991123676,0.957685291767,0.977374136448,-0.99997395277,-0.839539825916,0.99999153614,-0.999697864056,-0.983052551746,-0.195432558656,0.999997138977,0.995298027992,-0.231410428882,0.99966019392,-0.99760645628,0.99924993515,-0.999031066895,-0.998640716076,-0.999992370605,0.999472975731
A,0.998509645462,-0.999191939831,0.271344453096,0.998580515385,-0.999945342541,-0.430777490139,0.999959647655,-0.998998045921,-0.989798843861,-0.935886800289,0.999951004982,0.968985617161,0.973823964596,0.998564958572,-0.999524354935,0.980322480202,-0.998709738255,-0.999627351761,-0.998321533203,0.999947965145
A,0.972428619862,-0.999989211559,-0.836672127247,-0.961322367191,-0.999969005585,-0.455821752548,0.999057710171,-0.999959230423,-0.79012876749,0.126724138856,0.999776124954,0.658856928349,0.989137232304,0.999878466129,-0.99979197979,0.99815505743,-0.999022722244,-0.999931454659,-0.999997079372,0.998467683792
A,0.995560467243,-0.999892354012,-0.27242448926,0.950588941574,-0.999641954899,-0.141953289509,0.999991178513,-0.999980568886,-0.993807017803,-0.935364186764,0.999834954739,0.762553215027,0.93219524622,0.998784244061,-0.996012091637,0.98327422142,-0.997421979904,-0.999991118908,-0.996982574463,0.999865233898
A*,0.999431490898,-0.992852091789,-0.39490327239,-0.995009601116,-0.999926686287,0.289905577898,0.191543579102,0.640724360943,-0.0,0.999302983284,0.59220123291,0.0,0.89478880167,0.994901061058,-0.906388700008,0.999758958817,-0.999999940395,0.99953687191,-0.971474826336,0.994009077549
A,0.999994754791,-0.999980688095,-0.968791782856,0.999386072159,-0.997781395912,-0.21628266573,0.99998152256,-0.999998509884,-0.985687196255,-0.799632370472,0.999246239662,0.999394237995,0.995949685574,0.997846245766,-0.999670386314,0.988271534443,-0.999973475933,-0.896435558796,-0.700296401978,0.999950706959
A,0.999241232872,-0.980332195759,-0.901198267937,-0.863204538822,-0.999519050121,-0.0742201581597,0.986484408379,-0.997274041176,-0.646917104721,0.59864538908,0.999956607819,0.423078238964,0.991905987263,0.999992311001,-0.999813139439,0.999905943871,-0.990883529186,-0.9983522892,-0.999995529652,0.986687064171
A,0.989553511143,-0.999063313007,-0.990689992905,-0.999079406261,-0.999951541424,-0.593653619289,0.994722783566,-0.99976426363,-0.185625523329,0.971586585045,0.992661416531,0.161331325769,0.999337673187,0.999954521656,-0.997153103352,0.999860942364,-0.994724750519,-0.999964773655,-0.999998927116,0.996965944767
A*,0.990150928497,-0.995140612125,-0.715392827988,-0.910878419876,-0.999461531639,-0.820661485195,0.994608998299,-0.998191595078,-0.0638341456652,0.873827338219,0.970846652985,-0.41971796751,0.706248939037,0.999817013741,-0.950871169567,0.995982408524,-0.959682881832,-0.996004700661,-0.999845802784,0.929233849049
A*,0.87657392025,-0.952411055565,-0.368189841509,-0.974126815796,-0.99329072237,0.0641876384616,0.975975930691,-0.900284290314,-0.380705088377,0.402233332396,0.983231723309,-0.154130116105,0.23824672401,0.997812211514,-0.963263869286,0.981648623943,-0.844851136208,-0.994084656239,-0.998573184013,0.557218313217
A*,0.919415831566,-0.845024883747,-0.924924731255,-0.305402338505,-0.995419561863,-0.506010353565,0.991372287273,0.256124377251,-0.0744911506772,0.0236299708486,0.998020350933,-0.017995858565,-0.116358064115,0.231927216053,-0.825991928577,0.971648335457,-0.217232644558,-0.968358933926,-0.966343998909,-0.753350794315
A,0.96772056818,-0.998950362206,-0.117439560592,-0.760647952557,-0.999625980854,0.0387288592756,0.994831800461,-0.997196793556,-0.960561215878,-0.80169570446,0.999191462994,0.729774653912,0.642136752605,0.999705970287,-0.872962474823,0.998978793621,-0.995347201824,-0.999786436558,-0.999981045723,0.99669533968
A,0.723977744579,-0.992537438869,0.135852605104,-0.277035683393,-0.998568892479,-0.189158499241,0.999594628811,-0.998284757137,-0.95184892416,-0.335195124149,0.995595395565,0.963178515434,-0.00699665769935,0.997901558876,-0.956110298634,0.999908030033,-0.954531013966,-0.999892771244,-0.999779284,0.98469132185
A*,0.950099289417,-0.999859571457,0.0502581782639,-0.96584635973,-0.992109358311,-0.266518652439,0.97652900219,-0.999891042709,0.604453623295,-0.430388569832,0.98276913166,0.0,0.591312468052,0.955731034279,-0.949884355068,0.696535110474,-0.906583607197,-1.00000011921,-0.757431209087,0.814709842205
A,0.999998509884,-1.0,-0.88731443882,0.99848562479,-0.99940598011,-0.148553520441,0.99992442131,-1.0,-0.920674562454,-0.949901819229,0.999887347221,0.990826010704,0.994124650955,0.999486148357,-0.999898791313,0.998033225536,-0.999713122845,-0.999998807907,-0.999995231628,0.999648749828
A*,0.971025466919,-0.94092798233,-0.249638214707,-0.99876499176,-0.999260187149,0.0745344981551,0.774943590164,0.0955656543374,-0.0478663593531,-0.0121913719922,0.992994487286,0.165866270661,0.84345728159,0.996721804142,-0.937428951263,0.999888420105,-0.995037138462,-0.944772481918,-0.999162375927,0.852262914181
A,0.951874017715,-0.999970972538,-0.888755142689,-0.930827736855,-0.999234616756,-0.10819838196,0.999822974205,-0.999908030033,-0.908145487309,-0.82426661253,0.99289804697,0.988321840763,0.867502868176,0.9990914464,-0.995423972607,0.999277293682,-0.995275974274,-0.999997735023,-0.999887108803,0.997710347176
A,0.999821901321,-1.0,-0.999030053616,0.99999588728,-0.999887168407,-0.215939745307,0.999835312366,-1.0,-0.792533636093,-0.885492503643,0.998955905437,0.997044146061,0.999338984489,0.869586825371,-0.999461710453,0.983572840691,-0.999877095222,-0.998335957527,0.885503351688,0.999746739864
A,0.634331822395,-0.999316811562,-0.439609736204,-0.925431370735,-0.997345030308,-0.05211244151,0.993909060955,-0.999794960022,-0.709417104721,-0.63441157341,0.981321692467,0.652209460735,0.427180826664,0.999966740608,-0.886768937111,0.997037053108,-0.983822345734,-0.99980711937,-0.999978542328,0.805607318878
A,0.990082502365,-0.998386085033,0.686762094498,0.969543278217,-0.99961066246,-0.198985993862,0.999994695187,-0.999802231789,-0.99923324585,-0.918921291828,0.999956786633,0.978975653648,0.701811373234,0.999083936214,-0.997216403484,0.923628151417,-0.995065391064,-0.989199101925,-0.994311332703,0.998682260513
A,1.0,-1.0,0.0393763892353,1.0,-0.978774189949,-0.921831607819,1.0,-1.0,-0.999572515488,-0.321595460176,0.999946892262,0.999999821186,0.999998867512,0.968638181686,-1.0,0.999454140663,-0.999973893166,-0.989850223064,-0.999975085258,0.999967932701
A,0.99954277277,-0.997691750526,0.998550474644,0.99902755022,-0.984419822693,-0.65547478199,0.999999880791,-0.999343574047,-0.999998867512,-0.342063754797,0.999951541424,0.990590691566,0.879275262356,0.999962627888,-0.97017967701,0.960207164288,-0.992296874523,-0.67644238472,-0.999603807926,0.999696791172
A,1.0,-0.999685168266,-0.999902367592,0.999998807907,-0.364964962006,-0.99999666214,1.0,-0.999997317791,-0.999827861786,0.0127836642787,0.998992860317,0.867981493473,1.0,0.658056259155,-0.999941110611,0.980181992054,-0.943684995174,-0.938258588314,0.995326280594,0.997604072094
A,0.999861478806,-0.999195218086,0.994966030121,0.999067127705,-0.996570467949,-0.58464962244,1.0,-0.999654352665,-0.999794781208,-0.796473324299,0.999789893627,0.995006680489,0.974033892155,0.788481116295,-0.963548779488,0.951584041119,-0.977151453495,-0.999587714672,-0.996453106403,0.999813973904
A,0.987948060036,-0.990192711353,0.707056820393,0.928401112556,-0.999652028084,-0.460078090429,0.999999284744,-0.998037457466,-0.994890630245,-0.974833905697,0.999243021011,0.991643369198,0.359677523375,0.994014680386,-0.989754796028,0.9818546772,-0.970483779907,-0.953677892685,-0.978157162666,0.999830245972
A,0.951150357723,-0.998502552509,-0.820167779922,0.999998033047,-0.989554226398,-0.393646657467,0.99997729063,-1.0,-0.990883588791,-0.774539530277,0.989039301872,0.973950088024,0.778671324253,0.99861484766,-0.975577175617,0.995536088943,-0.992434680462,0.210345819592,0.908780872822,0.998785734177
A,0.884697079659,-0.979588747025,-0.331341683865,0.989099085331,-0.996619582176,-0.0319387950003,0.999967932701,-0.998941779137,-0.923572957516,-0.968441486359,0.996663749218,0.998867273331,0.979384243488,0.671119987965,-0.9920104146,0.979850888252,-0.902496993542,-0.998200893402,-0.981401860714,0.999950051308
A,0.0763356536627,-0.957198500633,-0.259244143963,-0.146760165691,-0.999441325665,-0.00986833218485,0.99971550703,-0.962432682514,-0.8288859725,-0.91767936945,0.972679257393,0.99190557003,0.610919117928,0.803146123886,-0.772427737713,0.998369276524,0.40046697855,-0.996514379978,-0.995328068733,0.999733269215
A,0.448958933353,-0.660021185875,0.86023414135,0.93376237154,-0.795119583607,-0.108629576862,0.996918916702,-0.927114486694,-0.97527217865,-0.890229225159,0.993379235268,0.990481674671,0.286967694759,0.48907122016,-0.694820582867,0.990436315536,0.580377697945,-0.964531302452,-0.78218716383,0.98903465271
A,0.160646349192,-0.909485578537,0.905728697777,0.579875707626,-0.907445788383,-0.02328774333,0.999389350414,-0.910875916481,-0.967986106873,-0.921994924545,0.986774563789,0.9971139431,0.242905467749,0.879046797752,-0.602260649204,0.998936474323,0.355832457542,-0.994641065598,-0.953059315681,0.998209834099
A,0.364063084126,-0.987472116947,0.883517205715,0.992844164371,-0.950033724308,-0.139749094844,0.999948978424,-0.997616171837,-0.977517545223,-0.921680808067,0.996282696724,0.978965342045,-0.178045004606,0.865195572376,-0.803306162357,0.999164164066,-0.321556091309,-0.984202504158,-0.951634824276,0.998000502586
A,0.815449893475,-0.987202227116,-0.846347987652,0.997590303421,-0.977885007858,-0.436410486698,0.999844670296,-0.987158417702,-0.963165998459,-0.970426976681,0.988317430019,0.999495208263,0.888911068439,-0.592421472073,-0.98499661684,0.997546315193,0.816115319729,-0.990652740002,-0.374433606863,0.999877095222
A,0.459733009338,-0.965399384499,0.976687014103,0.995540380478,-0.998646259308,-0.0954768434167,0.999972581863,-0.988829374313,-0.591041207314,-0.97329467535,0.980554282665,0.83109074831,0.550284922123,0.270959556103,-0.880381822586,0.998091459274,-0.154062107205,-0.999683201313,-0.724809646606,0.999937474728
A,0.999496340752,-0.977762281895,-0.999959409237,0.9891269207,0.965226590633,-0.863497614861,0.999999165535,-0.999315917492,-0.823043942451,-0.984599888325,0.992203056812,0.0165023412555,0.975746035576,-0.879873454571,-0.9798412323,0.935071229935,0.999641299248,-0.989836871624,0.927827775478,0.999868571758
A,0.999541938305,-0.934325456619,0.995186507702,0.977787911892,-0.99124276638,-0.993429481983,0.999222576618,-0.999992847443,-0.294792205095,0.785729765892,0.944415390491,0.940246582031,-0.999996840954,0.720603585243,-0.984069287777,0.969230771065,-0.971686065197,-0.859926521778,-0.999405741692,0.361810326576
A,0.912467241287,-0.953803896904,0.750693976879,0.981682896614,-0.99743449688,-0.00965073518455,0.999817788601,-0.998479127884,-0.989014267921,-0.895851433277,0.995722293854,0.992862522602,-0.0757102221251,0.959552168846,-0.883878231049,0.996236026287,-0.683477640152,-0.965416133404,-0.977990269661,0.997923016548
A,0.98204523325,-0.991658329964,0.417795836926,0.988448858261,-0.999417901039,-0.284494102001,0.99999833107,-0.998690366745,-0.983377993107,-0.979007840157,0.996644973755,0.985674500465,0.000805109506473,0.324972778559,-0.975724458694,0.997073531151,-0.715246915817,-0.993172645569,-0.963640749454,0.999791443348
A,0.99561214447,-0.996560513973,0.475977063179,0.984612882137,-0.999045789242,-0.427537292242,0.99999910593,-0.999835312366,-0.913786768913,-0.964081645012,0.998041212559,0.918003380299,0.632548451424,0.912078261375,-0.979742884636,0.999059975147,-0.923963189125,-0.996915221214,-0.986907303333,0.999653339386
A,0.976226270199,-0.980088233948,0.959955632687,0.987207114697,-0.999206602573,-0.411422967911,0.999993801117,-0.998798787594,-0.99965018034,-0.968882322311,0.999657690525,0.94291228056,-0.684163510799,0.819681763649,-0.986131310463,0.891631066799,-0.964689671993,-0.925683140755,-0.959058344364,0.998651504517
A,0.997405290604,-0.999013185501,0.870482504368,0.956476211548,-0.999807834625,-0.420965135098,0.999999880791,-0.999819397926,-0.999707698822,-0.980790138245,0.999983668327,0.83587372303,-0.599341511726,0.988397717476,-0.964318871498,0.985597372055,-0.987261295319,-0.998891890049,-0.998073399067,0.998849153519
A,0.996404528618,-0.997841238976,0.997371554375,0.998235821724,-0.999730169773,-0.287313342094,0.999873638153,-0.999947786331,-0.998018801212,-0.929950475693,0.999670088291,0.997303187847,0.404873758554,0.999528169632,-0.988749742508,0.993417620659,-0.998412966728,-0.873361289501,-0.997378468513,0.999747812748
A,0.976786732674,-0.988285839558,0.960829854012,0.979503750801,-0.999180197716,-0.653079628944,0.997670888901,-0.99255669117,-0.944648981094,-0.635190665722,0.998374998569,0.845808625221,0.383161991835,0.987019836903,-0.98455542326,0.999057233334,-0.994289815426,-0.961340785027,-0.999727547169,0.999399662018
A,0.28627038002,-0.525295317173,0.86979085207,0.855771064758,-0.808909714222,-0.298980861902,0.994957864285,-0.948200166225,-0.925788402557,-0.130264788866,0.930530071259,0.970053911209,-0.855826199055,0.988180756569,-0.645943045616,0.999053359032,-0.700639367104,-0.980784833431,-0.991523742676,0.984937846661
A,0.643073558807,-0.861929953098,0.945927739143,0.989611804485,-0.997444629669,-0.245058268309,0.995398700237,-0.955682218075,-0.973810911179,-0.273935824633,0.988202989101,0.98210477829,0.293129682541,0.984348475933,-0.941692769527,0.999683916569,-0.861814379692,-0.980889856815,-0.997486591339,0.997133493423
A,0.0451560914516,-0.481420129538,0.68153077364,0.293330341578,-0.743968188763,-0.0146598024294,0.956701993942,-0.812214076519,-0.804262697697,-0.358651787043,0.910070955753,0.842238128185,-0.697560608387,0.956875383854,-0.484474360943,0.941370248795,-0.0386653132737,-0.861630320549,-0.813772976398,0.834813177586
A,0.896625697613,-0.975790858269,0.854260861874,0.987555921078,-0.998324334621,-0.328826010227,0.999150574207,-0.977474689484,-0.940755546093,-0.847211301327,0.9968791008,0.917178571224,-0.708225369453,0.981717944145,-0.921562254429,0.993990242481,-0.952543079853,-0.990063011646,-0.997807681561,0.997541487217
A,0.565242171288,-0.993433177471,0.95280200243,0.486679494381,-0.995610117912,-0.474780410528,0.995863676071,-0.998017907143,0.409903794527,-0.118651159108,0.993598520756,0.612867474556,-0.0100671220571,0.315739095211,-0.974836826324,0.438227981329,-0.985246062279,-0.999633669853,-0.989322781563,0.818831205368
